float weights_bn_0_0[9]={7.0769447088241577148437500e-01,8.7571346759796142578125000e-01,1.8733186721801757812500000e+00,1.2081358581781387329101562e-01,1.5331484079360961914062500e+00,-2.4110856652259826660156250e-01,1.3843129873275756835937500e+00,1.1232923269271850585937500e+00,1.7526786327362060546875000e+00};
float weights_bn_1_0[9]={9.8338179290294647216796875e-02,1.2931962311267852783203125e-01,3.5350689291954040527343750e-01,-5.9804290533065795898437500e-02,1.9825423136353492736816406e-02,-8.0744642019271850585937500e-01,2.2228039801120758056640625e-01,3.9927843213081359863281250e-01,-1.9115577638149261474609375e-01};
float weights_bn_2_0[9]={-2.6070647239685058593750000e+00,1.0003722381591796875000000e+02,2.6819052124023437500000000e+02,1.2580406665802001953125000e+00,2.1089029312133789062500000e-01,9.0736068785190582275390625e-02,2.1505810320377349853515625e-01,3.0997234582901000976562500e-01,1.4203272759914398193359375e-01};
float weights_bn_3_0[9]={1.3747512500000000000000000e+05,8.4877703125000000000000000e+04,7.0113968750000000000000000e+04,7.4911331176757812500000000e+01,9.8799355328083038330078125e-02,1.2104483693838119506835938e-01,6.7447230219841003417968750e-02,2.1840991452336311340332031e-02,1.6995331645011901855468750e-01};
float weights_tr1_0_0[9][56]={
	{-8.3101294934749603271484375e-02,1.4588899910449981689453125e-01,-5.2524305880069732666015625e-02,-7.7448353171348571777343750e-02,6.8426913022994995117187500e-01,-2.7861356735229492187500000e-02,2.7648417279124259948730469e-02,2.5128505658358335494995117e-03,2.5727683678269386291503906e-02,1.8616384267807006835937500e-01,-1.6319463029503822326660156e-02,2.3884141817688941955566406e-02,-3.3447246998548507690429688e-02,-4.4883791357278823852539062e-02,-1.2143252789974212646484375e-01,2.8956560418009757995605469e-02,-6.5462350845336914062500000e-01,8.7044775485992431640625000e-02,-2.4863153696060180664062500e-02,-1.9490454345941543579101562e-02,-7.1970164775848388671875000e-02,-1.9284201785922050476074219e-02,6.4454227685928344726562500e-02,-5.8083262294530868530273438e-02,2.1341642737388610839843750e-01,4.5530624687671661376953125e-02,-1.1295098066329956054687500e+00,-1.4598652720451354980468750e-02,4.5290743000805377960205078e-03,-7.2710923850536346435546875e-02,-3.9824236184358596801757812e-02,-1.6996675729751586914062500e-01,9.2309556901454925537109375e-02,-2.8293509483337402343750000e+00,-1.8424782156944274902343750e-01,1.3357521966099739074707031e-02,-3.0898010358214378356933594e-02,-5.1976550370454788208007812e-02,-4.0078616142272949218750000e+00,8.9591713622212409973144531e-03,5.0506185740232467651367188e-02,-1.1278009414672851562500000e-01,-3.8597088307142257690429688e-02,-1.5762537717819213867187500e-01,-7.9878363758325576782226562e-03,-1.6806105151772499084472656e-02,5.1949459314346313476562500e-01,-2.0392899215221405029296875e-01,-6.2628082931041717529296875e-02,-4.1768129914999008178710938e-02,-3.9143525063991546630859375e-02,1.3597333431243896484375000e-01,5.6990578770637512207031250e-02,9.2875525355339050292968750e-02,2.3168121278285980224609375e-01,6.5627954900264739990234375e-02},
	{-1.4363079331815242767333984e-02,2.6657486334443092346191406e-02,-1.2410259246826171875000000e-01,-4.6389270573854446411132812e-02,1.3579695224761962890625000e+00,6.1554828425869345664978027e-04,4.5279406011104583740234375e-02,4.2967360466718673706054688e-02,-2.8390780091285705566406250e-02,1.5300583094358444213867188e-02,6.3449874520301818847656250e-02,-1.2118946760892868041992188e-01,7.7536337077617645263671875e-02,1.2255000881850719451904297e-02,8.7353587150573730468750000e-02,1.5780235826969146728515625e-01,2.9850640296936035156250000e+00,2.5725988671183586120605469e-02,3.5357676446437835693359375e-02,4.6529736369848251342773438e-02,-4.2749977111816406250000000e-01,-4.0823146700859069824218750e-03,3.2364230602979660034179688e-02,-9.3369819223880767822265625e-02,2.5033432990312576293945312e-02,-7.4315413832664489746093750e-02,9.9900269508361816406250000e-01,-7.7857747673988342285156250e-02,5.2565693855285644531250000e-02,1.0750640928745269775390625e-01,5.2820868790149688720703125e-02,-2.0876936614513397216796875e-01,7.9823784530162811279296875e-02,-3.0102784633636474609375000e+00,-1.8116372823715209960937500e+00,9.0687200427055358886718750e-02,7.9699531197547912597656250e-02,9.3696735799312591552734375e-02,1.0476326197385787963867188e-01,-1.1407727375626564025878906e-02,-4.2580270767211914062500000e-01,-4.8244860023260116577148438e-02,2.6861194521188735961914062e-02,-5.4371055215597152709960938e-02,9.1465050354599952697753906e-03,2.8805425763130187988281250e-01,-1.7925119400024414062500000e+00,1.5847931802272796630859375e-01,-1.5774044394493103027343750e-01,2.2413130849599838256835938e-02,-4.3468646705150604248046875e-02,-3.2952632755041122436523438e-02,-2.8387853875756263732910156e-02,-3.5816660965792834758758545e-04,-1.3853545486927032470703125e-01,5.7860504835844039916992188e-02},
	{7.1481567621231079101562500e-01,6.8766230344772338867187500e-01,-2.9328603744506835937500000e+00,-6.4992690086364746093750000e-01,-8.4572368860244750976562500e-01,-1.0818611830472946166992188e-01,9.4395345449447631835937500e-01,-4.8191255331039428710937500e-01,8.7082272768020629882812500e-01,-7.8590190410614013671875000e-01,4.1941162943840026855468750e-01,4.6725338697433471679687500e-01,1.3705924153327941894531250e-01,9.9712520837783813476562500e-02,-1.8815451860427856445312500e-01,1.3756723403930664062500000e+00,2.5144726037979125976562500e-01,-1.3072938919067382812500000e+00,-1.2177781201899051666259766e-02,1.4428844451904296875000000e+00,-1.0821297168731689453125000e+00,1.3649165630340576171875000e-01,1.4819717407226562500000000e-01,-1.4812837839126586914062500e+00,-6.0630202293395996093750000e-01,4.0851175785064697265625000e-01,-1.5640455484390258789062500e-01,3.4186494350433349609375000e-01,1.6146299242973327636718750e-01,1.4823278188705444335937500e+00,3.5950011014938354492187500e-01,-1.4774327278137207031250000e+00,-1.2038396596908569335937500e+00,-1.1472468078136444091796875e-01,-3.3433377742767333984375000e-01,7.1165281534194946289062500e-01,7.1326237916946411132812500e-01,-1.0409899950027465820312500e+00,2.0068187266588211059570312e-02,1.5977871417999267578125000e+00,-1.3513834476470947265625000e+00,-1.4030510187149047851562500e-01,7.3830569162964820861816406e-03,-3.0423486232757568359375000e-01,2.3729605972766876220703125e-01,-3.9002448320388793945312500e-01,-6.0466271638870239257812500e-01,4.0910953283309936523437500e-01,1.3296492099761962890625000e+00,5.3544962406158447265625000e-01,-3.7726897001266479492187500e-01,1.9524970650672912597656250e-01,-3.4792134165763854980468750e-01,4.7298714518547058105468750e-01,4.1199579834938049316406250e-01,-2.5116461515426635742187500e-01},
	{-2.8402084112167358398437500e-01,-5.4627251625061035156250000e-01,-2.2654664516448974609375000e-01,-4.8859921097755432128906250e-01,-4.7420486807823181152343750e-01,-9.1698318719863891601562500e-02,-1.3030710816383361816406250e-01,-5.7303899526596069335937500e-01,-6.9143325090408325195312500e-01,-1.9164340198040008544921875e-01,3.3014452457427978515625000e-01,-1.5248899459838867187500000e+00,7.7264970541000366210937500e-01,1.0780797153711318969726562e-01,-4.8662093281745910644531250e-01,-7.2813540697097778320312500e-02,2.9297491908073425292968750e-01,-4.9090918898582458496093750e-01,3.5512441396713256835937500e-01,7.8557264804840087890625000e-01,5.1463630050420761108398438e-02,-4.7049495577812194824218750e-01,-3.5180464386940002441406250e-01,7.4810570478439331054687500e-01,-1.9360918998718261718750000e+00,-4.9062240123748779296875000e-01,7.9236634075641632080078125e-02,4.0998613834381103515625000e-01,2.5690546035766601562500000e+00,-3.2718375325202941894531250e-01,7.4550867080688476562500000e-01,-7.8899957239627838134765625e-02,-3.6652374267578125000000000e-01,-2.5175270438194274902343750e-01,4.2039778828620910644531250e-01,-8.6840376257896423339843750e-02,-1.2247693538665771484375000e-01,-6.4207559823989868164062500e-01,1.2058953940868377685546875e-01,-2.5595667958259582519531250e-01,1.1038543656468391418457031e-02,-4.8176303505897521972656250e-02,1.5747871994972229003906250e-01,2.9090064764022827148437500e-01,-2.6504153013229370117187500e-01,-2.0970819890499114990234375e-01,-4.7280716896057128906250000e-01,1.5095011889934539794921875e-01,-6.6869735717773437500000000e-01,1.2819649279117584228515625e-01,9.0398684144020080566406250e-02,-9.6031910181045532226562500e-01,-3.8405641913414001464843750e-01,9.0397047996520996093750000e-01,4.0962305665016174316406250e-01,-4.0513643622398376464843750e-01},
	{-1.7921218872070312500000000e+00,-7.6746881008148193359375000e-01,-2.0748846232891082763671875e-02,-3.9039656519889831542968750e-02,2.4172823131084442138671875e-01,-1.2522385120391845703125000e+00,-1.4108457565307617187500000e+00,8.6032766103744506835937500e-01,7.1980454027652740478515625e-02,2.5842663645744323730468750e-01,-2.1093800067901611328125000e+00,-8.1436103582382202148437500e-01,6.1907953023910522460937500e-01,-6.9733738899230957031250000e-01,-2.1041125059127807617187500e-01,-3.0711963772773742675781250e-01,1.8116003274917602539062500e-01,1.1582891941070556640625000e+00,1.4497770071029663085937500e+00,-4.1010075807571411132812500e-01,-3.9093393087387084960937500e-01,-1.1446957588195800781250000e+00,-1.9631949663162231445312500e+00,-3.1296342611312866210937500e-01,1.1181323528289794921875000e+00,-8.3042693138122558593750000e-01,-7.8372575342655181884765625e-02,1.3216369152069091796875000e+00,-4.5925235748291015625000000e-01,7.4158632755279541015625000e-01,-3.9095604419708251953125000e-01,-1.0557149648666381835937500e+00,-7.3260849714279174804687500e-01,6.0455601662397384643554688e-02,4.3371912837028503417968750e-01,-1.4613699913024902343750000e+00,-1.2638356685638427734375000e+00,1.1195541918277740478515625e-01,-1.2521818280220031738281250e-03,-2.2075270116329193115234375e-01,1.0407199710607528686523438e-01,-6.4840483665466308593750000e-01,7.0655256509780883789062500e-01,-1.2646977789700031280517578e-02,1.0819232463836669921875000e+00,5.5203324556350708007812500e-01,-2.7526187896728515625000000e-01,7.8277599811553955078125000e-01,7.0278376340866088867187500e-01,3.3881121873855590820312500e-01,5.5742394924163818359375000e-01,3.6395710706710815429687500e-01,-6.6811509430408477783203125e-02,1.0853469371795654296875000e+00,-4.3515160679817199707031250e-01,-3.4562805294990539550781250e-01},
	{5.5279374122619628906250000e-01,-5.0956860184669494628906250e-02,-1.6911783814430236816406250e-01,-6.7649269104003906250000000e-01,-1.7108079195022583007812500e+00,-4.5156322419643402099609375e-02,1.6952923536300659179687500e+00,-1.2250159978866577148437500e+00,8.3208256959915161132812500e-01,3.1639847159385681152343750e-01,7.7944475412368774414062500e-01,3.0088577419519424438476562e-02,4.5393687486648559570312500e-01,4.4780221581459045410156250e-01,-7.1964097023010253906250000e-01,-1.1575185060501098632812500e+00,-6.0979539155960083007812500e-01,-1.2431555986404418945312500e+00,6.5294516086578369140625000e-01,2.7278366684913635253906250e-01,-7.1578490734100341796875000e-01,3.6170729994773864746093750e-01,-4.6826449036598205566406250e-01,6.8925607204437255859375000e-01,-1.7205819487571716308593750e-01,4.0463009476661682128906250e-01,-4.4413504004478454589843750e-01,1.2436655759811401367187500e+00,-1.9855309277772903442382812e-02,1.3938714265823364257812500e+00,3.3084896206855773925781250e-01,5.4808276891708374023437500e-01,-3.7760666012763977050781250e-01,5.1354128122329711914062500e-01,-1.4154475927352905273437500e+00,-1.9217154383659362792968750e-01,8.2951599359512329101562500e-01,-4.6469303965568542480468750e-01,-6.3571192324161529541015625e-02,-2.9640868306159973144531250e-01,2.7553731203079223632812500e-01,-1.4264395236968994140625000e+00,-2.1988527849316596984863281e-02,-3.1551590561866760253906250e-01,-3.5171031951904296875000000e-01,-9.0827953815460205078125000e-01,-1.9560880661010742187500000e+00,-5.2828931808471679687500000e-01,1.8842670321464538574218750e-01,4.1454145312309265136718750e-01,-7.2337377071380615234375000e-01,-1.3824990391731262207031250e-01,1.7587134242057800292968750e-01,1.9823940098285675048828125e-01,-2.6121836900711059570312500e-01,-4.7910127043724060058593750e-01},
	{1.1919076442718505859375000e+00,-7.0300334692001342773437500e-01,-1.4517246186733245849609375e-01,-1.1106597185134887695312500e+00,7.2171068750321865081787109e-03,8.2732748985290527343750000e-01,1.2593336403369903564453125e-01,1.3126348257064819335937500e+00,-5.4638671875000000000000000e-01,-1.1356258392333984375000000e+00,-7.2943753004074096679687500e-01,-8.6503541469573974609375000e-01,6.6101409494876861572265625e-02,1.8314340710639953613281250e-01,-2.5110420584678649902343750e-01,9.4958238303661346435546875e-02,-2.3023559153079986572265625e-01,-5.4780340194702148437500000e-01,-6.8793559074401855468750000e-01,-6.1844760179519653320312500e-01,-1.2346549332141876220703125e-01,2.9738217592239379882812500e-01,-8.2740372419357299804687500e-01,-1.3300663232803344726562500e+00,8.7048083543777465820312500e-01,8.1300169229507446289062500e-01,3.5278612375259399414062500e-01,-9.2918550968170166015625000e-01,7.6160281896591186523437500e-01,1.6633062064647674560546875e-01,6.9030004739761352539062500e-01,1.3738799095153808593750000e-01,6.5644806623458862304687500e-01,-1.9971637427806854248046875e-01,3.1438067555427551269531250e-01,3.6634081602096557617187500e-01,-1.3557933568954467773437500e+00,6.3265913724899291992187500e-01,-2.7659993618726730346679688e-02,-1.8241058588027954101562500e+00,-3.5525843501091003417968750e-01,1.0316284894943237304687500e+00,-6.3385003805160522460937500e-01,-1.1133477687835693359375000e+00,-1.6169087886810302734375000e+00,4.7235611081123352050781250e-01,5.0261251628398895263671875e-02,-1.2592427730560302734375000e+00,-4.5636448264122009277343750e-01,-1.2776398658752441406250000e+00,-1.2440845966339111328125000e+00,-8.0967420339584350585937500e-01,-1.1653851270675659179687500e+00,-5.1280915737152099609375000e-01,-5.4873961210250854492187500e-01,-1.3982075452804565429687500e+00},
	{5.1911854743957519531250000e-01,5.7649272680282592773437500e-01,3.9683943986892700195312500e-01,-9.0468013286590576171875000e-01,8.8887584209442138671875000e-01,-7.7180010080337524414062500e-01,-1.6521577537059783935546875e-01,-1.2730874121189117431640625e-01,-3.9035284519195556640625000e-01,-1.8437278270721435546875000e-01,1.2539148330688476562500000e-01,-3.7247693538665771484375000e-01,-1.5732964277267456054687500e+00,-1.7223876714706420898437500e-01,1.5195833519101142883300781e-02,6.2080442905426025390625000e-01,-2.9058551788330078125000000e-01,-8.0502134561538696289062500e-01,-1.6829966306686401367187500e+00,-8.8477247953414916992187500e-01,-1.9215151667594909667968750e-01,-2.7378582954406738281250000e-01,9.6689265966415405273437500e-01,-4.8945155739784240722656250e-01,1.3170850276947021484375000e-01,-2.3980200290679931640625000e+00,1.6238380223512649536132812e-02,1.1652607917785644531250000e+00,8.1993019580841064453125000e-01,-6.1285817623138427734375000e-01,-3.1997472047805786132812500e-01,-6.2309455126523971557617188e-02,7.6637452840805053710937500e-01,-9.9325343966484069824218750e-02,-4.5981204509735107421875000e-01,-5.3158473968505859375000000e-01,-4.9395427107810974121093750e-01,-3.4326229244470596313476562e-02,4.0339171886444091796875000e-02,1.3410575389862060546875000e+00,1.3200093507766723632812500e+00,1.1907126754522323608398438e-01,7.8498888015747070312500000e-01,6.6104763746261596679687500e-01,1.1889867484569549560546875e-01,-1.4732425212860107421875000e+00,1.4648283720016479492187500e+00,-2.7646028995513916015625000e-01,5.2981311082839965820312500e-01,6.0347074270248413085937500e-01,3.3574023842811584472656250e-01,-5.0844955444335937500000000e-01,1.4236669540405273437500000e+00,-7.9231417179107666015625000e-01,-1.3388146162033081054687500e+00,1.0032076835632324218750000e+00},
	{-1.2077054977416992187500000e+00,-2.9670155048370361328125000e-01,1.3909645080566406250000000e+00,1.8164665699005126953125000e+00,6.9751632213592529296875000e-01,1.7612884044647216796875000e+00,4.6326026320457458496093750e-02,3.8160535693168640136718750e-01,-1.2555458545684814453125000e+00,-3.8578224182128906250000000e-01,1.1880565434694290161132812e-02,5.2238970994949340820312500e-01,-1.1521145105361938476562500e+00,1.3142856359481811523437500e+00,1.2845498323440551757812500e+00,-1.1335930973291397094726562e-01,1.0261327028274536132812500e-01,-5.0423711538314819335937500e-01,4.4938087463378906250000000e-01,-7.9524171352386474609375000e-01,1.0397351980209350585937500e+00,-4.5891356468200683593750000e-01,7.9936492443084716796875000e-01,4.0245309472084045410156250e-01,1.2332967668771743774414062e-01,-3.0435664579272270202636719e-02,-5.7969415187835693359375000e-01,-1.0775758028030395507812500e+00,2.5399172306060791015625000e-01,2.4078762531280517578125000e-01,-1.0255931615829467773437500e+00,9.7384965419769287109375000e-01,-3.2555788755416870117187500e-01,2.4098977446556091308593750e-01,2.3530021309852600097656250e-01,1.5371423959732055664062500e+00,1.0385214090347290039062500e+00,1.5061339139938354492187500e+00,9.8155660089105367660522461e-04,-1.4873653650283813476562500e-01,5.3032446652650833129882812e-02,-8.9091330766677856445312500e-01,1.6755990982055664062500000e+00,-1.7442553043365478515625000e+00,7.0323541760444641113281250e-02,8.9669004082679748535156250e-02,1.0345502197742462158203125e-01,-1.8431863188743591308593750e-01,-8.4065765142440795898437500e-01,-2.2528115659952163696289062e-02,1.3164225816726684570312500e+00,1.2095861136913299560546875e-01,-4.2436149716377258300781250e-01,8.5306078195571899414062500e-02,-2.6050713658332824707031250e-01,1.4170086383819580078125000e+00}};
float weights_tr1_1_0[56]={1.3149149715900421142578125e-01,7.0224422216415405273437500e-01,-1.2130837440490722656250000e+00,1.3609642982482910156250000e+00,1.6575441360473632812500000e+00,-5.9306776523590087890625000e-01,-9.9175667762756347656250000e-01,1.4716905355453491210937500e+00,-7.1550160646438598632812500e-01,-3.0251797288656234741210938e-02,-4.1487956047058105468750000e-01,-2.0248163491487503051757812e-02,3.5280269384384155273437500e-01,-1.1784021854400634765625000e+00,8.2935732603073120117187500e-01,1.3839541673660278320312500e+00,9.6591138839721679687500000e-01,1.1776705980300903320312500e+00,-7.3666393756866455078125000e-02,-3.3159363269805908203125000e-01,5.7975552976131439208984375e-02,-1.7165204882621765136718750e-01,1.2228846549987792968750000e+00,-9.2134803533554077148437500e-01,-9.5554995536804199218750000e-01,-3.6683562397956848144531250e-01,7.3594200611114501953125000e-01,-1.5116099119186401367187500e+00,-5.3505438566207885742187500e-01,-1.6981371641159057617187500e+00,-9.9952697753906250000000000e-01,-1.8934617042541503906250000e+00,-2.7124679088592529296875000e-01,-7.1816450357437133789062500e-01,7.3161524534225463867187500e-01,8.2751840353012084960937500e-02,-3.8872885704040527343750000e-01,7.4641454219818115234375000e-01,3.9705798029899597167968750e-01,5.1138436794281005859375000e-01,-1.3672479391098022460937500e+00,2.3598344326019287109375000e+00,-4.0507830679416656494140625e-02,1.6169467568397521972656250e-01,1.6157346963882446289062500e-01,1.1957608461380004882812500e+00,1.7019323110580444335937500e+00,1.2922096252441406250000000e+00,6.8318837881088256835937500e-01,-9.0757405757904052734375000e-01,-7.1984702348709106445312500e-01,1.0883126258850097656250000e+00,-9.0207684040069580078125000e-01,2.1254526451230049133300781e-02,8.1730633974075317382812500e-01,4.1633043438196182250976562e-02};
float weights_tr2_0_0[56][37]={
	{4.2038331031799316406250000e+00,1.5018289908766746520996094e-02,-6.4474767446517944335937500e-01,-7.4056094884872436523437500e-01,8.3197131752967834472656250e-02,6.9565904140472412109375000e-01,-7.1522146463394165039062500e-02,2.5938404724001884460449219e-02,8.5714183747768402099609375e-02,-1.9178636372089385986328125e-02,1.2119072675704956054687500e+00,-7.4077081680297851562500000e-01,-8.6667960882186889648437500e-01,-1.8470766022801399230957031e-02,3.9476901292800903320312500e-01,1.3230865001678466796875000e+00,-6.7310148477554321289062500e-01,-2.1516942977905273437500000e-01,-1.9721198081970214843750000e-01,1.5510467812418937683105469e-02,1.3008171692490577697753906e-02,-1.3461286434903740882873535e-03,1.0369937866926193237304688e-01,1.2514107860624790191650391e-02,2.2433941066265106201171875e-01,1.5694063901901245117187500e-01,8.2777529954910278320312500e-02,-1.7297244071960449218750000e+00,-8.5898143053054809570312500e-01,5.0533896684646606445312500e-01,-5.9274494647979736328125000e-01,-1.8826775550842285156250000e+00,4.9366828054189682006835938e-02,7.5312204658985137939453125e-02,4.3654669076204299926757812e-02,-4.3442100286483764648437500e-02,-1.7204365730285644531250000e+00},
	{1.1216131448745727539062500e+00,-1.9252777565270662307739258e-03,4.3377840518951416015625000e-01,4.3848192691802978515625000e-01,1.2870673835277557373046875e-01,1.6365429162979125976562500e+00,-4.2030152678489685058593750e-01,1.3398321866989135742187500e+00,-1.7124071717262268066406250e-01,7.1205057203769683837890625e-02,-6.6991406679153442382812500e-01,-3.4497573971748352050781250e-01,1.6116447448730468750000000e+00,-4.9633387476205825805664062e-02,-1.5765114128589630126953125e-01,2.4825429916381835937500000e-01,8.9527733623981475830078125e-02,3.0358719825744628906250000e+00,6.5297566354274749755859375e-02,2.1869581192731857299804688e-02,1.1506694369018077850341797e-02,-1.3403942584991455078125000e+00,4.7126203775405883789062500e-01,-4.4111740589141845703125000e-01,-5.3643268346786499023437500e-01,1.4883011579513549804687500e-01,4.0696024894714355468750000e-01,1.9104826450347900390625000e-01,-4.9912792444229125976562500e-01,7.5200277566909790039062500e-01,3.0885407328605651855468750e-01,-1.4517407119274139404296875e-01,-6.6607964038848876953125000e-01,2.5904697179794311523437500e-01,-7.0483805611729621887207031e-03,-2.5120073556900024414062500e-01,6.7051261663436889648437500e-01},
	{2.8190686702728271484375000e+00,1.4308986719697713851928711e-03,-7.3642670176923274993896484e-03,-4.6209836006164550781250000e+00,-1.1923557519912719726562500e-01,-8.5563652217388153076171875e-02,1.3282755017280578613281250e-01,1.2064656019210815429687500e+00,-4.6726744621992111206054688e-02,-1.9334800541400909423828125e-02,8.9414790272712707519531250e-02,2.9427874088287353515625000e-01,-3.8856986165046691894531250e-01,2.3238088935613632202148438e-02,1.0577560663223266601562500e+00,-1.6296619176864624023437500e-01,1.9719780683517456054687500e+00,3.4795582294464111328125000e-01,2.6785330846905708312988281e-02,-7.9433396458625793457031250e-03,-1.5416367910802364349365234e-02,-1.2765483856201171875000000e+00,4.4037792086601257324218750e-01,-5.2574646472930908203125000e-01,3.9557471871376037597656250e-01,-3.2154850661754608154296875e-02,-5.1354900002479553222656250e-02,-1.4477710723876953125000000e+00,3.4234061837196350097656250e-01,-1.5181896090507507324218750e-01,-1.5498685836791992187500000e+00,9.3460607528686523437500000e-01,3.4288227558135986328125000e-02,-6.3900165259838104248046875e-02,-4.0309585630893707275390625e-02,1.3847579061985015869140625e-01,7.2265934944152832031250000e-01},
	{-3.0221721529960632324218750e-01,4.3654786422848701477050781e-03,1.2122883796691894531250000e+00,2.5502219796180725097656250e-01,-1.1282778531312942504882812e-01,-6.2157404422760009765625000e-01,-4.6025663614273071289062500e-02,-1.1516851186752319335937500e+00,-3.2195065170526504516601562e-02,2.0265599712729454040527344e-02,-7.2950398921966552734375000e-01,3.2939624786376953125000000e-01,1.0016733407974243164062500e+00,-2.3721966892480850219726562e-02,3.4160020947456359863281250e-01,1.2027124166488647460937500e+00,-1.0315209627151489257812500e+00,-8.0161440372467041015625000e-01,6.6676340997219085693359375e-02,2.0622484385967254638671875e-02,-5.3605547873303294181823730e-04,-5.0322103500366210937500000e-01,-1.3995236158370971679687500e+00,6.8119847774505615234375000e-01,-6.4707469940185546875000000e-01,1.2274847831577062606811523e-03,-2.5313755869865417480468750e-01,-1.7674748897552490234375000e+00,-1.0847511887550354003906250e-01,2.7285299301147460937500000e+00,2.0644848346710205078125000e+00,4.8434835672378540039062500e-01,6.2904544174671173095703125e-02,-1.1909718066453933715820312e-01,7.8381998464465141296386719e-03,6.2260277569293975830078125e-02,-1.9535894393920898437500000e+00},
	{-4.9745401740074157714843750e-01,1.3294559903442859649658203e-03,-7.6296705007553100585937500e-01,-1.8866081237792968750000000e+00,6.6030792891979217529296875e-02,-2.0281554758548736572265625e-01,-1.9977694749832153320312500e-01,2.8545403480529785156250000e-01,8.4399748593568801879882812e-03,1.9616563804447650909423828e-03,-5.2736140787601470947265625e-02,-4.7276869416236877441406250e-01,9.5713424682617187500000000e-01,-4.8142731189727783203125000e-02,-8.1396806240081787109375000e-01,-1.8744398653507232666015625e-01,-2.4245405197143554687500000e-01,1.2157885730266571044921875e-01,-8.2761481404304504394531250e-02,4.6547548845410346984863281e-03,-1.4369772747159004211425781e-02,3.8341797888278961181640625e-02,5.5071550607681274414062500e-01,1.3718135654926300048828125e-01,-4.3085339665412902832031250e-01,-5.6562010198831558227539062e-02,3.7143752574920654296875000e+00,7.1934664249420166015625000e-01,-7.1610975265502929687500000e-01,2.9435494542121887207031250e-01,3.3569775521755218505859375e-02,3.1322899460792541503906250e-01,-2.7304742336273193359375000e+00,1.0984652489423751831054688e-01,-1.5805999934673309326171875e-01,-3.4968145191669464111328125e-02,-3.6281591653823852539062500e-01},
	{-2.4263611435890197753906250e-01,1.2836170382797718048095703e-02,-2.5846848487854003906250000e+00,1.2064685821533203125000000e+00,-1.1171590536832809448242188e-01,-5.5809545516967773437500000e-01,2.3818271234631538391113281e-02,-8.3284363150596618652343750e-02,-9.3242675065994262695312500e-02,-1.8316086381673812866210938e-02,5.8428752422332763671875000e-01,1.2629332542419433593750000e+00,-1.3621292114257812500000000e+00,-2.6957280933856964111328125e-03,9.8611246794462203979492188e-03,-3.4103877544403076171875000e+00,3.9255553483963012695312500e-01,-3.1336075626313686370849609e-03,-7.3216810822486877441406250e-02,6.1576161533594131469726562e-03,1.9108219072222709655761719e-02,-7.3147350549697875976562500e-01,6.5265935659408569335937500e-01,-3.5694310069084167480468750e-01,-1.2169436216354370117187500e+00,-7.3840551078319549560546875e-02,4.3477031588554382324218750e-01,-2.0757365226745605468750000e-01,9.3113109469413757324218750e-02,1.1711618900299072265625000e+00,-1.7128012180328369140625000e+00,6.6513431072235107421875000e-01,-1.3161936402320861816406250e-01,2.7725864201784133911132812e-02,4.3801430729217827320098877e-04,-2.6564735919237136840820312e-02,-4.3330729007720947265625000e-01},
	{9.2646038532257080078125000e-01,-5.3623639978468418121337891e-03,-1.2296462059020996093750000e+00,-3.4565842151641845703125000e+00,-1.2006776779890060424804688e-01,-3.7497311830520629882812500e-01,-4.0055047720670700073242188e-02,-5.7804528623819351196289062e-03,-7.2563588619232177734375000e-02,3.1780384480953216552734375e-02,1.7935729026794433593750000e+00,-1.2010409832000732421875000e+00,-1.4048010110855102539062500e+00,6.8435966968536376953125000e-02,7.0850126445293426513671875e-02,-1.4661277532577514648437500e+00,7.7932572364807128906250000e-01,6.8646866083145141601562500e-01,1.8444907665252685546875000e-01,-1.7211917787790298461914062e-02,-2.6235900819301605224609375e-02,4.2060962319374084472656250e-01,-1.7607591152191162109375000e+00,-3.3104738593101501464843750e-01,-4.0115195512771606445312500e-01,1.2590700387954711914062500e-01,3.4787416458129882812500000e-01,3.9955520629882812500000000e-01,1.2740579433739185333251953e-02,4.1919708251953125000000000e-01,8.5051244497299194335937500e-01,-5.1015800237655639648437500e-01,-3.2922154664993286132812500e-01,-4.0642607957124710083007812e-02,1.0328181833028793334960938e-01,-9.3252159655094146728515625e-02,-2.8706911206245422363281250e-01},
	{-1.2015183456242084503173828e-02,-8.3820745348930358886718750e-03,-1.3470021486282348632812500e+00,-7.0094162225723266601562500e-01,-5.7532213628292083740234375e-02,-5.7800978422164916992187500e-01,-1.4433331787586212158203125e-01,2.1972246468067169189453125e-01,1.7839047312736511230468750e-01,-2.6806872338056564331054688e-03,4.4601497054100036621093750e-01,-9.4041603803634643554687500e-01,-2.9896221160888671875000000e+00,3.9130344986915588378906250e-02,8.6809784173965454101562500e-01,1.7081438302993774414062500e+00,-1.3257452249526977539062500e+00,2.6508635282516479492187500e-01,-1.7754223942756652832031250e-01,-3.2411146908998489379882812e-02,-3.1635031104087829589843750e-02,8.8165533542633056640625000e-01,9.7378887236118316650390625e-02,8.8904565572738647460937500e-01,9.5759920775890350341796875e-02,-8.5627831518650054931640625e-02,1.9153751432895660400390625e-01,8.9013767242431640625000000e-01,-9.6777193248271942138671875e-02,-2.8787708282470703125000000e-01,8.7646770477294921875000000e-01,1.5611759424209594726562500e+00,-1.6103446483612060546875000e-01,1.0349108837544918060302734e-02,-4.0301989763975143432617188e-02,1.7082771658897399902343750e-01,6.6801619529724121093750000e-01},
	{-1.9175946712493896484375000e+00,5.1106731407344341278076172e-03,1.4389662742614746093750000e+00,-1.3216648101806640625000000e+00,7.3618985712528228759765625e-02,6.3234508037567138671875000e-02,1.2180441617965698242187500e-01,-1.4943352937698364257812500e+00,6.3574373722076416015625000e-02,3.1015938147902488708496094e-02,1.2797633409500122070312500e+00,-1.3057076930999755859375000e+00,8.9992916584014892578125000e-01,-4.7751922160387039184570312e-02,6.3026028871536254882812500e-01,3.8332113623619079589843750e-01,5.0324108451604843139648438e-02,-1.6539458930492401123046875e-01,-3.1331356149166822433471680e-03,2.3722060024738311767578125e-02,-4.9632340669631958007812500e-03,1.1562252044677734375000000e+00,-4.9710541963577270507812500e-01,9.8237884044647216796875000e-01,-3.0679395794868469238281250e-01,-6.4408622682094573974609375e-02,6.3371531665325164794921875e-02,1.2107771635055541992187500e-01,2.6166355609893798828125000e-01,-1.3847541809082031250000000e+00,1.5670306682586669921875000e+00,8.3494943380355834960937500e-01,-2.3975226283073425292968750e-01,7.4837557040154933929443359e-03,4.6055365353822708129882812e-02,1.3071452081203460693359375e-01,-8.6809837818145751953125000e-01},
	{9.3234203755855560302734375e-02,-3.7650943268090486526489258e-03,1.5742511749267578125000000e+00,8.7729197740554809570312500e-01,8.2318052649497985839843750e-02,-7.1258813142776489257812500e-01,1.0969592630863189697265625e-01,-6.1316305398941040039062500e-01,-4.3809756636619567871093750e-02,-2.4722556117922067642211914e-03,-2.1410341262817382812500000e+00,-2.9851254820823669433593750e-01,3.0145642161369323730468750e-01,3.7648480385541915893554688e-02,-1.2066398859024047851562500e+00,2.9465398192405700683593750e-01,-8.8616216182708740234375000e-01,2.8596067428588867187500000e+00,1.0053674876689910888671875e-01,-1.5841443091630935668945312e-02,-3.1272344291210174560546875e-02,1.2896601855754852294921875e-01,2.2147199138998985290527344e-02,-4.3598622083663940429687500e-01,-2.0403353869915008544921875e-01,5.7168826460838317871093750e-02,-8.0168649554252624511718750e-02,8.7724608182907104492187500e-01,-3.0452271923422813415527344e-02,-4.8132756352424621582031250e-01,-1.3623467683792114257812500e+00,4.0419751405715942382812500e-01,1.6303172707557678222656250e-01,6.9531567394733428955078125e-02,1.9426515325903892517089844e-02,3.9188228547573089599609375e-03,-9.5550775527954101562500000e-01},
	{3.4238400459289550781250000e+00,-2.1339375525712966918945312e-03,-9.4983386993408203125000000e-01,2.6145699620246887207031250e-01,-2.4809506535530090332031250e-01,9.8554933071136474609375000e-01,3.3530944585800170898437500e-01,-1.0688725709915161132812500e+00,-2.0724251866340637207031250e-01,-2.7361530810594558715820312e-02,-2.3778581619262695312500000e+00,-3.6638641357421875000000000e-01,-1.7655109167098999023437500e+00,-2.8859015554189682006835938e-02,3.2694858312606811523437500e-01,6.4923524856567382812500000e-01,-1.6897870302200317382812500e+00,-6.0250401496887207031250000e-01,1.3621582649648189544677734e-02,-1.3020981103181838989257812e-02,-1.5560103580355644226074219e-02,2.6237261295318603515625000e-01,3.3586525917053222656250000e-01,-1.5981969833374023437500000e+00,-1.5748730301856994628906250e-01,-2.6668136939406394958496094e-02,3.9865314960479736328125000e-02,-2.2900657355785369873046875e-01,6.4945861697196960449218750e-02,4.2584061622619628906250000e-01,-2.5478598475456237792968750e-01,-3.7895974516868591308593750e-01,1.2252235785126686096191406e-02,-5.0705117173492908477783203e-03,-7.0826485753059387207031250e-02,-7.3438376188278198242187500e-02,8.5694676637649536132812500e-01},
	{5.4424059391021728515625000e-01,-2.4031472858041524887084961e-03,9.1345205903053283691406250e-02,-1.1337121948599815368652344e-02,-3.2793447375297546386718750e-01,1.0315424203872680664062500e+00,-3.5069984197616577148437500e-01,2.2301007807254791259765625e-01,-1.4210225641727447509765625e-01,9.0271392837166786193847656e-03,-1.6310550272464752197265625e-01,-1.4304202795028686523437500e+00,-2.6936861872673034667968750e-01,2.7429647743701934814453125e-02,-1.4969618618488311767578125e-01,4.2362040281295776367187500e-01,2.3518497943878173828125000e+00,9.2538160085678100585937500e-01,1.0343725234270095825195312e-01,-1.5088018029928207397460938e-02,5.0693722441792488098144531e-03,2.2487607002258300781250000e+00,2.8483462333679199218750000e-01,-1.3645425438880920410156250e-01,-6.0141927003860473632812500e-01,-2.4208816885948181152343750e-01,4.3372726440429687500000000e-01,8.4015077352523803710937500e-01,3.4334820508956909179687500e-01,-1.9587238132953643798828125e-01,-4.4228446483612060546875000e-01,-8.5225731134414672851562500e-01,-8.0474004149436950683593750e-02,5.8757290244102478027343750e-03,9.1965630650520324707031250e-02,1.9903166219592094421386719e-02,6.6649353504180908203125000e-01},
	{-1.1869153976440429687500000e+00,7.0947739295661449432373047e-03,-8.4475226700305938720703125e-02,7.4645459651947021484375000e-01,-7.3651589453220367431640625e-02,-1.1180576086044311523437500e+00,-3.2243502140045166015625000e-01,-5.8469450473785400390625000e-01,-3.9332214742898941040039062e-02,6.4396090805530548095703125e-02,3.3668950200080871582031250e-02,-6.0759622603654861450195312e-02,-1.3667265176773071289062500e+00,-5.0802066922187805175781250e-02,1.4025322198867797851562500e+00,-1.3736318349838256835937500e+00,-1.8701136112213134765625000e+00,-2.4190473556518554687500000e+00,7.6846726238727569580078125e-02,1.1609696783125400543212891e-02,3.2221159199252724647521973e-04,-7.0200526714324951171875000e-01,-1.9210320711135864257812500e-01,-2.0661492645740509033203125e-01,-8.7245565652847290039062500e-01,1.2163680046796798706054688e-01,4.6304738521575927734375000e-01,-1.2118128538131713867187500e+00,-1.2188283354043960571289062e-01,-1.0013840198516845703125000e+00,-1.9753864407539367675781250e-01,7.9648661613464355468750000e-01,1.5786537528038024902343750e-01,7.0935286581516265869140625e-02,3.4877095371484756469726562e-02,1.4538253843784332275390625e-01,3.5511055588722229003906250e-01},
	{5.8717597275972366333007812e-02,1.4175593852996826171875000e-02,-4.1424930095672607421875000e-03,8.7361723184585571289062500e-01,4.3136253952980041503906250e-02,1.6075433492660522460937500e+00,-1.4810010790824890136718750e-01,1.5575013160705566406250000e+00,-8.5071206092834472656250000e-02,-5.2079632878303527832031250e-02,-3.4084239602088928222656250e-01,-2.2446274757385253906250000e+00,-4.4453567266464233398437500e-01,1.9098825752735137939453125e-02,1.1137439310550689697265625e-01,2.6260739564895629882812500e-01,-3.5527569055557250976562500e-01,4.0177798271179199218750000e-01,-9.7045458853244781494140625e-02,9.7593059763312339782714844e-03,-2.3418194614350795745849609e-03,-9.3640148639678955078125000e-01,1.3370960950851440429687500e+00,-2.0469675064086914062500000e+00,-1.4755796194076538085937500e+00,1.0097678750753402709960938e-01,2.7131929993629455566406250e-01,-1.1634799242019653320312500e+00,-3.7506356835365295410156250e-01,4.8135334253311157226562500e-01,5.8606886863708496093750000e-01,-1.3054924011230468750000000e+00,-5.5921167135238647460937500e-02,-1.7032614350318908691406250e-01,-3.8917969912290573120117188e-02,3.9588097482919692993164062e-02,6.0164469480514526367187500e-01},
	{2.7309697866439819335937500e-01,2.8000300750136375427246094e-02,1.1322709172964096069335938e-01,2.3544400930404663085937500e-02,-2.1947538480162620544433594e-02,1.0529578924179077148437500e+00,2.3129248619079589843750000e-01,-1.2066349983215332031250000e+00,4.8607360571622848510742188e-02,5.2577983587980270385742188e-02,1.9117334485054016113281250e-01,-1.0323107242584228515625000e+00,4.5790605247020721435546875e-02,5.2074482664465904235839844e-03,-1.5866901874542236328125000e+00,1.4795264005661010742187500e+00,-9.4833713769912719726562500e-01,-3.6327859759330749511718750e-01,1.5850369632244110107421875e-01,9.7033279016613960266113281e-03,-5.2266829879954457283020020e-04,-8.6331272125244140625000000e-01,-8.1003166735172271728515625e-02,-4.8179411888122558593750000e-01,8.3547222614288330078125000e-01,1.6298471391201019287109375e-01,2.2516641765832901000976562e-02,-1.0571531206369400024414062e-01,4.3817129731178283691406250e-01,-9.0087360143661499023437500e-01,2.6229779720306396484375000e+00,1.4280655384063720703125000e+00,-2.4962727725505828857421875e-01,6.4753867685794830322265625e-02,6.2614828348159790039062500e-02,8.8672295212745666503906250e-02,-3.8171213120222091674804688e-02},
	{-2.5274055004119873046875000e+00,-1.0695653036236763000488281e-03,6.1044126749038696289062500e-01,2.9210798740386962890625000e+00,-1.8110159784555435180664062e-02,7.1607446670532226562500000e-01,7.7157616615295410156250000e-02,1.0861073732376098632812500e+00,-4.2001634836196899414062500e-02,8.5696756839752197265625000e-02,6.1981564760208129882812500e-01,9.1060601174831390380859375e-02,2.0532262325286865234375000e-01,-3.0228186398744583129882812e-02,-1.7608968019485473632812500e+00,-2.7831372618675231933593750e-01,3.1093785166740417480468750e-01,6.5374177694320678710937500e-01,4.4688008725643157958984375e-02,-4.7866906970739364624023438e-03,-1.7702324315905570983886719e-02,9.5479267835617065429687500e-01,-6.3191831111907958984375000e-01,-3.6874493956565856933593750e-01,5.7985985279083251953125000e-01,-1.1581908911466598510742188e-01,3.7376323342323303222656250e-01,1.8930657207965850830078125e-01,-2.0804701745510101318359375e-01,5.0114768743515014648437500e-01,2.1832852363586425781250000e+00,-1.2295718193054199218750000e+00,-1.9358539581298828125000000e-01,9.8438896238803863525390625e-02,-5.6144320406019687652587891e-03,-2.0455579459667205810546875e-01,-5.8701676130294799804687500e-01},
	{1.1605846881866455078125000e-01,-8.0801278818398714065551758e-04,4.3768551945686340332031250e-01,2.6414579153060913085937500e-01,2.5919523090124130249023438e-02,5.5298119783401489257812500e-02,2.7033348083496093750000000e+00,-2.6724183559417724609375000e-01,-4.0946904569864273071289062e-02,-6.7810602486133575439453125e-02,-1.3001209497451782226562500e-01,-2.1926026791334152221679688e-02,3.0292141437530517578125000e-01,2.4459704756736755371093750e-02,1.3845263719558715820312500e+00,-3.5078814253211021423339844e-03,2.0620732009410858154296875e-01,-4.3585059046745300292968750e-01,-8.1743836402893066406250000e-02,-6.5939226187765598297119141e-03,-6.9094714708626270294189453e-03,4.1307720541954040527343750e-01,-1.9365432262420654296875000e+00,-5.7454675436019897460937500e-01,8.8714510202407836914062500e-02,-6.9639976136386394500732422e-03,-2.4984529614448547363281250e-01,-1.3981097936630249023437500e-01,3.2878201007843017578125000e+00,-3.3853298425674438476562500e-01,-4.3961650133132934570312500e-01,-1.5997995436191558837890625e-01,-3.3352286815643310546875000e+00,3.2894967589527368545532227e-03,2.3200924042612314224243164e-03,-3.8573205471038818359375000e-02,1.6098293662071228027343750e-01},
	{7.3449051380157470703125000e-01,-6.3440287485718727111816406e-03,2.3317131996154785156250000e+00,-8.5148417949676513671875000e-01,-1.4256720244884490966796875e-01,1.4970578253269195556640625e-01,-1.4139065146446228027343750e-01,2.2666224837303161621093750e-01,-1.1245303601026535034179688e-01,-3.7784799933433532714843750e-02,3.4944185614585876464843750e-01,3.3248715102672576904296875e-02,-1.0423413515090942382812500e+00,-9.1337325284257531166076660e-04,-1.3667196035385131835937500e+00,-5.5730193853378295898437500e-01,-9.4415885210037231445312500e-01,-1.7655198574066162109375000e+00,-8.3148017525672912597656250e-02,-7.2070518508553504943847656e-03,-1.5009412541985511779785156e-02,-5.4765659570693969726562500e-01,1.5529885292053222656250000e+00,3.8670235872268676757812500e-01,8.7579303979873657226562500e-01,-6.4773492515087127685546875e-02,2.7627447247505187988281250e-01,2.3848152160644531250000000e-01,-1.1637596040964126586914062e-01,9.8485752940177917480468750e-02,1.1088961362838745117187500e+00,-4.6521052718162536621093750e-01,-3.1671434640884399414062500e-01,4.1391849517822265625000000e-02,-1.2169458717107772827148438e-01,-7.0422261953353881835937500e-02,-2.8050017356872558593750000e+00},
	{-1.4759929180145263671875000e+00,-1.2966042384505271911621094e-02,1.7295330762863159179687500e+00,2.1913135051727294921875000e-01,-7.8258745372295379638671875e-02,7.5485521554946899414062500e-01,1.0245236009359359741210938e-01,1.2145218849182128906250000e+00,-6.0172904282808303833007812e-02,-5.2460003644227981567382812e-02,1.8702635765075683593750000e+00,-4.4228821992874145507812500e-01,-4.2920210957527160644531250e-01,7.7570728957653045654296875e-02,7.6274001598358154296875000e-01,1.0927593708038330078125000e+00,1.9865262508392333984375000e+00,6.2940753996372222900390625e-02,5.4636072367429733276367188e-02,-2.9486387968063354492187500e-02,1.1389913037419319152832031e-02,1.7576936483383178710937500e+00,-3.0009042471647262573242188e-02,-4.2979526519775390625000000e-01,4.3131080269813537597656250e-01,-1.8118464946746826171875000e-01,1.3867363929748535156250000e+00,5.4414558410644531250000000e-01,3.1260672211647033691406250e-01,2.4687957763671875000000000e+00,1.5710552036762237548828125e-01,5.4790878295898437500000000e-01,-1.8621142208576202392578125e-01,-1.1039248853921890258789062e-01,-5.8840215206146240234375000e-03,1.5170137584209442138671875e-01,-1.8420987129211425781250000e+00},
	{-1.4493402242660522460937500e+00,-5.2978503517806529998779297e-03,8.1030583381652832031250000e-01,3.2394284009933471679687500e-01,1.9547493755817413330078125e-01,-4.9131351709365844726562500e-01,-1.1121644824743270874023438e-01,2.7987279891967773437500000e+00,-1.5712875127792358398437500e-01,5.0476115196943283081054688e-02,-1.9605338573455810546875000e+00,4.1725891828536987304687500e-01,-3.1196055933833122253417969e-02,3.6145966500043869018554688e-02,-1.4967383444309234619140625e-01,-1.9833353161811828613281250e-01,4.1197881102561950683593750e-01,-1.8408902883529663085937500e+00,1.8721777945756912231445312e-02,-1.1518032290041446685791016e-02,-1.3084655627608299255371094e-02,5.9077519923448562622070312e-02,-2.0230765640735626220703125e-01,1.5711782872676849365234375e-01,8.3523315191268920898437500e-01,1.5953846275806427001953125e-01,-2.7354869246482849121093750e-01,1.0592192411422729492187500e-01,-2.7923578023910522460937500e-01,9.9106200039386749267578125e-02,-6.3629013299942016601562500e-01,-1.4374109506607055664062500e+00,2.4092245101928710937500000e-01,-5.4782424122095108032226562e-02,6.2726028263568878173828125e-02,-3.1374335289001464843750000e-01,-1.5846080780029296875000000e+00},
	{-5.5269312858581542968750000e-01,2.4721561931073665618896484e-03,-3.9985144138336181640625000e-01,-1.0837472677230834960937500e+00,4.4154176115989685058593750e-01,1.1061456054449081420898438e-01,-5.6479215621948242187500000e-02,-1.2559503316879272460937500e+00,1.2329113669693470001220703e-02,3.8984004408121109008789062e-02,2.9425856471061706542968750e-01,-8.8219285011291503906250000e-01,9.3663072586059570312500000e-01,9.0507697314023971557617188e-03,-1.4262454211711883544921875e-01,8.4213209152221679687500000e-01,7.3417246341705322265625000e-02,-1.7894135713577270507812500e+00,-6.6355861723423004150390625e-02,6.1071859672665596008300781e-03,-1.8318567890673875808715820e-03,-1.3258600234985351562500000e-01,4.7215807437896728515625000e-01,-1.1505510807037353515625000e+00,4.8917594552040100097656250e-01,6.6425569355487823486328125e-02,-1.9215390682220458984375000e+00,-1.3255305290222167968750000e+00,-4.1204336285591125488281250e-01,3.0546534061431884765625000e-01,1.5563789010047912597656250e-01,6.4354443550109863281250000e-01,1.3841890096664428710937500e+00,-1.0376836359500885009765625e-01,-2.8625936829484999179840088e-04,-1.3874909281730651855468750e-01,1.0204424858093261718750000e+00},
	{2.2543208599090576171875000e+00,9.8861800506711006164550781e-04,1.7495644092559814453125000e-01,1.1296236887574195861816406e-02,1.7142614722251892089843750e-01,1.8816148042678833007812500e+00,-1.6976846754550933837890625e-01,-8.1927961111068725585937500e-01,-1.5224618255160748958587646e-04,-1.2562781572341918945312500e-01,-5.0827676057815551757812500e-01,4.2466798424720764160156250e-01,-6.9952547550201416015625000e-01,9.4724148511886596679687500e-02,-2.9780095815658569335937500e-01,1.7106683552265167236328125e-01,-5.6501924991607666015625000e-01,-2.3843142986297607421875000e+00,1.7450470477342605590820312e-02,-1.3952623121440410614013672e-02,5.7423906400799751281738281e-03,1.1710991859436035156250000e+00,-1.3518682122230529785156250e-01,8.9196991920471191406250000e-01,1.4455035328865051269531250e-01,2.3657183349132537841796875e-01,-1.3766039907932281494140625e-01,6.9686120748519897460937500e-01,-7.8681185841560363769531250e-02,-8.6586970090866088867187500e-01,1.3443309068679809570312500e-01,7.4567788839340209960937500e-01,-5.0989553332328796386718750e-02,3.5360675305128097534179688e-02,5.3261164575815200805664062e-02,6.7711495794355869293212891e-03,-6.9670855998992919921875000e-01},
	{-3.0167624354362487792968750e-01,-8.1773651763796806335449219e-03,-8.4071308374404907226562500e-01,2.9680281877517700195312500e-01,9.9339969456195831298828125e-02,1.3640782833099365234375000e+00,8.9550130069255828857421875e-02,2.1424210071563720703125000e+00,-6.9398693740367889404296875e-03,-1.0374290868639945983886719e-02,-1.6741157770156860351562500e+00,-1.2923539876937866210937500e+00,-2.0536017417907714843750000e+00,-7.3364581912755966186523438e-03,7.9348869621753692626953125e-02,1.3165017366409301757812500e+00,-1.6283581256866455078125000e+00,-9.7113662958145141601562500e-01,-9.9562063813209533691406250e-02,8.3064418286085128784179688e-03,4.3283849954605102539062500e-03,-1.1300716400146484375000000e+00,-7.8330099582672119140625000e-01,9.8771363496780395507812500e-01,-4.6188548207283020019531250e-01,1.2535278499126434326171875e-01,1.1907561868429183959960938e-01,7.7728515863418579101562500e-01,-3.6721250414848327636718750e-01,-1.6129981279373168945312500e+00,-8.7648683786392211914062500e-01,1.7359881401062011718750000e+00,2.7632794808596372604370117e-03,-1.1699558794498443603515625e-01,4.5670896768569946289062500e-02,-2.1286996081471443176269531e-02,2.7643397450447082519531250e-01},
	{-9.4475793838500976562500000e-01,-1.1598796583712100982666016e-02,-4.3297353386878967285156250e-01,9.2310689389705657958984375e-02,-4.9548719078302383422851562e-02,-9.9681323766708374023437500e-01,1.2320874631404876708984375e-01,-2.7370935678482055664062500e-01,-1.4409601688385009765625000e-01,3.6104023456573486328125000e-02,1.5686960518360137939453125e-01,2.1150380373001098632812500e-01,6.3287210464477539062500000e-01,1.2408538721501827239990234e-02,-3.9852425456047058105468750e-01,-9.7430753707885742187500000e-01,-2.5147061347961425781250000e+00,3.0350303649902343750000000e+00,-1.5365902334451675415039062e-02,7.6691065914928913116455078e-03,-1.9882554188370704650878906e-02,1.3786298036575317382812500e+00,1.0594868659973144531250000e-01,1.1970636844635009765625000e+00,4.7005352377891540527343750e-01,5.1687046885490417480468750e-02,6.3666349649429321289062500e-01,5.5159026384353637695312500e-01,1.8305177986621856689453125e-01,6.9997668266296386718750000e-01,-1.6663159132003784179687500e+00,-1.8192453384399414062500000e+00,5.4845508188009262084960938e-02,-1.8753919750452041625976562e-02,1.0438235476613044738769531e-02,3.5806234925985336303710938e-02,-2.8685659170150756835937500e-01},
	{1.4311201572418212890625000e+00,-2.4862717837095260620117188e-03,6.3837486505508422851562500e-01,2.6912620663642883300781250e-01,-5.9073336422443389892578125e-02,3.1304645538330078125000000e-01,3.8615599274635314941406250e-01,7.3420995473861694335937500e-01,-1.7349851131439208984375000e-01,-1.8924124538898468017578125e-02,-6.4270007610321044921875000e-01,7.4020415544509887695312500e-02,7.2042936086654663085937500e-01,-5.2029862999916076660156250e-03,-3.2434679567813873291015625e-02,-8.3201348781585693359375000e-01,4.0217218399047851562500000e+00,5.1809668540954589843750000e-01,-1.8455922603607177734375000e-02,-3.1546823447570204734802246e-04,5.7140452554449439048767090e-04,1.2260779142379760742187500e+00,-3.1394147872924804687500000e-01,8.5873037576675415039062500e-01,-9.5108509063720703125000000e-01,-1.8327586352825164794921875e-01,6.3271236419677734375000000e-01,7.3434376716613769531250000e-01,9.8374134302139282226562500e-01,-1.4484789967536926269531250e-01,-8.3767496049404144287109375e-02,6.3100147247314453125000000e-01,2.2003364562988281250000000e-01,6.8650841712951660156250000e-02,-1.5424848534166812896728516e-02,-8.8257491588592529296875000e-02,4.7977021336555480957031250e-01},
	{-1.4282580614089965820312500e+00,-3.3267783001065254211425781e-03,-9.7326833009719848632812500e-01,4.0986582636833190917968750e-02,7.4492946267127990722656250e-02,-2.4128116667270660400390625e-01,3.0447247624397277832031250e-01,1.9243452548980712890625000e+00,-2.9839506372809410095214844e-02,-1.1723438277840614318847656e-02,1.8257160484790802001953125e-01,2.3023989200592041015625000e+00,2.3262841701507568359375000e+00,1.4489007182419300079345703e-02,5.5838704109191894531250000e-01,1.1021283864974975585937500e+00,-7.8006362915039062500000000e-01,-9.7398322820663452148437500e-01,1.0262374766170978546142578e-02,-2.4380630347877740859985352e-03,1.4931033365428447723388672e-02,3.2975912094116210937500000e-01,-6.8999242782592773437500000e-01,-2.0044944286346435546875000e+00,2.0359088480472564697265625e-01,-2.4432982504367828369140625e-01,2.3066431283950805664062500e-02,4.6245971322059631347656250e-01,1.7786218225955963134765625e-01,1.5278936624526977539062500e+00,-1.0258336067199707031250000e+00,-1.4918804168701171875000000e+00,-3.6075812578201293945312500e-01,-7.6379314064979553222656250e-02,2.7202263474464416503906250e-02,-5.0388347357511520385742188e-02,-9.0150594711303710937500000e-02},
	{-2.2737178206443786621093750e-01,3.2233190722763538360595703e-03,-4.2451611161231994628906250e-01,-1.4026488363742828369140625e-01,-1.5478582680225372314453125e-01,2.0338203012943267822265625e-01,3.1924071311950683593750000e+00,5.7998698949813842773437500e-01,7.1104660630226135253906250e-02,-7.0893019437789916992187500e-02,1.0670189559459686279296875e-01,1.4301450550556182861328125e-01,-2.0968258380889892578125000e-01,-3.4549444913864135742187500e-02,-1.8017552793025970458984375e-01,-2.5737643241882324218750000e-01,-3.1854215264320373535156250e-01,4.6749779582023620605468750e-01,7.9205013811588287353515625e-02,2.6115884538739919662475586e-03,1.3485728763043880462646484e-02,-5.3329825401306152343750000e-02,-1.6608495712280273437500000e+00,7.3508048057556152343750000e-01,1.9462883472442626953125000e-01,7.6474875211715698242187500e-02,8.2332688570022583007812500e-01,-2.3487830162048339843750000e-01,2.6016809940338134765625000e+00,3.7748420238494873046875000e-01,4.5626676082611083984375000e-01,-2.5340281426906585693359375e-02,-1.3556966185569763183593750e-01,-1.9240684807300567626953125e-02,-6.4500961452722549438476562e-03,8.5394911468029022216796875e-02,-1.2809287011623382568359375e-01},
	{-3.5568931698799133300781250e-01,-5.8795586228370666503906250e-03,-1.1924527585506439208984375e-01,4.8254668712615966796875000e-01,-2.0907026529312133789062500e-01,4.2548027634620666503906250e-01,-8.7292172014713287353515625e-02,-1.2509945631027221679687500e+00,-3.1697522848844528198242188e-02,2.1239989437162876129150391e-03,-1.8258150815963745117187500e+00,1.6439468860626220703125000e+00,1.2308331727981567382812500e+00,6.6346898674964904785156250e-02,-2.0305515825748443603515625e-01,1.7249557971954345703125000e+00,-1.9900155067443847656250000e+00,1.3280919790267944335937500e+00,8.0033354461193084716796875e-02,-3.2264880836009979248046875e-02,4.6482435427606105804443359e-03,-1.0750049352645874023437500e+00,6.9386076927185058593750000e-01,-3.1088528633117675781250000e+00,-1.2257963418960571289062500e+00,-1.2555739283561706542968750e-01,3.7470260262489318847656250e-01,8.3163970708847045898437500e-01,1.5041430294513702392578125e-01,-1.0777763277292251586914062e-01,1.9732015132904052734375000e+00,-4.5149850845336914062500000e-01,-2.9925292730331420898437500e-01,3.1937076710164546966552734e-03,-4.4475547969341278076171875e-02,9.5790460705757141113281250e-02,6.4637815952301025390625000e-01},
	{-7.9741585254669189453125000e-01,-2.3004218935966491699218750e-02,9.5387524366378784179687500e-01,4.9275910854339599609375000e-01,8.2363151013851165771484375e-02,1.2773026525974273681640625e-01,3.6691838502883911132812500e-01,9.1608822345733642578125000e-01,-3.2152017951011657714843750e-01,2.5820598006248474121093750e-02,-7.7625620365142822265625000e-01,-6.1093222349882125854492188e-02,-6.1347001791000366210937500e-01,4.5356765389442443847656250e-02,3.0738672614097595214843750e-01,-1.8235677480697631835937500e-01,2.8753762245178222656250000e+00,-9.3914729356765747070312500e-01,1.0991926491260528564453125e-01,5.5108714150264859199523926e-04,-1.4871397055685520172119141e-02,1.9655882120132446289062500e+00,2.8723108768463134765625000e-01,4.9396431446075439453125000e-01,2.7089139819145202636718750e-01,4.9664236605167388916015625e-02,-7.3157155513763427734375000e-01,-1.8304020166397094726562500e-01,6.6541719436645507812500000e-01,-6.4624083042144775390625000e-01,-5.9576088190078735351562500e-01,3.0377572774887084960937500e-01,3.5030826926231384277343750e-01,-1.6120050847530364990234375e-01,-2.3043708875775337219238281e-02,-1.0934964567422866821289062e-01,8.1077754497528076171875000e-02},
	{-2.5769906044006347656250000e+00,-5.0774868577718734741210938e-03,2.1530018746852874755859375e-01,-1.0751953125000000000000000e+00,2.8281963896006345748901367e-03,-5.0678914785385131835937500e-01,-2.0465005934238433837890625e-01,-1.0481548309326171875000000e+00,2.5273416191339492797851562e-02,1.9574273377656936645507812e-02,-4.6142086386680603027343750e-01,8.9901328086853027343750000e-01,7.8677719831466674804687500e-01,-1.9831724464893341064453125e-02,-3.8724032044410705566406250e-01,-1.5329679250717163085937500e+00,2.7470591664314270019531250e-01,-2.0257713794708251953125000e+00,-5.6335806846618652343750000e-02,-3.1055121216922998428344727e-03,-9.7297485917806625366210938e-03,-5.0403577089309692382812500e-01,-1.5625895932316780090332031e-02,6.1454385519027709960937500e-01,3.1337974071502685546875000e+00,-9.0278059244155883789062500e-02,8.1971687078475952148437500e-01,4.9116006493568420410156250e-01,-2.6097810268402099609375000e-01,-1.8588603734970092773437500e+00,7.8323209285736083984375000e-01,-6.3513815402984619140625000e-01,-2.2853952646255493164062500e-01,-8.0640263855457305908203125e-02,1.2278926372528076171875000e-01,4.0003664791584014892578125e-02,2.9547175765037536621093750e-01},
	{5.2147078514099121093750000e-01,-1.0326275369152426719665527e-03,-1.4683811664581298828125000e+00,6.2910842895507812500000000e-01,3.0233383178710937500000000e-01,-2.2468297183513641357421875e-01,-3.6511965095996856689453125e-02,-1.7526253461837768554687500e+00,5.0627209246158599853515625e-02,1.7292931675910949707031250e-02,8.1937921047210693359375000e-01,4.5419219136238098144531250e-01,1.9959642887115478515625000e+00,-1.5853244811296463012695312e-02,-6.3591039180755615234375000e-01,1.6551926732063293457031250e-01,-1.1859153509140014648437500e+00,2.8533384203910827636718750e-01,-1.4753888547420501708984375e-01,7.3860124684870243072509766e-03,1.4645345509052276611328125e-03,2.0622694492340087890625000e-01,-8.8586741685867309570312500e-01,-6.0377538204193115234375000e-02,-4.4682699441909790039062500e-01,-9.5257069915533065795898438e-03,1.9511845707893371582031250e-01,7.3433622717857360839843750e-02,1.3520830310881137847900391e-02,-8.8430923223495483398437500e-01,1.3338483572006225585937500e+00,-8.7846618890762329101562500e-01,2.2523441910743713378906250e-01,-1.0291087627410888671875000e-01,7.3762074112892150878906250e-02,-2.3610115051269531250000000e-01,1.2633030414581298828125000e+00},
	{-3.8027477264404296875000000e-01,-6.1735040508210659027099609e-03,-4.8659971356391906738281250e-01,4.7884526252746582031250000e+00,1.8743833899497985839843750e-01,-2.8691434860229492187500000e-01,-8.6026266217231750488281250e-02,1.0643957853317260742187500e+00,1.3695287704467773437500000e-01,4.0557183325290679931640625e-02,4.5483434200286865234375000e-01,-4.3240752816200256347656250e-01,3.7675923109054565429687500e-01,-1.9152376800775527954101562e-02,-3.0659639835357666015625000e-01,4.0182355046272277832031250e-01,-4.0584962815046310424804688e-02,-4.6411156654357910156250000e-01,-3.9281670004129409790039062e-02,1.9168088212609291076660156e-02,-5.8950521051883697509765625e-03,7.6794934272766113281250000e-01,4.2794373631477355957031250e-01,-1.3221696019172668457031250e-01,6.2535542249679565429687500e-01,9.1750612482428550720214844e-03,-6.3094288110733032226562500e-01,-9.6253138780593872070312500e-01,-3.5569593310356140136718750e-01,-1.4053233861923217773437500e+00,1.6052221059799194335937500e+00,1.1229298114776611328125000e+00,1.0150187462568283081054688e-01,3.5239785909652709960937500e-02,6.6239717416465282440185547e-03,-2.9195511713624000549316406e-02,-1.6315507888793945312500000e-01},
	{-2.4174931049346923828125000e+00,-4.8528220504522323608398438e-03,-5.3284162282943725585937500e-01,-2.0471315085887908935546875e-01,3.9127461612224578857421875e-02,6.7862319946289062500000000e-01,-1.9155092537403106689453125e-01,-2.1899890899658203125000000e+00,-3.1987376511096954345703125e-02,-6.2640547752380371093750000e-02,1.0379651784896850585937500e+00,-3.5542294383049011230468750e-01,4.4424581527709960937500000e-01,3.1894934363663196563720703e-04,1.0486629009246826171875000e+00,-3.3251622319221496582031250e-01,1.6130211353302001953125000e+00,-7.5400966405868530273437500e-01,2.1907374262809753417968750e-02,1.5026235952973365783691406e-02,-4.3541546911001205444335938e-03,-1.2063329219818115234375000e+00,-7.4386042356491088867187500e-01,1.1446728557348251342773438e-01,1.7261944711208343505859375e-01,-4.0335625410079956054687500e-02,4.1473361849784851074218750e-01,8.8327020406723022460937500e-01,2.9949206113815307617187500e-01,1.6647783517837524414062500e+00,-4.5449620485305786132812500e-01,7.9519592225551605224609375e-02,-7.8665715456008911132812500e-01,3.1646635383367538452148438e-02,-3.2255366444587707519531250e-02,4.7244690358638763427734375e-03,8.5047072172164916992187500e-01},
	{2.9610097408294677734375000e-02,-3.1862435862421989440917969e-03,1.3417719304561614990234375e-01,2.5087901949882507324218750e-01,-8.7201818823814392089843750e-03,4.9183048307895660400390625e-02,-3.3550746440887451171875000e+00,-7.1245901286602020263671875e-02,-3.5555060952901840209960938e-02,4.1385523974895477294921875e-02,-9.6975006163120269775390625e-02,2.6008886098861694335937500e-01,-2.5816154479980468750000000e-01,1.5484251081943511962890625e-02,-1.0673844069242477416992188e-01,2.1534129977226257324218750e-02,1.8176107108592987060546875e-01,1.6682654619216918945312500e-02,2.1767562255263328552246094e-02,-2.7398644015192985534667969e-03,-1.0048384778201580047607422e-02,-9.3653909862041473388671875e-03,2.0319416522979736328125000e+00,4.9654822796583175659179688e-02,-5.2917096763849258422851562e-02,7.5855746865272521972656250e-02,-2.9127843379974365234375000e+00,-4.0971934795379638671875000e-01,-2.5433695316314697265625000e+00,4.1653007268905639648437500e-02,-2.8911383822560310363769531e-02,-1.5004073083400726318359375e-01,-3.0407190322875976562500000e+00,-5.3331129252910614013671875e-02,7.3472741059958934783935547e-03,6.5891712903976440429687500e-02,7.4911870062351226806640625e-02},
	{4.6576893329620361328125000e-01,-4.3148281984031200408935547e-03,1.6939210891723632812500000e-01,3.4641483426094055175781250e-01,-1.3256527483463287353515625e-01,1.0533352196216583251953125e-01,5.0614464282989501953125000e-01,1.5420259535312652587890625e-01,3.3316444605588912963867188e-02,-7.5472168624401092529296875e-02,3.8581880927085876464843750e-01,-3.6464372277259826660156250e-01,-7.6477152109146118164062500e-01,1.6142975073307752609252930e-03,-1.1913640499114990234375000e+00,-4.7338950634002685546875000e-01,-3.5667225718498229980468750e-01,1.3453312218189239501953125e-01,9.5703385770320892333984375e-02,-2.4564010091125965118408203e-03,-7.6682469807565212249755859e-04,-6.7274257540702819824218750e-02,1.7617245018482208251953125e-01,7.3653990030288696289062500e-01,-1.2002810835838317871093750e-02,-8.7886191904544830322265625e-02,-2.1763367652893066406250000e+00,1.0659312009811401367187500e+00,6.6546487808227539062500000e-01,3.4488759934902191162109375e-02,-2.3280261456966400146484375e-01,2.8231444954872131347656250e-01,2.8397793769836425781250000e+00,-9.2250378802418708801269531e-03,2.8339508920907974243164062e-02,-3.4349758177995681762695312e-02,-2.5101235508918762207031250e-01},
	{-1.1592469364404678344726562e-01,-8.0431392416357994079589844e-03,2.4298737049102783203125000e+00,5.3648191690444946289062500e-01,2.8725084662437438964843750e-01,-9.1110134124755859375000000e-01,-5.1161378622055053710937500e-02,2.0058828592300415039062500e-01,-1.1600001715123653411865234e-02,2.4203712120652198791503906e-02,1.7668237686157226562500000e+00,4.8616907000541687011718750e-01,-2.4508619308471679687500000e+00,-1.9614135846495628356933594e-02,-7.5089043378829956054687500e-01,-1.5559295415878295898437500e+00,3.2874515652656555175781250e-01,7.5924229621887207031250000e-01,7.8616235405206680297851562e-03,1.3318801298737525939941406e-02,-7.3555083945393562316894531e-03,-9.7369110584259033203125000e-01,-4.6340471506118774414062500e-01,-1.8532584607601165771484375e-01,1.2251087427139282226562500e+00,2.3250941932201385498046875e-01,-6.4971405267715454101562500e-01,-6.5025430917739868164062500e-01,-4.0263769030570983886718750e-01,4.4647037982940673828125000e-01,-1.3931235074996948242187500e+00,8.6336463689804077148437500e-01,-4.8916857689619064331054688e-02,1.5975382924079895019531250e-01,1.6175011172890663146972656e-02,-1.3690137863159179687500000e-01,3.0940082669258117675781250e-01},
	{-1.1258864402770996093750000e+00,7.6951440423727035522460938e-03,7.7731096744537353515625000e-01,-9.0118908882141113281250000e-01,1.8451881408691406250000000e-01,-1.5681620836257934570312500e+00,-7.1566797792911529541015625e-02,-2.9539820551872253417968750e-01,2.5013503432273864746093750e-01,-1.2654046528041362762451172e-02,-1.5508192777633666992187500e+00,-1.0029325634241104125976562e-01,-1.5483412742614746093750000e+00,-2.7332140132784843444824219e-02,-4.9861145019531250000000000e-01,-5.6634396314620971679687500e-01,1.5948191881179809570312500e+00,-2.3562385141849517822265625e-01,-3.2353647053241729736328125e-02,6.2528271228075027465820312e-03,-1.5813857316970825195312500e-02,3.0299329757690429687500000e-01,5.0105974078178405761718750e-02,-5.0083786249160766601562500e-01,-1.2506623752415180206298828e-02,-8.7020769715309143066406250e-03,-3.5707589238882064819335938e-02,-4.1725063323974609375000000e-01,-3.9106282591819763183593750e-01,2.0961005687713623046875000e+00,-2.4445638656616210937500000e+00,-5.7945972681045532226562500e-01,3.0585166066884994506835938e-02,-1.1739759705960750579833984e-02,5.7769071310758590698242188e-02,6.7462049424648284912109375e-02,1.4706089496612548828125000e+00},
	{-5.4176467657089233398437500e-01,8.9662289246916770935058594e-03,1.4803872108459472656250000e+00,-8.9128023386001586914062500e-01,-2.4035367369651794433593750e-01,-7.4559348821640014648437500e-01,3.4238591790199279785156250e-02,-1.4567934274673461914062500e+00,-6.6068992018699645996093750e-02,-5.5399812757968902587890625e-02,8.5888332128524780273437500e-01,-4.0582388639450073242187500e-01,1.3647611141204833984375000e+00,-1.0256075300276279449462891e-02,-8.1712417304515838623046875e-02,1.4091584682464599609375000e+00,1.6373919248580932617187500e+00,1.3214609622955322265625000e+00,6.0014184564352035522460938e-03,3.0318659264594316482543945e-03,9.5526932273060083389282227e-04,2.1830656528472900390625000e+00,7.6987111568450927734375000e-01,6.8901067972183227539062500e-01,-1.4867475628852844238281250e-01,-5.6123182177543640136718750e-02,-7.3217356204986572265625000e-01,-1.5027509927749633789062500e+00,-1.5179750323295593261718750e-01,-1.0462859869003295898437500e+00,-2.6069444417953491210937500e-01,4.5326313376426696777343750e-01,-1.4994005858898162841796875e-01,7.2503730654716491699218750e-02,-4.4733751565217971801757812e-02,1.0300842672586441040039062e-01,2.3198314011096954345703125e-02},
	{-1.4548835344612598419189453e-02,-4.1639809496700763702392578e-03,-1.0799971409142017364501953e-02,-5.0628364086151123046875000e-02,3.2769080251455307006835938e-02,-1.0336995124816894531250000e-01,-5.1684632301330566406250000e+00,-1.2331245839595794677734375e-01,-2.9627701267600059509277344e-02,-7.0159502327442169189453125e-02,1.2391017377376556396484375e-01,-1.6833283007144927978515625e-01,-3.9207275956869125366210938e-02,-2.0071379840373992919921875e-03,-5.7318836450576782226562500e-02,5.1092736423015594482421875e-02,6.2035996466875076293945312e-02,7.5268172658979892730712891e-03,1.8502337858080863952636719e-02,5.0451951101422309875488281e-03,-3.2695222180336713790893555e-03,4.9234107136726379394531250e-02,-2.1985905170440673828125000e+00,-1.5182431042194366455078125e-01,3.0552411451935768127441406e-02,-5.9030860662460327148437500e-02,1.3037585020065307617187500e+00,3.3250275254249572753906250e-01,1.8322134017944335937500000e+00,-2.2295091766864061355590820e-03,-4.9104187637567520141601562e-02,3.4142345190048217773437500e-02,2.4678158760070800781250000e+00,-1.0809365659952163696289062e-02,-6.5286032855510711669921875e-02,-1.5314284712076187133789062e-02,-4.4422419741749763488769531e-03},
	{4.6705010533332824707031250e-01,2.6895934715867042541503906e-03,-1.0580130815505981445312500e+00,-1.2997943162918090820312500e+00,-4.6747874468564987182617188e-02,-1.2808871269226074218750000e+00,7.3739789426326751708984375e-02,2.8975079059600830078125000e+00,8.9362137019634246826171875e-02,7.3174998164176940917968750e-02,1.1382839828729629516601562e-01,6.7317324876785278320312500e-01,-3.5318228602409362792968750e-01,2.4884003214538097381591797e-03,-1.7734402418136596679687500e+00,2.1193972229957580566406250e-01,1.8274927139282226562500000e+00,-1.4125212430953979492187500e+00,5.0312466919422149658203125e-02,5.2438671700656414031982422e-03,-1.5317820943892002105712891e-02,-8.1276065111160278320312500e-01,1.1236083507537841796875000e-01,-1.1307971179485321044921875e-01,1.6524612903594970703125000e-01,-7.9210162162780761718750000e-02,-4.1763448715209960937500000e-01,2.4778239727020263671875000e+00,4.3869365006685256958007812e-02,-4.0628382563591003417968750e-01,-4.3123781681060791015625000e-01,-4.8734357953071594238281250e-01,2.0303912460803985595703125e-01,6.3722424209117889404296875e-02,-1.5463928692042827606201172e-02,1.3983695209026336669921875e-01,-5.2606004476547241210937500e-01},
	{7.7023845911026000976562500e-01,4.3131136335432529449462891e-03,-2.4641567468643188476562500e-01,7.6033550500869750976562500e-01,-8.9225329458713531494140625e-02,-5.4735344648361206054687500e-01,3.4974992275238037109375000e-02,-7.1689736843109130859375000e-01,-4.0115747600793838500976562e-02,-3.2416068017482757568359375e-02,-1.2236105203628540039062500e+00,-3.4510452300310134887695312e-02,2.6220545172691345214843750e-01,1.1412871070206165313720703e-02,2.7807705402374267578125000e+00,1.5768916606903076171875000e+00,8.1600201129913330078125000e-01,1.8966670036315917968750000e+00,-4.9343492835760116577148438e-02,-9.0135959908366203308105469e-03,-9.4909919425845146179199219e-03,-1.2591147422790527343750000e+00,9.5774221420288085937500000e-01,1.3606971502304077148437500e+00,1.4784598350524902343750000e+00,-1.4012801647186279296875000e-01,2.7074366807937622070312500e-01,-1.5577493607997894287109375e-01,-3.3976459503173828125000000e-01,2.3414091765880584716796875e-01,1.4733352661132812500000000e+00,-1.4314838647842407226562500e+00,6.2473315000534057617187500e-01,-6.8961165845394134521484375e-02,9.6243256703019142150878906e-03,-3.8301043212413787841796875e-02,1.1654464900493621826171875e-01},
	{-1.5118200778961181640625000e+00,7.0980470627546310424804688e-03,-1.1848120689392089843750000e+00,-6.4289815723896026611328125e-02,2.9309604316949844360351562e-02,-1.7836228013038635253906250e-01,-5.8842364698648452758789062e-02,2.7450919151306152343750000e+00,-9.4852477312088012695312500e-02,-6.9268621504306793212890625e-02,2.7155797928571701049804688e-02,8.6458855867385864257812500e-01,1.4671518802642822265625000e+00,2.1178843453526496887207031e-02,-1.8560242652893066406250000e+00,-1.7421414852142333984375000e+00,8.6385256052017211914062500e-01,1.8233789205551147460937500e+00,1.4174346625804901123046875e-01,-2.8347959741950035095214844e-03,1.2574848718941211700439453e-02,2.2418117523193359375000000e-01,-1.3940991461277008056640625e-01,1.4493411779403686523437500e+00,-1.9333648681640625000000000e+00,-1.0993485897779464721679688e-01,4.2534819245338439941406250e-01,-1.2089991569519042968750000e+00,-1.9462497904896736145019531e-02,-1.0426288098096847534179688e-01,9.2820334434509277343750000e-01,-4.6673703193664550781250000e-01,-2.1396540105342864990234375e-01,-1.4905406534671783447265625e-01,9.3471258878707885742187500e-03,6.5690413117408752441406250e-02,1.7168939113616943359375000e+00},
	{1.4520323276519775390625000e+00,6.1738984659314155578613281e-03,-3.6050343513488769531250000e-01,7.9521667957305908203125000e-01,-2.9565948992967605590820312e-02,1.7499256134033203125000000e+00,-2.4365249276161193847656250e-01,-2.6219379901885986328125000e-01,2.5340802967548370361328125e-03,9.4538286328315734863281250e-02,2.1579990386962890625000000e+00,1.3698015213012695312500000e+00,-1.0261658430099487304687500e+00,-1.3927249237895011901855469e-02,-6.0805755853652954101562500e-01,-9.1973647475242614746093750e-02,-3.6667409539222717285156250e-01,-6.0451567173004150390625000e-01,-8.5173577070236206054687500e-02,-1.7215881962329149246215820e-03,5.0540757365524768829345703e-03,1.7336335182189941406250000e+00,-2.2806417942047119140625000e+00,1.6102752685546875000000000e+00,2.0129968225955963134765625e-01,7.1497112512588500976562500e-02,-6.5324270725250244140625000e-01,3.8893952965736389160156250e-02,-6.0183471441268920898437500e-01,-1.6511368751525878906250000e+00,-4.9538582563400268554687500e-02,6.2448495626449584960937500e-01,1.2651011347770690917968750e-01,7.1916870772838592529296875e-02,2.3459142073988914489746094e-02,2.4276228621602058410644531e-02,9.5030421018600463867187500e-01},
	{1.8120584487915039062500000e+00,-3.1057497835718095302581787e-04,1.7506250143051147460937500e+00,1.3496506214141845703125000e-01,1.4249205589294433593750000e-01,1.3064924478530883789062500e+00,6.1010450124740600585937500e-02,-1.5360901355743408203125000e+00,2.6684218645095825195312500e-01,9.4317860901355743408203125e-02,-6.9995802640914916992187500e-01,-1.1797719001770019531250000e+00,1.3591983318328857421875000e+00,2.0898247137665748596191406e-02,1.1957554817199707031250000e+00,-8.3444958925247192382812500e-01,-2.1181600093841552734375000e+00,-7.4976378679275512695312500e-01,-1.2326865456998348236083984e-02,9.0419212356209754943847656e-03,-9.2958478489890694618225098e-05,4.2611226439476013183593750e-01,-6.5790072083473205566406250e-02,-2.1246230602264404296875000e+00,6.2227147817611694335937500e-01,-9.3872040510177612304687500e-02,-1.1289671063423156738281250e-01,2.7272708714008331298828125e-02,8.2755349576473236083984375e-02,6.2393152713775634765625000e-01,1.1045529693365097045898438e-01,4.3852868676185607910156250e-01,2.5656649470329284667968750e-01,-3.3030509948730468750000000e-03,-2.6990532875061035156250000e-02,1.1283786036074161529541016e-02,9.5610487461090087890625000e-01},
	{-1.0406335592269897460937500e+00,4.8026116564869880676269531e-03,-6.6248118877410888671875000e-01,-8.2768040895462036132812500e-01,-1.4806739985942840576171875e-01,-1.0453364849090576171875000e+00,2.4952787160873413085937500e-01,-2.2810103893280029296875000e+00,3.1756278127431869506835938e-02,6.5587565302848815917968750e-02,-3.8251289725303649902343750e-01,6.1699122190475463867187500e-01,-7.8197568655014038085937500e-01,-4.1061963886022567749023438e-02,-5.5732685327529907226562500e-01,4.9925252795219421386718750e-01,1.3005173206329345703125000e-01,8.5981267690658569335937500e-01,-1.7357982695102691650390625e-02,-4.6126167289912700653076172e-03,-8.1479037180542945861816406e-03,-1.3412450253963470458984375e-01,7.5501054525375366210937500e-02,-5.1529502868652343750000000e-01,-2.7173587679862976074218750e-01,1.1781196109950542449951172e-02,-3.1322342157363891601562500e-01,1.2712707519531250000000000e+00,6.9629788398742675781250000e-01,-8.9837038516998291015625000e-01,-2.7373666763305664062500000e+00,1.3312120437622070312500000e+00,3.6259493231773376464843750e-01,-1.3859623670578002929687500e-01,1.9290382042527198791503906e-02,1.3787500560283660888671875e-01,-1.6466417312622070312500000e+00},
	{1.9236600399017333984375000e+00,-1.6005623620003461837768555e-03,-4.2918186634778976440429688e-02,-5.5828166007995605468750000e-01,2.7280336618423461914062500e-01,-2.9496517777442932128906250e-01,-9.5248848199844360351562500e-02,3.3276295661926269531250000e-01,4.8797219991683959960937500e-02,4.9594458192586898803710938e-02,6.7977660894393920898437500e-01,2.4080317020416259765625000e+00,-1.2626910209655761718750000e+00,3.7547588348388671875000000e-02,1.8612333536148071289062500e+00,-1.3173480033874511718750000e+00,5.8411572128534317016601562e-02,1.1360251903533935546875000e+00,-1.9572250545024871826171875e-02,-5.4148100316524505615234375e-03,-1.1656881310045719146728516e-02,-9.1575598716735839843750000e-01,6.0976374149322509765625000e-01,-3.5632740706205368041992188e-02,-4.8940286040306091308593750e-01,6.5927237272262573242187500e-02,7.5667649507522583007812500e-01,1.0650956630706787109375000e+00,-2.3854409158229827880859375e-01,9.1255861520767211914062500e-01,1.5255054831504821777343750e-01,3.7662044167518615722656250e-01,2.7982627972960472106933594e-02,9.1107271611690521240234375e-02,1.9997961819171905517578125e-02,6.5154395997524261474609375e-03,3.3320125937461853027343750e-01},
	{-3.2887902855873107910156250e-01,1.2570142745971679687500000e-02,-8.1713758409023284912109375e-02,-1.1322382837533950805664062e-01,-2.6758091524243354797363281e-02,-2.0604921504855155944824219e-02,3.2888332009315490722656250e-01,4.0495619177818298339843750e-02,3.8323849439620971679687500e-02,-5.1485937088727951049804688e-02,2.0045436918735504150390625e-01,2.1512122452259063720703125e-01,9.0594625473022460937500000e-01,-2.6671666651964187622070312e-02,3.0865373611450195312500000e+00,3.1783303618431091308593750e-01,-5.2154392004013061523437500e-01,4.0137682110071182250976562e-02,-4.3711207807064056396484375e-02,-2.3421526420861482620239258e-03,-2.5090181734412908554077148e-03,-2.9777840245515108108520508e-03,6.2533837556838989257812500e-01,-3.7913039326667785644531250e-01,-1.5949641168117523193359375e-01,1.8405622243881225585937500e-01,-3.7820966243743896484375000e+00,-8.4602192044258117675781250e-02,1.0182148218154907226562500e+00,-6.4463280141353607177734375e-02,-1.7952071130275726318359375e-01,-3.4664884209632873535156250e-02,2.7095644474029541015625000e+00,1.0445075482130050659179688e-01,-5.7094525545835494995117188e-02,-4.1910219937562942504882812e-02,-9.1031447052955627441406250e-02},
	{-1.5458905696868896484375000e-01,3.2933899201452732086181641e-03,-1.7915179729461669921875000e+00,-1.0854855924844741821289062e-01,5.5537998676300048828125000e-02,-5.8184140920639038085937500e-01,-1.1652587354183197021484375e-01,-2.6867851614952087402343750e-01,3.1959142535924911499023438e-02,-1.6264783218502998352050781e-02,-1.4943246841430664062500000e+00,-1.4758071899414062500000000e+00,7.4481850862503051757812500e-01,2.1397329866886138916015625e-02,9.7631698846817016601562500e-01,-9.7708642482757568359375000e-01,1.2954196929931640625000000e+00,1.7462883889675140380859375e-01,5.5296905338764190673828125e-02,1.4131817035377025604248047e-02,-1.9640836864709854125976562e-02,-2.5768238306045532226562500e-01,-2.4465434551239013671875000e+00,-6.1898136138916015625000000e-01,-6.0261690616607666015625000e-01,-8.1528924405574798583984375e-02,3.9546582102775573730468750e-01,2.4190655350685119628906250e-01,-1.9664929807186126708984375e-01,-4.1722291707992553710937500e-01,2.2241687774658203125000000e+00,1.4782941341400146484375000e-01,6.3582038879394531250000000e-01,-3.8742858916521072387695312e-02,5.1771171391010284423828125e-02,5.0765089690685272216796875e-02,-1.9480463862419128417968750e-01},
	{7.9080045223236083984375000e-02,-1.7239211592823266983032227e-03,-2.4294555187225341796875000e+00,-6.8521201610565185546875000e-01,-1.7525257170200347900390625e-01,5.0595098733901977539062500e-01,-2.9237121343612670898437500e-02,-4.1676458716392517089843750e-01,1.7740605771541595458984375e-01,-1.2547174096107482910156250e-01,4.0992063283920288085937500e-01,5.7447880506515502929687500e-01,9.8105393350124359130859375e-02,-3.4895338118076324462890625e-02,-4.5601755380630493164062500e-02,1.6196267604827880859375000e+00,1.1196357011795043945312500e+00,-2.7126410007476806640625000e+00,1.4551224187016487121582031e-02,7.8706312924623489379882812e-03,-1.1293251998722553253173828e-02,5.9463834762573242187500000e-01,2.9870668053627014160156250e-01,-1.2004043906927108764648438e-01,1.4809972047805786132812500e-01,9.4369001686573028564453125e-02,1.1861358880996704101562500e+00,-1.2313503026962280273437500e+00,2.7503404021263122558593750e-01,1.3003376126289367675781250e-01,-9.0393209457397460937500000e-01,1.0365632772445678710937500e+00,1.8213644623756408691406250e-02,-7.8072004020214080810546875e-02,8.7122201919555664062500000e-02,-3.9754264056682586669921875e-02,6.5498733520507812500000000e-01},
	{-4.0086489915847778320312500e-01,1.7228537471964955329895020e-03,2.4550452232360839843750000e+00,5.2532958984375000000000000e-01,2.6339739561080932617187500e-01,1.0900998115539550781250000e+00,-4.3146419338881969451904297e-03,-6.9078981876373291015625000e-01,-6.2158826738595962524414062e-02,7.8784197568893432617187500e-02,1.8529466390609741210937500e+00,4.0796455740928649902343750e-01,4.0407371520996093750000000e-01,6.1194491572678089141845703e-03,-1.2430678606033325195312500e+00,-2.7724385261535644531250000e-01,2.2455111145973205566406250e-01,1.2338677644729614257812500e+00,2.9277041554450988769531250e-02,-9.6484310925006866455078125e-03,-2.3407458793371915817260742e-03,-3.6609041690826416015625000e-01,-1.6235710382461547851562500e+00,-1.6189093589782714843750000e+00,6.0064572095870971679687500e-01,2.8044638037681579589843750e-01,7.1469396352767944335937500e-01,1.8327353894710540771484375e-01,-5.5967408418655395507812500e-01,-7.3925071954727172851562500e-01,1.7654582858085632324218750e-01,5.5470621585845947265625000e-01,-7.3848932981491088867187500e-02,-6.0434043407440185546875000e-02,4.1364204138517379760742188e-02,-2.7269110083580017089843750e-01,5.2570033073425292968750000e-01},
	{-2.5168475508689880371093750e-01,7.4968283297494053840637207e-04,1.7379786968231201171875000e+00,-1.4842112362384796142578125e-01,-1.3519023358821868896484375e-01,3.5467463731765747070312500e-01,-1.7875543236732482910156250e-01,-3.2116538286209106445312500e-01,-1.5456001460552215576171875e-01,4.2571321129798889160156250e-02,-4.1011670231819152832031250e-01,3.0981919169425964355468750e-01,-1.5609540045261383056640625e-02,-4.4970981776714324951171875e-02,-1.8891182541847229003906250e-01,-4.8403900861740112304687500e-01,5.2248013019561767578125000e-01,2.4310562610626220703125000e+00,6.4515136182308197021484375e-02,2.5642968714237213134765625e-02,2.6221174746751785278320312e-02,-1.5831630229949951171875000e+00,-6.8743449449539184570312500e-01,1.4468357563018798828125000e+00,-4.3927437067031860351562500e-01,-1.2174928188323974609375000e-01,-4.3708893656730651855468750e-01,-2.0821146965026855468750000e+00,7.0507991313934326171875000e-01,9.3543881177902221679687500e-01,-2.0132689476013183593750000e+00,-9.7890740633010864257812500e-01,6.3607203960418701171875000e-01,1.7479757964611053466796875e-01,-3.5622283816337585449218750e-02,-5.7143293321132659912109375e-02,-6.7858505249023437500000000e-01},
	{1.0086311399936676025390625e-01,-2.1016565733589231967926025e-04,-1.6237661838531494140625000e+00,8.4911918640136718750000000e-01,-2.3451700806617736816406250e-01,5.9081602096557617187500000e-01,-8.1080889701843261718750000e-01,-3.4129595756530761718750000e-01,-1.5570297837257385253906250e-01,1.4758959412574768066406250e-02,-6.7361420392990112304687500e-01,-6.9475078582763671875000000e-01,-5.4104691743850708007812500e-01,-3.5101816058158874511718750e-02,8.4025895595550537109375000e-01,-4.4894951581954956054687500e-01,-2.1601442247629165649414062e-02,-2.7403494715690612792968750e-01,-2.8620643541216850280761719e-02,-2.5569232180714607238769531e-02,-2.2086780518293380737304688e-02,-1.6197352409362792968750000e+00,-9.0493381023406982421875000e-01,1.0611814260482788085937500e+00,-3.1596833467483520507812500e-01,4.4103045016527175903320312e-02,-2.5955310463905334472656250e-01,6.6119158267974853515625000e-01,-9.2581373453140258789062500e-01,-3.1401959061622619628906250e-01,1.7537010908126831054687500e+00,-1.1895883083343505859375000e+00,-4.0888208150863647460937500e-01,2.4457097053527832031250000e-02,3.9029831532388925552368164e-03,1.1034132540225982666015625e-01,1.1395603418350219726562500e-01},
	{1.4945048093795776367187500e+00,-7.7915698057040572166442871e-05,1.0153161287307739257812500e+00,-1.5397144854068756103515625e-01,-9.7487635910511016845703125e-02,4.7923170030117034912109375e-02,-3.2015058398246765136718750e-01,-8.4037385880947113037109375e-02,-1.1821910738945007324218750e-01,8.1752985715866088867187500e-02,1.5884639024734497070312500e+00,-1.6087496280670166015625000e-01,-6.2857949733734130859375000e-01,-1.0146092623472213745117188e-01,9.6594583988189697265625000e-01,4.1125121712684631347656250e-01,-1.2815893888473510742187500e+00,2.3892207145690917968750000e+00,-1.9906327128410339355468750e-02,3.8148683961480855941772461e-03,-1.3571319868788123130798340e-03,1.1814609766006469726562500e+00,-8.9358907938003540039062500e-01,9.4846016168594360351562500e-01,1.0774250030517578125000000e+00,1.9303479790687561035156250e-01,-1.5579289197921752929687500e-01,8.2752250134944915771484375e-02,-1.1025758460164070129394531e-02,1.4101759195327758789062500e+00,6.9986546039581298828125000e-01,2.7021804451942443847656250e-01,-9.6369221806526184082031250e-02,-1.2349803000688552856445312e-01,1.4818450808525085449218750e-01,4.4483520090579986572265625e-02,1.1565728187561035156250000e+00},
	{-1.6513522863388061523437500e+00,-5.5066649802029132843017578e-03,-1.0430840253829956054687500e+00,6.1963325738906860351562500e-01,-4.1334261186420917510986328e-03,9.2417025566101074218750000e-01,-3.5013750195503234863281250e-02,-1.7643778324127197265625000e+00,-4.1778687387704849243164062e-02,-6.5497308969497680664062500e-02,-7.4400636367499828338623047e-03,-8.3944147825241088867187500e-01,-1.3782051801681518554687500e+00,9.4558671116828918457031250e-03,8.5030055046081542968750000e-01,2.9870694875717163085937500e-01,-1.6857881844043731689453125e-01,-8.6333745718002319335937500e-01,-1.1982376687228679656982422e-02,7.3083280585706233978271484e-03,-6.9245211780071258544921875e-03,-1.0391210317611694335937500e+00,1.0169526338577270507812500e+00,-2.7955326437950134277343750e-01,2.5014199316501617431640625e-02,-1.1466561257839202880859375e-01,-1.5935530662536621093750000e+00,-2.2992183268070220947265625e-01,-7.1113117039203643798828125e-02,1.7422589659690856933593750e-01,-7.7049833536148071289062500e-01,1.3629987239837646484375000e+00,1.8281903862953186035156250e-01,2.6581946015357971191406250e-01,-8.9713610708713531494140625e-02,-3.5623539239168167114257812e-02,-7.2478067874908447265625000e-01},
	{1.1681830883026123046875000e+00,7.5732618570327758789062500e-03,-9.1665351390838623046875000e-01,-2.3293961584568023681640625e-01,1.7640990018844604492187500e-01,9.0150460600852966308593750e-02,-2.7862122654914855957031250e-01,-8.0543345212936401367187500e-01,5.0905102491378784179687500e-01,-1.4482979662716388702392578e-02,-7.5341045856475830078125000e-01,1.6561567783355712890625000e+00,8.2074809074401855468750000e-01,-8.7824396789073944091796875e-02,-5.6652672588825225830078125e-02,-6.3282430171966552734375000e-01,9.8551160097122192382812500e-01,-1.3182970881462097167968750e-01,-1.6070112586021423339843750e-01,1.5635311603546142578125000e-02,-1.5125331468880176544189453e-02,2.4550559520721435546875000e+00,2.5025904178619384765625000e+00,1.0200558900833129882812500e+00,-3.7741288542747497558593750e-02,1.7475178837776184082031250e-01,-5.0693914294242858886718750e-02,-4.0662452578544616699218750e-01,-4.7704228758811950683593750e-01,3.2637956738471984863281250e-01,-5.9697049856185913085937500e-01,8.7059170007705688476562500e-01,-4.0999025106430053710937500e-01,-1.9832089543342590332031250e-02,-3.0052367597818374633789062e-02,9.7826205193996429443359375e-02,-1.3670873641967773437500000e+00},
	{-1.6213178634643554687500000e+00,1.6944890841841697692871094e-02,-3.4655652940273284912109375e-02,3.8985711336135864257812500e-01,-7.2485014796257019042968750e-02,-1.5915063619613647460937500e+00,1.4789765700697898864746094e-02,3.8131207227706909179687500e-01,1.6760267317295074462890625e-01,6.1045447364449501037597656e-03,-1.3349455595016479492187500e+00,9.6488469839096069335937500e-01,-1.2322344779968261718750000e+00,5.4927725344896316528320312e-02,1.3023930788040161132812500e+00,-1.0721487998962402343750000e+00,-3.4092795848846435546875000e-01,-1.0197427272796630859375000e+00,8.3303280174732208251953125e-02,-6.7397919483482837677001953e-03,6.8538109771907329559326172e-03,2.3465381562709808349609375e-01,1.0109585523605346679687500e+00,4.0121519565582275390625000e-01,3.4786793589591979980468750e-01,-1.7210389673709869384765625e-01,-4.5359528064727783203125000e-01,-2.4731044769287109375000000e+00,-3.8736459612846374511718750e-01,-1.5741952657699584960937500e+00,6.6928610205650329589843750e-02,-3.1475633382797241210937500e-01,-2.7649751305580139160156250e-01,8.2805678248405456542968750e-02,-6.7492082715034484863281250e-02,-1.2645219452679157257080078e-02,-8.1784200668334960937500000e-01}};
float weights_tr2_1_0[37]={-1.2338088750839233398437500e+00,-4.5160293579101562500000000e-02,-1.2838569879531860351562500e+00,-7.8451490402221679687500000e-01,1.5218930318951606750488281e-02,8.8974595069885253906250000e-01,-5.0477826595306396484375000e-01,2.0168952941894531250000000e+00,1.6858012974262237548828125e-01,5.5685557425022125244140625e-02,-9.9564731121063232421875000e-01,-3.5922288894653320312500000e-02,1.4870178699493408203125000e+00,-5.9980396181344985961914062e-02,-2.4443862438201904296875000e+00,-3.1329336166381835937500000e+00,1.4932126998901367187500000e+00,2.3756673336029052734375000e+00,1.4531281590461730957031250e-01,1.0885414667427539825439453e-02,-1.6712592914700508117675781e-02,-5.0982934236526489257812500e-01,9.4066792726516723632812500e-01,1.7600494623184204101562500e+00,-1.7540756464004516601562500e+00,-1.1418034136295318603515625e-01,1.7487028837203979492187500e+00,2.7163073420524597167968750e-01,-4.3012940883636474609375000e-01,-3.0249851942062377929687500e-01,3.0677491426467895507812500e-01,-5.5105483531951904296875000e-01,-8.4091585874557495117187500e-01,5.1631256937980651855468750e-02,4.8699318431317806243896484e-03,-1.3677489757537841796875000e-01,-4.9057188630104064941406250e-01};
