float weights_bn_0_2[9]={7.3733431100845336914062500e-01,9.2163848876953125000000000e-01,1.8736803531646728515625000e+00,1.4277525246143341064453125e-01,1.5342777967453002929687500e+00,-2.4593597650527954101562500e-01,1.3965895175933837890625000e+00,1.1339006423950195312500000e+00,1.7685495615005493164062500e+00};
float weights_bn_1_2[9]={1.0168056190013885498046875e-01,1.7299079895019531250000000e-01,3.7044268846511840820312500e-01,-9.4516105949878692626953125e-02,1.6923319548368453979492188e-02,-8.3813047409057617187500000e-01,2.1944066882133483886718750e-01,3.9499926567077636718750000e-01,-2.2900485992431640625000000e-01};
float weights_bn_2_2[9]={-2.4112412929534912109375000e+00,1.0012158203125000000000000e+02,2.6811492919921875000000000e+02,1.2682656049728393554687500e+00,2.1077217161655426025390625e-01,9.1108947992324829101562500e-02,2.1507221460342407226562500e-01,3.1002330780029296875000000e-01,1.4120952785015106201171875e-01};
float weights_bn_3_2[9]={1.3745717187500000000000000e+05,8.5620414062500000000000000e+04,7.0097492187500000000000000e+04,9.8410545349121093750000000e+01,9.8838262259960174560546875e-02,1.2101639807224273681640625e-01,6.7217461764812469482421875e-02,2.1799832582473754882812500e-02,1.7080554366111755371093750e-01};
float weights_tr1_0_2[9][56]={
	{-4.9026168882846832275390625e-02,1.4296872913837432861328125e-01,4.9197640269994735717773438e-02,-1.0655859485268592834472656e-02,6.1699301004409790039062500e-01,-5.2901983261108398437500000e-02,2.1186700090765953063964844e-02,8.0907478928565979003906250e-02,-1.0879466310143470764160156e-02,1.7852114140987396240234375e-01,1.3667767867445945739746094e-02,6.4657047390937805175781250e-02,1.8200298771262168884277344e-02,-1.0108546167612075805664062e-01,-1.5700213611125946044921875e-01,6.3310980796813964843750000e-02,-6.8972134590148925781250000e-01,1.4680190384387969970703125e-01,-2.2433069534599781036376953e-03,1.7016481608152389526367188e-02,-7.8093692660331726074218750e-02,-2.3617936298251152038574219e-02,6.3861228525638580322265625e-02,-3.5615317523479461669921875e-02,2.2451353073120117187500000e-01,3.9528131484985351562500000e-02,-1.2700638771057128906250000e+00,1.3763217255473136901855469e-02,1.0853813961148262023925781e-02,-4.1839353740215301513671875e-02,-7.6922826468944549560546875e-02,-1.1050045490264892578125000e-01,1.5967220067977905273437500e-01,-2.8439869880676269531250000e+00,-1.0047140717506408691406250e-01,4.5494880527257919311523438e-02,-6.2523566186428070068359375e-02,-5.0357915461063385009765625e-02,-4.1324682235717773437500000e+00,4.8527624458074569702148438e-02,-9.5738167874515056610107422e-04,-1.2822307646274566650390625e-01,-6.0197621583938598632812500e-02,-1.4539280533790588378906250e-01,-3.2464548945426940917968750e-02,-4.5011200010776519775390625e-02,5.5030399560928344726562500e-01,-2.1885240077972412109375000e-01,-8.7263569235801696777343750e-02,-6.1643961817026138305664062e-02,-8.1392288208007812500000000e-02,3.7099167704582214355468750e-02,8.0983690917491912841796875e-02,1.1623176932334899902343750e-01,1.5585440397262573242187500e-01,6.5044291317462921142578125e-02},
	{-1.3542577624320983886718750e-02,3.8940723985433578491210938e-02,-1.2565183639526367187500000e-01,-8.5237890481948852539062500e-02,1.3342554569244384765625000e+00,-1.8552117049694061279296875e-02,5.3518738597631454467773438e-02,2.2732634097337722778320312e-02,-5.1702547818422317504882812e-02,1.3285177759826183319091797e-02,2.3271430283784866333007812e-02,-1.5560083091259002685546875e-01,4.5402418822050094604492188e-02,1.6223588585853576660156250e-01,3.3597085624933242797851562e-02,1.7979587614536285400390625e-01,3.0497355461120605468750000e+00,3.0691873282194137573242188e-02,3.3785433042794466018676758e-03,5.9164900332689285278320312e-02,-4.2204457521438598632812500e-01,4.9993351101875305175781250e-02,2.1050207316875457763671875e-02,-1.3209755718708038330078125e-01,-4.9472872167825698852539062e-02,-7.4847675859928131103515625e-02,9.9763417243957519531250000e-01,-8.8002540171146392822265625e-02,6.7663453519344329833984375e-02,9.4773456454277038574218750e-02,9.8231889307498931884765625e-02,-1.6132026910781860351562500e-01,7.0348218083381652832031250e-02,-3.1386620998382568359375000e+00,-1.8798515796661376953125000e+00,6.9481603801250457763671875e-02,6.5751612186431884765625000e-02,1.5975610911846160888671875e-01,1.1798690259456634521484375e-01,-7.9787202179431915283203125e-02,-5.0400775671005249023437500e-01,6.4788006246089935302734375e-02,3.4156363457441329956054688e-02,7.5147929601371288299560547e-03,1.4128348790109157562255859e-02,3.4121417999267578125000000e-01,-1.8659418821334838867187500e+00,1.3208623230457305908203125e-01,-1.2181609123945236206054688e-01,-3.5072777420282363891601562e-02,-3.4402266144752502441406250e-02,-1.6598090529441833496093750e-02,-2.7808984741568565368652344e-02,-5.6409621611237525939941406e-03,-1.9776092469692230224609375e-01,9.5009572803974151611328125e-02},
	{6.9971817731857299804687500e-01,7.2777086496353149414062500e-01,-2.9688830375671386718750000e+00,-6.5813028812408447265625000e-01,-8.9868837594985961914062500e-01,-1.1161572486162185668945312e-01,9.3474799394607543945312500e-01,-4.8968708515167236328125000e-01,8.4204745292663574218750000e-01,-8.8456469774246215820312500e-01,4.1410624980926513671875000e-01,4.6381902694702148437500000e-01,1.3163682818412780761718750e-01,7.7912308275699615478515625e-02,-1.8299500644207000732421875e-01,1.3679099082946777343750000e+00,2.0978142321109771728515625e-01,-1.3652601242065429687500000e+00,-2.6390278711915016174316406e-02,1.4105927944183349609375000e+00,-1.1073857545852661132812500e+00,1.3631106913089752197265625e-01,1.5215612947940826416015625e-01,-1.5444276332855224609375000e+00,-5.9030562639236450195312500e-01,3.8166180253028869628906250e-01,-1.2202351540327072143554688e-01,3.5812130570411682128906250e-01,2.0677545666694641113281250e-01,1.5038038492202758789062500e+00,4.0079551935195922851562500e-01,-1.4810259342193603515625000e+00,-1.1675777435302734375000000e+00,-1.9030852615833282470703125e-01,-3.3809649944305419921875000e-01,7.7389055490493774414062500e-01,7.2433400154113769531250000e-01,-1.0524498224258422851562500e+00,2.5855716317892074584960938e-02,1.6379249095916748046875000e+00,-1.3920203447341918945312500e+00,-2.0072370767593383789062500e-01,-4.2022503912448883056640625e-03,-2.3826439678668975830078125e-01,2.0672933757305145263671875e-01,-3.6588132381439208984375000e-01,-6.5886574983596801757812500e-01,4.0734389424324035644531250e-01,1.3458379507064819335937500e+00,5.0131922960281372070312500e-01,-3.8950628042221069335937500e-01,2.3726168274879455566406250e-01,-3.4909200668334960937500000e-01,4.8435461521148681640625000e-01,4.2520895600318908691406250e-01,-2.1618461608886718750000000e-01},
	{8.2324899733066558837890625e-02,-7.0111757516860961914062500e-01,-1.0265883803367614746093750e-01,-1.2307875603437423706054688e-01,-3.9861351251602172851562500e-01,-6.9536775350570678710937500e-02,-1.1162361502647399902343750e-01,-7.3870962858200073242187500e-01,-6.7363488674163818359375000e-01,3.6157529801130294799804688e-02,3.9836394786834716796875000e-01,-1.2103761434555053710937500e+00,7.8914070129394531250000000e-01,1.1734502762556076049804688e-01,-6.5146851539611816406250000e-01,-1.6555789113044738769531250e-01,1.2443987280130386352539062e-01,-6.1000448465347290039062500e-01,1.7051815986633300781250000e-01,8.0260956287384033203125000e-01,-8.7961775716394186019897461e-04,-2.6084464788436889648437500e-01,-2.9931318759918212890625000e-01,7.4900960922241210937500000e-01,-2.1649506092071533203125000e+00,-1.7519597709178924560546875e-01,1.0585235431790351867675781e-03,3.9774668216705322265625000e-01,2.7172038555145263671875000e+00,-3.5769397020339965820312500e-01,7.2635191679000854492187500e-01,-1.0509980469942092895507812e-01,-4.4881185889244079589843750e-01,-1.4291752874851226806640625e-01,1.6829329729080200195312500e-01,-3.2423099875450134277343750e-01,-1.6065877676010131835937500e-01,-4.4231837987899780273437500e-01,-1.1884735524654388427734375e-01,-1.2625420093536376953125000e-01,-4.5154985040426254272460938e-02,6.1568100005388259887695312e-02,3.3132839202880859375000000e-01,3.7280189990997314453125000e-01,-3.2450798153877258300781250e-01,-9.9481418728828430175781250e-02,-5.0464344024658203125000000e-01,2.2990380227565765380859375e-01,-6.0192674398422241210937500e-01,1.3843387365341186523437500e-01,1.9152912497520446777343750e-01,-8.5877454280853271484375000e-01,-2.7939301729202270507812500e-01,7.2206860780715942382812500e-01,6.9137465953826904296875000e-01,-4.0620160102844238281250000e-01},
	{-1.9109411239624023437500000e+00,-7.2436136007308959960937500e-01,-5.3371735848486423492431641e-03,-4.0894784033298492431640625e-03,2.6713132858276367187500000e-01,-1.2716689109802246093750000e+00,-1.4820976257324218750000000e+00,8.0405783653259277343750000e-01,6.8919084966182708740234375e-02,3.2823082804679870605468750e-01,-2.0587298870086669921875000e+00,-8.6694949865341186523437500e-01,7.1689754724502563476562500e-01,-7.0579993724822998046875000e-01,-2.2073069214820861816406250e-01,-3.1421691179275512695312500e-01,2.6378333568572998046875000e-01,1.1775498390197753906250000e+00,1.4979552030563354492187500e+00,-2.6784381270408630371093750e-01,-3.5715377330780029296875000e-01,-1.1483248472213745117187500e+00,-1.9405544996261596679687500e+00,-3.0590060353279113769531250e-01,9.9320834875106811523437500e-01,-8.1076526641845703125000000e-01,-4.1506249457597732543945312e-02,1.1726713180541992187500000e+00,-4.3621182441711425781250000e-01,7.0834058523178100585937500e-01,-3.9455753564834594726562500e-01,-1.0281723737716674804687500e+00,-7.8799563646316528320312500e-01,-1.3844946399331092834472656e-02,4.8617723584175109863281250e-01,-1.4490027427673339843750000e+00,-1.3380285501480102539062500e+00,5.2464593201875686645507812e-02,-1.0931315831840038299560547e-02,-2.7325615286827087402343750e-01,1.2933301925659179687500000e-01,-6.9876706600189208984375000e-01,7.4122202396392822265625000e-01,-1.1992837302386760711669922e-02,1.0604735612869262695312500e+00,5.6129634380340576171875000e-01,-1.3015118241310119628906250e-01,8.5171800851821899414062500e-01,6.8774074316024780273437500e-01,5.1169639825820922851562500e-01,6.3032782077789306640625000e-01,2.8141632676124572753906250e-01,-1.5926261246204376220703125e-01,1.2086057662963867187500000e+00,-4.4872203469276428222656250e-01,-3.7313756346702575683593750e-01},
	{5.9585851430892944335937500e-01,-7.1950905025005340576171875e-02,-2.4263970553874969482421875e-01,-6.4146208763122558593750000e-01,-1.7771488428115844726562500e+00,-2.8286924585700035095214844e-02,1.7679493427276611328125000e+00,-1.2495852708816528320312500e+00,8.6723178625106811523437500e-01,2.5913301110267639160156250e-01,8.1182593107223510742187500e-01,-2.1601330488920211791992188e-02,5.6057614088058471679687500e-01,4.4633814692497253417968750e-01,-7.8645837306976318359375000e-01,-1.2017920017242431640625000e+00,-6.8259322643280029296875000e-01,-1.1970870494842529296875000e+00,6.0277259349822998046875000e-01,3.0143192410469055175781250e-01,-7.4511992931365966796875000e-01,3.0632996559143066406250000e-01,-4.7641494870185852050781250e-01,6.2511539459228515625000000e-01,-2.8045660257339477539062500e-01,2.8637182712554931640625000e-01,-4.4887492060661315917968750e-01,1.2290824651718139648437500e+00,-8.0447562038898468017578125e-02,1.3938261270523071289062500e+00,3.1335982680320739746093750e-01,4.6220007538795471191406250e-01,-4.3598893284797668457031250e-01,5.6139522790908813476562500e-01,-1.5239577293395996093750000e+00,-2.0372061431407928466796875e-01,8.6903375387191772460937500e-01,-4.4534498453140258789062500e-01,-5.6806523352861404418945312e-02,-2.3903001844882965087890625e-01,2.5101470947265625000000000e-01,-1.4292576313018798828125000e+00,-2.5456887669861316680908203e-04,-3.4085652232170104980468750e-01,-2.9079276323318481445312500e-01,-9.3415302038192749023437500e-01,-2.0388939380645751953125000e+00,-5.2587348222732543945312500e-01,2.3068207502365112304687500e-01,4.2314201593399047851562500e-01,-6.8185269832611083984375000e-01,-9.9277518689632415771484375e-02,1.2940493226051330566406250e-01,2.7076387405395507812500000e-01,-3.1782081723213195800781250e-01,-4.8130717873573303222656250e-01},
	{1.2779448032379150390625000e+00,-7.1937674283981323242187500e-01,-1.2303490191698074340820312e-01,-1.0248219966888427734375000e+00,-4.2913150042295455932617188e-02,8.7008768320083618164062500e-01,2.1909236907958984375000000e-01,1.2757004499435424804687500e+00,-5.3319150209426879882812500e-01,-1.0872738361358642578125000e+00,-7.0995438098907470703125000e-01,-9.2800134420394897460937500e-01,1.2318812310695648193359375e-01,2.1568676829338073730468750e-01,-3.2646924257278442382812500e-01,1.8897897005081176757812500e-01,-1.1107453703880310058593750e-01,-4.7468298673629760742187500e-01,-6.9453674554824829101562500e-01,-6.5970671176910400390625000e-01,-7.5832456350326538085937500e-02,3.8598603010177612304687500e-01,-8.2413119077682495117187500e-01,-1.3043574094772338867187500e+00,7.9234486818313598632812500e-01,8.5289925336837768554687500e-01,2.8067594766616821289062500e-01,-9.4419330358505249023437500e-01,7.3615592718124389648437500e-01,1.7802265286445617675781250e-01,7.1624296903610229492187500e-01,2.2513504326343536376953125e-01,6.5402799844741821289062500e-01,-9.5265991985797882080078125e-02,2.5679370760917663574218750e-01,3.7177032232284545898437500e-01,-1.4210435152053833007812500e+00,5.7366096973419189453125000e-01,-4.6825610101222991943359375e-02,-1.8141855001449584960937500e+00,-3.7339228391647338867187500e-01,1.0662765502929687500000000e+00,-6.2768834829330444335937500e-01,-1.0846515893936157226562500e+00,-1.6291848421096801757812500e+00,4.8031035065650939941406250e-01,1.4125461876392364501953125e-01,-1.2191340923309326171875000e+00,-5.2480471134185791015625000e-01,-1.4025552272796630859375000e+00,-1.2815386056900024414062500e+00,-8.3450251817703247070312500e-01,-1.2044587135314941406250000e+00,-6.0987097024917602539062500e-01,-4.5578950643539428710937500e-01,-1.4917973279953002929687500e+00},
	{5.7565557956695556640625000e-01,6.1334419250488281250000000e-01,3.7907150387763977050781250e-01,-8.9530068635940551757812500e-01,9.0393728017807006835937500e-01,-7.7771627902984619140625000e-01,-1.1653776466846466064453125e-01,-9.9600255489349365234375000e-02,-3.2775148749351501464843750e-01,-1.8818897008895874023437500e-01,9.3956552445888519287109375e-03,-2.9841408133506774902343750e-01,-1.5930774211883544921875000e+00,-8.1276468932628631591796875e-02,2.3895923048257827758789062e-02,7.1006727218627929687500000e-01,-3.1732410192489624023437500e-01,-9.3217176198959350585937500e-01,-1.6849056482315063476562500e+00,-8.8075065612792968750000000e-01,-2.8151759505271911621093750e-01,-2.2836484014987945556640625e-01,9.4990205764770507812500000e-01,-4.5296847820281982421875000e-01,1.2731534242630004882812500e-01,-2.4484124183654785156250000e+00,-2.3887464776635169982910156e-02,1.2960935831069946289062500e+00,7.2060060501098632812500000e-01,-5.2208846807479858398437500e-01,-2.7421000599861145019531250e-01,-6.6795065999031066894531250e-02,7.8137952089309692382812500e-01,-1.1870039999485015869140625e-01,-5.3334116935729980468750000e-01,-6.1958324909210205078125000e-01,-4.6472284197807312011718750e-01,7.3260881006717681884765625e-02,4.4605128467082977294921875e-02,1.3604214191436767578125000e+00,1.3548359870910644531250000e+00,1.1246967315673828125000000e-01,8.2655411958694458007812500e-01,6.0890609025955200195312500e-01,1.1021867394447326660156250e-01,-1.5302090644836425781250000e+00,1.4509712457656860351562500e+00,-3.5678875446319580078125000e-01,6.1151599884033203125000000e-01,5.2043747901916503906250000e-01,3.6441329121589660644531250e-01,-4.5715248584747314453125000e-01,1.4944550991058349609375000e+00,-8.0199325084686279296875000e-01,-1.3555372953414916992187500e+00,9.8740947246551513671875000e-01},
	{-1.1905517578125000000000000e+00,-4.3802249431610107421875000e-01,1.4240602254867553710937500e+00,1.7867577075958251953125000e+00,7.5985294580459594726562500e-01,1.7861921787261962890625000e+00,4.9121249467134475708007812e-02,4.0840634703636169433593750e-01,-1.3208318948745727539062500e+00,-3.6644512414932250976562500e-01,-1.9072842551395297050476074e-03,5.4511773586273193359375000e-01,-1.1482419967651367187500000e+00,1.2802541255950927734375000e+00,1.3271107673645019531250000e+00,-1.2915700674057006835937500e-01,1.3209646940231323242187500e-01,-5.0839531421661376953125000e-01,4.4919970631599426269531250e-01,-9.0478461980819702148437500e-01,1.0110344886779785156250000e+00,-4.3173289299011230468750000e-01,8.0492770671844482421875000e-01,4.8906594514846801757812500e-01,1.0641269385814666748046875e-01,2.0781775936484336853027344e-02,-6.4726692438125610351562500e-01,-1.0557676553726196289062500e+00,2.7596089243888854980468750e-01,2.6225525140762329101562500e-01,-9.8783451318740844726562500e-01,9.5333200693130493164062500e-01,-2.5635740160942077636718750e-01,2.9001164436340332031250000e-01,2.4051469564437866210937500e-01,1.5829920768737792968750000e+00,1.0298420190811157226562500e+00,1.6230815649032592773437500e+00,1.5079976059496402740478516e-02,-1.9217912852764129638671875e-01,2.3085154592990875244140625e-02,-8.2729429006576538085937500e-01,1.7529996633529663085937500e+00,-1.7760181427001953125000000e+00,1.0751672089099884033203125e-01,5.2415590733289718627929688e-02,1.3642063736915588378906250e-01,-2.4914160370826721191406250e-01,-7.7139323949813842773437500e-01,-3.9879791438579559326171875e-02,1.2773332595825195312500000e+00,1.2665154039859771728515625e-01,-4.0583541989326477050781250e-01,5.0474595278501510620117188e-02,-2.5519099831581115722656250e-01,1.4270997047424316406250000e+00}};
float weights_tr1_1_2[56]={1.8956229090690612792968750e-01,7.7181512117385864257812500e-01,-1.2095985412597656250000000e+00,1.3544090986251831054687500e+00,1.7351942062377929687500000e+00,-5.8415144681930541992187500e-01,-1.0062162876129150390625000e+00,1.4441506862640380859375000e+00,-7.3473930358886718750000000e-01,-1.0396851226687431335449219e-02,-4.4525158405303955078125000e-01,-6.6899517551064491271972656e-03,3.1091398000717163085937500e-01,-1.1788722276687622070312500e+00,8.2927471399307250976562500e-01,1.4717909097671508789062500e+00,1.0893230438232421875000000e+00,1.1963250637054443359375000e+00,4.2362078092992305755615234e-03,-2.1932110190391540527343750e-01,6.5786786377429962158203125e-02,-1.1227259784936904907226562e-01,1.1802539825439453125000000e+00,-9.5078945159912109375000000e-01,-9.5188438892364501953125000e-01,-2.8955960273742675781250000e-01,7.1050518751144409179687500e-01,-1.4695825576782226562500000e+00,-5.6073164939880371093750000e-01,-1.8113760948181152343750000e+00,-1.0058809518814086914062500e+00,-1.8775392770767211914062500e+00,-2.7904668450355529785156250e-01,-7.7924793958663940429687500e-01,7.9153454303741455078125000e-01,7.7174104750156402587890625e-02,-4.5910173654556274414062500e-01,7.0324534177780151367187500e-01,4.2562794685363769531250000e-01,4.8626673221588134765625000e-01,-1.3797850608825683593750000e+00,2.5132229328155517578125000e+00,9.3572242185473442077636719e-03,1.4395128190517425537109375e-01,1.2937937676906585693359375e-01,1.2086080312728881835937500e+00,1.7418736219406127929687500e+00,1.3645988702774047851562500e+00,6.5515065193176269531250000e-01,-8.5018515586853027343750000e-01,-7.3945617675781250000000000e-01,1.0958343744277954101562500e+00,-9.8278760910034179687500000e-01,4.2388863861560821533203125e-02,9.1147518157958984375000000e-01,5.6806333363056182861328125e-02};
float weights_tr2_0_2[56][37]={
	{4.4119124412536621093750000e+00,1.9095090031623840332031250e-01,-7.2672390937805175781250000e-01,-7.3273599147796630859375000e-01,-1.5696372091770172119140625e-01,6.8564337491989135742187500e-01,-1.9088804721832275390625000e-01,1.1159294843673706054687500e-01,2.6021257042884826660156250e-02,-3.5944730043411254882812500e-03,1.1190907955169677734375000e+00,-8.0599284172058105468750000e-01,-1.0581195354461669921875000e+00,-2.4071565270423889160156250e-01,4.8139837384223937988281250e-01,1.4174629449844360351562500e+00,-6.7070591449737548828125000e-01,-1.3421370089054107666015625e-01,2.8687743470072746276855469e-02,6.2296953052282333374023438e-02,3.8837743923068046569824219e-03,-3.4027785062789916992187500e-02,1.5426066517829895019531250e-01,9.3533799052238464355468750e-02,2.1443851292133331298828125e-01,2.1359786391258239746093750e-01,-1.4396056532859802246093750e-01,-1.6642022132873535156250000e+00,-8.9255303144454956054687500e-01,6.4195460081100463867187500e-01,-6.4677023887634277343750000e-01,-1.9156605005264282226562500e+00,-4.8548720777034759521484375e-02,1.6724767163395881652832031e-02,-1.5992052853107452392578125e-02,1.3658708892762660980224609e-02,-1.5754712820053100585937500e+00},
	{1.3211344480514526367187500e+00,9.6728891134262084960937500e-02,3.9360949397087097167968750e-01,4.9125507473945617675781250e-01,-3.2715436071157455444335938e-02,1.7006828784942626953125000e+00,-1.8577238917350769042968750e-01,1.4371134042739868164062500e+00,2.6993175968527793884277344e-02,-5.4401461966335773468017578e-03,-8.4926211833953857421875000e-01,-2.7855259180068969726562500e-01,1.6045681238174438476562500e+00,-2.8359192609786987304687500e-01,-1.9316379725933074951171875e-01,2.7355149388313293457031250e-01,-4.9850285053253173828125000e-02,3.0885982513427734375000000e+00,-1.6045707464218139648437500e-01,-2.0784029364585876464843750e-01,1.4100623317062854766845703e-02,-1.1509103775024414062500000e+00,5.7211118936538696289062500e-01,-5.9153300523757934570312500e-01,-6.6609472036361694335937500e-01,-1.8453286588191986083984375e-01,4.5994904637336730957031250e-01,2.2189638018608093261718750e-01,-3.2085764408111572265625000e-01,6.0746675729751586914062500e-01,3.1891471147537231445312500e-01,-1.7138105630874633789062500e-01,-4.0486133098602294921875000e-01,3.2652572263032197952270508e-03,1.3678954914212226867675781e-02,7.3332130908966064453125000e-02,5.8277243375778198242187500e-01},
	{2.8781430721282958984375000e+00,-2.1999338269233703613281250e-01,-8.0398451536893844604492188e-03,-4.6311888694763183593750000e+00,-2.0998178422451019287109375e-01,-7.6321117579936981201171875e-02,1.4900629222393035888671875e-01,1.1870547533035278320312500e+00,-8.2570463418960571289062500e-03,8.1316847354173660278320312e-03,1.1503463238477706909179688e-01,3.7592965364456176757812500e-01,-3.9625921845436096191406250e-01,-5.8120474219322204589843750e-02,1.0777796506881713867187500e+00,-1.9872626662254333496093750e-01,2.0216012001037597656250000e+00,3.9312803745269775390625000e-01,1.2081214040517807006835938e-01,-4.0338777005672454833984375e-02,-7.0126014761626720428466797e-03,-1.2378319501876831054687500e+00,4.8523125052452087402343750e-01,-6.1995035409927368164062500e-01,4.6559748053550720214843750e-01,8.3487711846828460693359375e-02,-1.4260665513575077056884766e-02,-1.3873016834259033203125000e+00,4.4318228960037231445312500e-01,-2.2466036677360534667968750e-01,-1.6347883939743041992187500e+00,9.4455426931381225585937500e-01,1.1468560993671417236328125e-01,2.0653300452977418899536133e-03,-3.2148221507668495178222656e-03,-9.0801067650318145751953125e-02,7.0226812362670898437500000e-01},
	{-4.2798554897308349609375000e-01,-5.7586763054132461547851562e-02,1.1030561923980712890625000e+00,1.5212918817996978759765625e-01,-8.0944061279296875000000000e-02,-5.2898699045181274414062500e-01,-5.1247611641883850097656250e-02,-1.1898312568664550781250000e+00,-5.6808859109878540039062500e-02,1.8778884783387184143066406e-02,-8.3414638042449951171875000e-01,3.7561094760894775390625000e-01,9.5318019390106201171875000e-01,1.1503809690475463867187500e-01,3.0646079778671264648437500e-01,1.2063245773315429687500000e+00,-1.0771002769470214843750000e+00,-7.2343510389328002929687500e-01,1.6422264277935028076171875e-02,8.2485862076282501220703125e-03,-7.5205219909548759460449219e-03,-4.6185326576232910156250000e-01,-1.4044480323791503906250000e+00,8.6647301912307739257812500e-01,-6.3202053308486938476562500e-01,1.5622001886367797851562500e-01,-2.3513166606426239013671875e-01,-1.5122680664062500000000000e+00,-1.5512460470199584960937500e-01,2.7044191360473632812500000e+00,2.3059270381927490234375000e+00,5.1654481887817382812500000e-01,5.3060427308082580566406250e-02,2.2383421659469604492187500e-02,-3.5053290426731109619140625e-02,-5.7015798985958099365234375e-02,-1.9747024774551391601562500e+00},
	{-3.9563170075416564941406250e-01,-3.6284253001213073730468750e-02,-7.1564275026321411132812500e-01,-2.0146265029907226562500000e+00,9.7983228042721748352050781e-03,-2.1091826260089874267578125e-01,-3.0583781003952026367187500e-01,3.1035950779914855957031250e-01,-3.8426364772021770477294922e-03,1.5688238665461540222167969e-02,-1.3443498313426971435546875e-01,-5.5083626508712768554687500e-01,9.7659128904342651367187500e-01,-3.4898403286933898925781250e-01,-8.8611030578613281250000000e-01,-3.0263236165046691894531250e-01,-3.9204710721969604492187500e-01,2.0455766469240188598632812e-02,2.3819388449192047119140625e-01,4.6600075438618659973144531e-03,-3.1286799348890781402587891e-03,1.4761956036090850830078125e-01,5.1226133108139038085937500e-01,1.0324046015739440917968750e-01,-4.9128207564353942871093750e-01,-2.4962556362152099609375000e-01,3.8664228916168212890625000e+00,3.9519482851028442382812500e-01,-6.5929132699966430664062500e-01,1.9355478882789611816406250e-01,-2.1376462653279304504394531e-02,2.5068247318267822265625000e-01,-2.6761090755462646484375000e+00,1.0100857354700565338134766e-02,2.3906505666673183441162109e-03,7.6510727405548095703125000e-02,-5.7744365930557250976562500e-01},
	{-2.6862969994544982910156250e-01,1.4939028024673461914062500e-01,-2.5535275936126708984375000e+00,1.2009587287902832031250000e+00,9.1508321929723024368286133e-04,-5.6443107128143310546875000e-01,-7.1640580892562866210937500e-02,-7.0400096476078033447265625e-02,4.6429871581494808197021484e-03,-1.9472775980830192565917969e-02,6.2977892160415649414062500e-01,1.1634000539779663085937500e+00,-1.4374155998229980468750000e+00,-1.1093087494373321533203125e-01,9.0626947581768035888671875e-02,-3.5732774734497070312500000e+00,4.5875677466392517089843750e-01,3.4465506672859191894531250e-02,2.1198851987719535827636719e-02,3.2071575522422790527343750e-02,-8.2216219743713736534118652e-04,-7.6171350479125976562500000e-01,6.0078448057174682617187500e-01,-4.2172253131866455078125000e-01,-1.1635218858718872070312500e+00,1.7980736494064331054687500e-01,4.1025370359420776367187500e-01,-1.0201337188482284545898438e-01,9.7151778638362884521484375e-02,1.2949196100234985351562500e+00,-1.7409628629684448242187500e+00,6.6383814811706542968750000e-01,-1.8235868215560913085937500e-01,1.4867815189063549041748047e-02,-1.0587815195322036743164062e-02,-1.7677427828311920166015625e-01,-3.6816591024398803710937500e-01},
	{7.3453855514526367187500000e-01,-1.0863482952117919921875000e-01,-1.2403665781021118164062500e+00,-3.6069815158843994140625000e+00,-1.0388760268688201904296875e-01,-4.0329751372337341308593750e-01,-1.1896681785583496093750000e-01,-2.6733949780464172363281250e-02,1.3195554912090301513671875e-01,9.2327175661921501159667969e-03,1.8717589378356933593750000e+00,-1.1297898292541503906250000e+00,-1.3836522102355957031250000e+00,2.4670624732971191406250000e-01,1.6781846061348915100097656e-02,-1.5450187921524047851562500e+00,8.6915129423141479492187500e-01,7.7925723791122436523437500e-01,3.0317859724164009094238281e-02,-1.7646891996264457702636719e-02,9.0269381180405616760253906e-03,2.2487756609916687011718750e-01,-1.7494292259216308593750000e+00,-3.0005753040313720703125000e-01,-3.3369272947311401367187500e-01,6.7067430354654788970947266e-03,4.5114043354988098144531250e-01,4.0076589584350585937500000e-01,-8.0132357776165008544921875e-02,4.1392865777015686035156250e-01,1.0198628902435302734375000e+00,-5.6514060497283935546875000e-01,-3.9429172873497009277343750e-01,1.0618159547448158264160156e-02,-9.0129403397440910339355469e-03,-8.9856296777725219726562500e-02,-3.7299138307571411132812500e-01},
	{1.0865589976310729980468750e-01,2.1151897311210632324218750e-01,-1.2147986888885498046875000e+00,-7.1815699338912963867187500e-01,1.8970821797847747802734375e-01,-4.4800421595573425292968750e-01,-1.8083572387695312500000000e-01,3.4845963120460510253906250e-01,3.5070586949586868286132812e-02,1.5996741130948066711425781e-02,5.0932955741882324218750000e-01,-9.3847972154617309570312500e-01,-3.0380771160125732421875000e+00,2.5237491726875305175781250e-01,9.2194932699203491210937500e-01,1.9838855266571044921875000e+00,-1.2565288543701171875000000e+00,3.0296114087104797363281250e-01,-8.3530597388744354248046875e-02,8.0526173114776611328125000e-02,1.5850069001317024230957031e-02,9.0026092529296875000000000e-01,1.5860629081726074218750000e-01,9.6322560310363769531250000e-01,1.2175617739558219909667969e-02,-7.7417001128196716308593750e-02,2.5646638870239257812500000e-01,6.3769966363906860351562500e-01,-2.2789894044399261474609375e-01,-2.3166255652904510498046875e-01,1.0073257684707641601562500e+00,1.5739033222198486328125000e+00,-6.6561721265316009521484375e-02,-1.7188476398587226867675781e-02,2.1139995660632848739624023e-03,-2.5249313563108444213867188e-02,5.8475285768508911132812500e-01},
	{-1.8549458980560302734375000e+00,-5.5819679051637649536132812e-02,1.3876518011093139648437500e+00,-1.0449738502502441406250000e+00,-1.0793969035148620605468750e-01,-6.4653351902961730957031250e-02,1.2347251921892166137695312e-01,-1.6902930736541748046875000e+00,-3.0394967645406723022460938e-02,-4.5526906847953796386718750e-02,1.0271080732345581054687500e+00,-1.2309507131576538085937500e+00,9.8015242815017700195312500e-01,-6.4356774091720581054687500e-02,5.4436206817626953125000000e-01,3.7447798252105712890625000e-01,-4.3719746172428131103515625e-02,-2.2810360789299011230468750e-01,1.5304372645914554595947266e-02,8.2109393551945686340332031e-03,1.4312888495624065399169922e-02,1.0659422874450683593750000e+00,-3.9031535387039184570312500e-01,1.1448961496353149414062500e+00,-1.9939650595188140869140625e-01,-8.0113999545574188232421875e-02,6.5542347729206085205078125e-02,3.2571232318878173828125000e-01,3.3409386873245239257812500e-01,-1.4550591707229614257812500e+00,1.6607115268707275390625000e+00,8.4112149477005004882812500e-01,-2.0376926660537719726562500e-01,5.9509919956326484680175781e-03,-1.5595164149999618530273438e-02,2.0896421372890472412109375e-01,-9.7783029079437255859375000e-01},
	{2.5947490334510803222656250e-01,-4.6290844678878784179687500e-02,1.6219143867492675781250000e+00,8.1182962656021118164062500e-01,4.3622672557830810546875000e-02,-7.6593083143234252929687500e-01,1.0064557194709777832031250e-01,-7.3674350976943969726562500e-01,-3.2550285104662179946899414e-03,1.8728474155068397521972656e-02,-2.1876399517059326171875000e+00,-3.8891717791557312011718750e-01,3.5715898871421813964843750e-01,1.4491565525531768798828125e-01,-1.2296763658523559570312500e+00,2.0289634168148040771484375e-01,-8.7137717008590698242187500e-01,2.8651859760284423828125000e+00,6.5095084719359874725341797e-03,-5.3832452744245529174804688e-02,-7.4057020246982574462890625e-03,2.6570686697959899902343750e-01,2.3131333291530609130859375e-02,-3.6793819069862365722656250e-01,-2.0921875536441802978515625e-01,-7.6674260199069976806640625e-02,5.7370821014046669006347656e-03,8.4093838930130004882812500e-01,-3.7346710450947284698486328e-03,-6.2830501794815063476562500e-01,-1.3629661798477172851562500e+00,2.1097944676876068115234375e-01,2.6492941379547119140625000e-01,-5.1965112797915935516357422e-03,-1.3989779166877269744873047e-02,1.9793815910816192626953125e-02,-8.8564002513885498046875000e-01},
	{3.4840197563171386718750000e+00,-1.7869895696640014648437500e-01,-8.5641217231750488281250000e-01,2.0906309783458709716796875e-01,-1.1248186975717544555664062e-01,1.0179034471511840820312500e+00,2.4655237793922424316406250e-01,-1.0851052999496459960937500e+00,-3.6381915211677551269531250e-02,3.2232236117124557495117188e-03,-2.3550856113433837890625000e+00,-4.5637816190719604492187500e-01,-1.6186919212341308593750000e+00,-3.9166424423456192016601562e-02,2.6312875747680664062500000e-01,8.5963612794876098632812500e-01,-1.6024807691574096679687500e+00,-6.2908941507339477539062500e-01,-3.9679054170846939086914062e-02,7.4258595705032348632812500e-02,-8.6076995357871055603027344e-03,3.3063879609107971191406250e-01,3.0650144815444946289062500e-01,-1.6007068157196044921875000e+00,-3.3986892551183700561523438e-02,1.5158490277826786041259766e-02,2.3264320567250251770019531e-02,-4.4649752974510192871093750e-01,1.1867618560791015625000000e-01,4.7070077061653137207031250e-01,-4.1413009166717529296875000e-01,-3.4906712174415588378906250e-01,3.8692321628332138061523438e-02,-9.7589232027530670166015625e-03,-1.0428063105791807174682617e-03,-1.0307147353887557983398438e-01,9.1163176298141479492187500e-01},
	{5.1230329275131225585937500e-01,1.1276565492153167724609375e-01,1.2066197395324707031250000e-01,1.2565454840660095214843750e-01,5.0100767984986305236816406e-03,1.0169215202331542968750000e+00,-2.0787326991558074951171875e-01,1.5420624613761901855468750e-01,-4.2267318814992904663085938e-02,-2.2240288555622100830078125e-02,-4.5930764079093933105468750e-01,-1.2454316616058349609375000e+00,-3.8005220890045166015625000e-01,8.3675615489482879638671875e-02,-2.7078142762184143066406250e-01,4.7087228298187255859375000e-01,2.3591182231903076171875000e+00,8.2826566696166992187500000e-01,2.0715488493442535400390625e-01,-2.5403338670730590820312500e-01,-2.4981448426842689514160156e-02,2.4013228416442871093750000e+00,2.0092271268367767333984375e-01,-2.0107527077198028564453125e-01,-8.0967700481414794921875000e-01,2.5750899314880371093750000e-01,1.2993924319744110107421875e-01,1.0278823375701904296875000e+00,3.2739037275314331054687500e-01,-1.7425008118152618408203125e-02,-1.9626536965370178222656250e-01,-7.0258563756942749023437500e-01,-6.1937104910612106323242188e-02,8.0857733264565467834472656e-03,1.1480647139251232147216797e-02,7.9779155552387237548828125e-02,4.1921323537826538085937500e-01},
	{-1.1536023616790771484375000e+00,1.4732347428798675537109375e-01,-9.9218636751174926757812500e-02,7.6614439487457275390625000e-01,-2.1392385661602020263671875e-01,-1.2241405248641967773437500e+00,-3.6561521887779235839843750e-01,-6.1373269557952880859375000e-01,-1.0737556964159011840820312e-01,-3.2536938786506652832031250e-02,1.1518132686614990234375000e-01,-1.2738937139511108398437500e-01,-1.5759930610656738281250000e+00,-2.7103332802653312683105469e-02,1.4403916597366333007812500e+00,-1.5063581466674804687500000e+00,-1.7876869440078735351562500e+00,-2.4446258544921875000000000e+00,9.8016194999217987060546875e-02,-6.2893792986869812011718750e-02,-7.4149915017187595367431641e-03,-7.6922458410263061523437500e-01,-2.3007911443710327148437500e-01,-3.5022199153900146484375000e-01,-8.7900298833847045898437500e-01,-3.6855381913483142852783203e-03,3.8812258839607238769531250e-01,-1.1689504384994506835937500e+00,-1.0684023797512054443359375e-01,-9.9992799758911132812500000e-01,-2.0460617542266845703125000e-01,9.1973280906677246093750000e-01,3.0930973589420318603515625e-02,1.2403689324855804443359375e-02,1.2141943909227848052978516e-02,1.0752356052398681640625000e-01,5.3318029642105102539062500e-01},
	{-7.1782395243644714355468750e-02,-1.6179934144020080566406250e-02,-1.3232898712158203125000000e-01,8.4929311275482177734375000e-01,-1.3509672880172729492187500e-01,1.4934196472167968750000000e+00,-1.6940070688724517822265625e-01,1.4956846237182617187500000e+00,1.3228681869804859161376953e-02,-3.3397428691387176513671875e-02,-4.0082129836082458496093750e-01,-2.2926719188690185546875000e+00,-4.5279443264007568359375000e-01,-6.8292538635432720184326172e-03,1.4152078330516815185546875e-01,2.7313873171806335449218750e-01,-4.2703738808631896972656250e-01,3.3737078309059143066406250e-01,1.6717366874217987060546875e-02,-8.4322102367877960205078125e-02,7.4488730169832706451416016e-03,-1.0096846818923950195312500e+00,1.5448454618453979492187500e+00,-2.0452458858489990234375000e+00,-1.5483410358428955078125000e+00,3.3269070088863372802734375e-02,2.1174409985542297363281250e-01,-9.8778951168060302734375000e-01,-3.0170708894729614257812500e-01,4.9738764762878417968750000e-01,6.4731240272521972656250000e-01,-1.2832630872726440429687500e+00,8.9707568287849426269531250e-02,-1.0180748067796230316162109e-02,1.0137470439076423645019531e-02,1.1854184418916702270507812e-01,7.5913256406784057617187500e-01},
	{3.4496831893920898437500000e-01,8.4769494831562042236328125e-02,7.6112523674964904785156250e-02,-3.8401715457439422607421875e-02,-2.1756263077259063720703125e-01,1.1874668598175048828125000e+00,2.5929102301597595214843750e-01,-1.2378491163253784179687500e+00,3.9091394282877445220947266e-03,-6.0580703429877758026123047e-03,8.2169800996780395507812500e-02,-9.1547715663909912109375000e-01,2.2143854200839996337890625e-01,2.8177526593208312988281250e-01,-1.7359733581542968750000000e+00,1.4970115423202514648437500e+00,-9.2581599950790405273437500e-01,-3.6227104067802429199218750e-01,-1.1442201584577560424804688e-01,-9.4404689967632293701171875e-02,-9.8487762734293937683105469e-03,-8.5807466506958007812500000e-01,-1.0497274994850158691406250e-01,-4.6334552764892578125000000e-01,7.7214485406875610351562500e-01,2.6865875720977783203125000e-01,8.6763635277748107910156250e-02,1.7132690548896789550781250e-01,4.6907815337181091308593750e-01,-9.3391031026840209960937500e-01,2.7486314773559570312500000e+00,1.4562276601791381835937500e+00,-5.4770853370428085327148438e-02,7.7132983133196830749511719e-03,6.1899633146822452545166016e-03,1.3364270329475402832031250e-01,-7.1627318859100341796875000e-02},
	{-2.5910797119140625000000000e+00,2.4903144687414169311523438e-02,5.7741427421569824218750000e-01,3.0242452621459960937500000e+00,-1.4983576536178588867187500e-01,8.6052972078323364257812500e-01,1.0224355757236480712890625e-01,1.0713955163955688476562500e+00,-6.5271377563476562500000000e-02,3.4998599439859390258789062e-03,5.8842349052429199218750000e-01,1.6847889125347137451171875e-01,2.5406613945960998535156250e-01,1.0757360607385635375976562e-01,-1.8964126110076904296875000e+00,-2.7523884177207946777343750e-01,4.4012853503227233886718750e-01,6.5908980369567871093750000e-01,-1.4246813952922821044921875e-01,-2.6004355400800704956054688e-02,-9.1474829241633415222167969e-03,9.3727022409439086914062500e-01,-6.6427081823348999023437500e-01,-3.0896297097206115722656250e-01,5.0799828767776489257812500e-01,1.0777293890714645385742188e-01,3.6886551976203918457031250e-01,2.5153973698616027832031250e-01,-2.3808436095714569091796875e-01,4.2870527505874633789062500e-01,2.1982784271240234375000000e+00,-1.1590638160705566406250000e+00,-8.2981176674365997314453125e-02,-1.5537734143435955047607422e-02,6.8267043679952621459960938e-03,-9.1171242296695709228515625e-02,-5.7852613925933837890625000e-01},
	{8.4769144654273986816406250e-02,-2.5555161759257316589355469e-02,3.5714110732078552246093750e-01,2.7758213877677917480468750e-01,1.0201027244329452514648438e-01,9.9527962505817413330078125e-02,2.7527449131011962890625000e+00,-3.6733248829841613769531250e-01,-3.8307367358356714248657227e-03,-7.3979882290586829185485840e-04,-1.4327111840248107910156250e-01,-1.0308445990085601806640625e-01,2.9097127914428710937500000e-01,1.2096890062093734741210938e-01,1.6168966293334960937500000e+00,1.7670575529336929321289062e-02,1.9796472787857055664062500e-01,-4.1788861155509948730468750e-01,1.3571612536907196044921875e-01,1.6972476616501808166503906e-02,4.1718063876032829284667969e-03,3.6985072493553161621093750e-01,-2.0554285049438476562500000e+00,-6.0203456878662109375000000e-01,1.2625728547573089599609375e-01,3.0443655326962471008300781e-02,-2.3540648818016052246093750e-01,-1.9563169777393341064453125e-01,3.4320483207702636718750000e+00,-2.4593159556388854980468750e-01,-4.4699761271476745605468750e-01,-1.6502943634986877441406250e-01,-3.2650203704833984375000000e+00,-1.7900406382977962493896484e-03,-5.3476952016353607177734375e-03,-6.2208153307437896728515625e-02,1.7715363204479217529296875e-01},
	{7.9421532154083251953125000e-01,-1.0277724824845790863037109e-02,2.3232827186584472656250000e+00,-6.7178976535797119140625000e-01,1.4424993097782135009765625e-01,1.9341063499450683593750000e-01,-1.9167007505893707275390625e-01,1.2272183597087860107421875e-01,-5.0264135003089904785156250e-02,7.0943124592304229736328125e-04,2.6892709732055664062500000e-01,6.2614642083644866943359375e-02,-1.1133311986923217773437500e+00,-2.4981737136840820312500000e-01,-1.5837780237197875976562500e+00,-6.2560039758682250976562500e-01,-8.8922142982482910156250000e-01,-1.7742651700973510742187500e+00,4.4789638370275497436523438e-02,2.6074811816215515136718750e-02,9.9912369623780250549316406e-03,-6.0534930229187011718750000e-01,1.7060549259185791015625000e+00,4.0261352062225341796875000e-01,9.8613977432250976562500000e-01,1.1609174311161041259765625e-02,3.4199008345603942871093750e-01,-6.8443171679973602294921875e-02,-1.7227280139923095703125000e-01,1.4342571794986724853515625e-01,1.0595904588699340820312500e+00,-5.2738612890243530273437500e-01,-4.1761574149131774902343750e-01,-4.1277203708887100219726562e-03,-2.0804027095437049865722656e-02,-6.2753856182098388671875000e-03,-2.8460760116577148437500000e+00},
	{-1.5113666057586669921875000e+00,-2.6769548654556274414062500e-01,1.5919629335403442382812500e+00,2.9155978560447692871093750e-01,-1.9227272272109985351562500e-01,7.3811560869216918945312500e-01,8.0210603773593902587890625e-02,1.1032027006149291992187500e+00,6.8275637924671173095703125e-02,2.4195596575736999511718750e-02,1.7424349784851074218750000e+00,-4.1586071252822875976562500e-01,-4.2348700761795043945312500e-01,6.3553243875503540039062500e-02,5.5754333734512329101562500e-01,1.1251919269561767578125000e+00,2.0564422607421875000000000e+00,1.6486758366227149963378906e-02,1.2028540670871734619140625e-01,6.5134577453136444091796875e-02,1.2922971509397029876708984e-02,1.7732720375061035156250000e+00,3.4371692687273025512695312e-02,-4.9060341715812683105468750e-01,4.6714106202125549316406250e-01,6.6372103989124298095703125e-02,1.4614465236663818359375000e+00,4.9018248915672302246093750e-01,4.4584080576896667480468750e-01,2.6365084648132324218750000e+00,1.1770641803741455078125000e-01,5.5988717079162597656250000e-01,-2.8037866950035095214843750e-01,-1.4611384831368923187255859e-02,1.7364262603223323822021484e-03,-1.3749426603317260742187500e-01,-1.6852270364761352539062500e+00},
	{-1.6056689023971557617187500e+00,2.6158543303608894348144531e-02,7.8309112787246704101562500e-01,2.7366372942924499511718750e-01,1.4583161473274230957031250e-01,-4.3034264445304870605468750e-01,-1.7599938809871673583984375e-01,2.7417542934417724609375000e+00,1.2502323091030120849609375e-01,2.4300344288349151611328125e-02,-1.8934947252273559570312500e+00,3.9787933230400085449218750e-01,-7.5681008398532867431640625e-02,4.0353108197450637817382812e-02,2.0460158586502075195312500e-02,-3.5572758316993713378906250e-01,3.7327244877815246582031250e-01,-1.9768511056900024414062500e+00,-1.1303924024105072021484375e-01,1.3399093411862850189208984e-02,5.9983315877616405487060547e-03,1.5074422955513000488281250e-01,-2.2449682652950286865234375e-01,7.4395053088665008544921875e-02,6.0805672407150268554687500e-01,1.8006555736064910888671875e-01,-3.1342944502830505371093750e-01,1.2510028481483459472656250e-01,-2.8945964574813842773437500e-01,1.0661220550537109375000000e-01,-6.7169696092605590820312500e-01,-1.5480953454971313476562500e+00,1.6950781643390655517578125e-01,1.4828048646450042724609375e-02,-5.4087177850306034088134766e-03,-1.6315382719039916992187500e-01,-1.5979120731353759765625000e+00},
	{-5.9816193580627441406250000e-01,-9.1711133718490600585937500e-02,-3.0255815386772155761718750e-01,-1.1179739236831665039062500e+00,2.3032952100038528442382812e-02,1.1842658370733261108398438e-01,-5.5293194949626922607421875e-02,-1.2956366539001464843750000e+00,1.4426058158278465270996094e-02,-3.0319744255393743515014648e-03,3.4407547116279602050781250e-01,-7.8674954175949096679687500e-01,9.0443581342697143554687500e-01,1.6223521530628204345703125e-01,-5.7543601840734481811523438e-02,9.2403244972229003906250000e-01,1.1148567311465740203857422e-02,-1.8101068735122680664062500e+00,-1.6494251787662506103515625e-02,5.6831438094377517700195312e-02,-6.5450728870928287506103516e-03,-1.0000583529472351074218750e-01,3.6091166734695434570312500e-01,-1.3023685216903686523437500e+00,5.5926227569580078125000000e-01,3.2372362911701202392578125e-02,-2.0879437923431396484375000e+00,-1.1064454317092895507812500e+00,-4.1205602884292602539062500e-01,3.3997619152069091796875000e-01,1.2501005828380584716796875e-01,6.3281184434890747070312500e-01,1.3188649415969848632812500e+00,9.7115896642208099365234375e-03,-5.5943164043128490447998047e-03,-1.3623821735382080078125000e-01,1.1068276166915893554687500e+00},
	{2.3505103588104248046875000e+00,1.9927253946661949157714844e-02,1.5707333385944366455078125e-01,4.2162779718637466430664062e-02,2.5975126028060913085937500e-01,1.8702841997146606445312500e+00,-2.4890196323394775390625000e-01,-7.8007102012634277343750000e-01,1.6925463452935218811035156e-02,2.7303883805871009826660156e-02,-6.6275435686111450195312500e-01,5.7444238662719726562500000e-01,-6.0311442613601684570312500e-01,2.7918694540858268737792969e-02,-2.6480740308761596679687500e-01,6.6042512655258178710937500e-02,-3.0444866418838500976562500e-01,-2.5563883781433105468750000e+00,1.4437626302242279052734375e-01,2.4232000112533569335937500e-02,-1.9780309870839118957519531e-02,1.1289862394332885742187500e+00,-9.6760526299476623535156250e-02,1.0481737852096557617187500e+00,2.9963335394859313964843750e-01,7.3126345872879028320312500e-02,-1.5611724555492401123046875e-01,5.4968774318695068359375000e-01,-8.8580630719661712646484375e-02,-7.8141045570373535156250000e-01,7.2230719029903411865234375e-02,6.0311812162399291992187500e-01,-1.2760536372661590576171875e-01,1.2352870777249336242675781e-02,-1.6229355707764625549316406e-02,2.9914629459381103515625000e-01,-4.2254006862640380859375000e-01},
	{-3.3877126872539520263671875e-02,-4.5692466199398040771484375e-02,-8.1773489713668823242187500e-01,2.9179272055625915527343750e-01,6.4102284610271453857421875e-02,1.5796108245849609375000000e+00,1.0846782475709915161132812e-01,2.2171218395233154296875000e+00,9.2685192823410034179687500e-02,2.9183352366089820861816406e-02,-1.8327257633209228515625000e+00,-1.2198092937469482421875000e+00,-1.9631402492523193359375000e+00,-3.5490941256284713745117188e-02,2.6283165812492370605468750e-01,1.4245628118515014648437500e+00,-1.4824534654617309570312500e+00,-9.9450337886810302734375000e-01,-5.6307010352611541748046875e-02,1.7081993818283081054687500e-01,-3.2042027451097965240478516e-03,-1.2462979555130004882812500e+00,-8.5941445827484130859375000e-01,8.2289850711822509765625000e-01,-4.2317786812782287597656250e-01,6.3640326261520385742187500e-02,6.7524991929531097412109375e-02,8.6881589889526367187500000e-01,-2.5830730795860290527343750e-01,-1.5730332136154174804687500e+00,-9.7400057315826416015625000e-01,1.7387924194335937500000000e+00,1.6370014846324920654296875e-01,1.1241516098380088806152344e-02,-3.2485272735357284545898438e-02,-1.0832476615905761718750000e-01,1.5448407828807830810546875e-01},
	{-9.2848622798919677734375000e-01,1.3579023070633411407470703e-02,-5.5202490091323852539062500e-01,9.9292717874050140380859375e-02,2.5535585358738899230957031e-02,-1.1069271564483642578125000e+00,7.8807123005390167236328125e-02,-2.9520997405052185058593750e-01,4.0494441986083984375000000e-02,-2.0357402041554450988769531e-02,2.1113285422325134277343750e-01,1.3306212425231933593750000e-01,6.0659253597259521484375000e-01,-1.5952588617801666259765625e-01,-4.2915579676628112792968750e-01,-9.0545630455017089843750000e-01,-2.7078688144683837890625000e+00,3.0456035137176513671875000e+00,-1.6048289835453033447265625e-02,3.8747094571590423583984375e-02,7.5389295816421508789062500e-03,1.4287037849426269531250000e+00,1.0720736533403396606445312e-01,1.2320955991744995117187500e+00,5.4891765117645263671875000e-01,5.8967381715774536132812500e-02,7.0266950130462646484375000e-01,7.2699862718582153320312500e-01,6.6380620002746582031250000e-02,7.1605300903320312500000000e-01,-1.5676026344299316406250000e+00,-1.7231056690216064453125000e+00,6.7360443063080310821533203e-03,8.7632378563284873962402344e-03,-1.0185295250266790390014648e-03,1.1568295955657958984375000e-01,-2.9264074563980102539062500e-01},
	{1.3303083181381225585937500e+00,3.9265353232622146606445312e-02,6.0592490434646606445312500e-01,1.5884175896644592285156250e-01,1.7474366724491119384765625e-01,3.2800817489624023437500000e-01,4.5577776432037353515625000e-01,8.5995417833328247070312500e-01,3.4450422972440719604492188e-02,-2.4007057771086692810058594e-02,-8.4459680318832397460937500e-01,-1.1076411604881286621093750e-01,9.5329988002777099609375000e-01,8.9134126901626586914062500e-02,-5.9327017515897750854492188e-02,-9.2100954055786132812500000e-01,3.8814561367034912109375000e+00,6.2617814540863037109375000e-01,3.2909203320741653442382812e-02,-3.8886657357215881347656250e-01,2.6816895231604576110839844e-02,1.1825886964797973632812500e+00,-2.6550340652465820312500000e-01,7.7296751737594604492187500e-01,-1.0465466976165771484375000e+00,-4.6797066926956176757812500e-02,7.6829063892364501953125000e-01,4.8929902911186218261718750e-01,1.0343822240829467773437500e+00,-2.2637803852558135986328125e-01,1.9329108297824859619140625e-02,6.2841922044754028320312500e-01,7.0917889475822448730468750e-02,2.0770512521266937255859375e-02,1.2571872211992740631103516e-02,-2.1331006661057472229003906e-02,2.7889531850814819335937500e-01},
	{-1.4262320995330810546875000e+00,1.0292956605553627014160156e-02,-1.0151376724243164062500000e+00,2.4116447195410728454589844e-02,6.5867587924003601074218750e-02,-1.8058320879936218261718750e-01,3.1361621618270874023437500e-01,2.0837492942810058593750000e+00,1.8800772726535797119140625e-02,4.0689506568014621734619141e-03,2.1948657929897308349609375e-01,2.2583420276641845703125000e+00,2.3315894603729248046875000e+00,2.2345018386840820312500000e-01,4.7711428999900817871093750e-01,1.1013567447662353515625000e+00,-6.9950103759765625000000000e-01,-9.4832170009613037109375000e-01,-1.5008808986749500036239624e-05,-6.0824617743492126464843750e-02,9.6928252605721354484558105e-04,4.3980729579925537109375000e-01,-7.3702126741409301757812500e-01,-1.9685031175613403320312500e+00,1.7551606893539428710937500e-01,7.4852250516414642333984375e-02,1.1960530281066894531250000e-01,3.8954800367355346679687500e-01,1.3559387624263763427734375e-01,1.5189422369003295898437500e+00,-9.6660274267196655273437500e-01,-1.6940884590148925781250000e+00,-3.3964681625366210937500000e-01,-1.5703268582001328468322754e-03,-1.6769876703619956970214844e-02,-1.5087151527404785156250000e-01,-2.5288131833076477050781250e-01},
	{-4.0804255008697509765625000e-01,-1.7091829329729080200195312e-02,-3.9908629655838012695312500e-01,-9.0639255940914154052734375e-02,-9.5953673124313354492187500e-02,2.0301939547061920166015625e-01,3.3005313873291015625000000e+00,5.5488103628158569335937500e-01,-5.4677892476320266723632812e-03,-5.6538907811045646667480469e-03,-1.3819819688796997070312500e-01,2.3938262462615966796875000e-01,-1.3449193537235260009765625e-01,8.1531563773751258850097656e-03,-2.8040394186973571777343750e-01,-2.3690332472324371337890625e-01,-3.1388670206069946289062500e-01,3.2608410716056823730468750e-01,-4.3148569762706756591796875e-02,-1.4266366139054298400878906e-02,-6.3372482545673847198486328e-03,-8.1680797040462493896484375e-02,-1.7048262357711791992187500e+00,6.0608464479446411132812500e-01,2.1763956546783447265625000e-01,-1.1708689481019973754882812e-01,8.5610055923461914062500000e-01,-7.8734988346695899963378906e-03,2.7721993923187255859375000e+00,4.8727813363075256347656250e-01,5.3046518564224243164062500e-01,2.3868441581726074218750000e-02,1.0018164291977882385253906e-02,1.3564241817221045494079590e-03,-3.6916404496878385543823242e-04,1.3298851251602172851562500e-01,-1.5189771354198455810546875e-01},
	{-2.8151395916938781738281250e-01,-9.3019001185894012451171875e-02,2.1727122366428375244140625e-02,5.4707479476928710937500000e-01,-1.4090926945209503173828125e-01,3.7148663401603698730468750e-01,-1.5243260562419891357421875e-01,-1.2805291414260864257812500e+00,5.0465807318687438964843750e-02,6.9446405395865440368652344e-03,-1.7481822967529296875000000e+00,1.5536574125289916992187500e+00,1.2285368442535400390625000e+00,1.3714063679799437522888184e-03,-1.7251962423324584960937500e-01,1.7935137748718261718750000e+00,-1.8699405193328857421875000e+00,1.4158145189285278320312500e+00,1.7962111160159111022949219e-02,-5.4273992776870727539062500e-02,-7.5327358208596706390380859e-03,-1.1367827653884887695312500e+00,8.0679357051849365234375000e-01,-3.1203348636627197265625000e+00,-1.3066112995147705078125000e+00,2.8452442958950996398925781e-02,4.2034345865249633789062500e-01,7.5873166322708129882812500e-01,1.3956187665462493896484375e-01,-4.9075044691562652587890625e-02,1.9899514913558959960937500e+00,-4.0768793225288391113281250e-01,-2.3591348528861999511718750e-01,1.0056935250759124755859375e-02,1.1342795332893729209899902e-03,8.5670284926891326904296875e-02,6.8402075767517089843750000e-01},
	{-7.9104620218276977539062500e-01,1.4624367654323577880859375e-01,9.7372686862945556640625000e-01,5.8979493379592895507812500e-01,-4.5768721029162406921386719e-03,-1.3222768902778625488281250e-02,3.4130209684371948242187500e-01,9.2006653547286987304687500e-01,4.0781620889902114868164062e-02,-5.0656508654356002807617188e-02,-9.6132898330688476562500000e-01,1.4241595566272735595703125e-01,-6.5161919593811035156250000e-01,-1.6862064599990844726562500e-01,4.2318201065063476562500000e-01,-2.1442247927188873291015625e-01,2.7561960220336914062500000e+00,-8.9329624176025390625000000e-01,8.0631941556930541992187500e-02,-1.9170503318309783935546875e-01,1.3996056513860821723937988e-03,2.1149780750274658203125000e+00,3.0395534634590148925781250e-01,6.1911314725875854492187500e-01,1.2134853750467300415039062e-02,-1.3368393480777740478515625e-01,-7.2715330123901367187500000e-01,-2.8462117910385131835937500e-01,8.0458503961563110351562500e-01,-5.2761238813400268554687500e-01,-5.9801429510116577148437500e-01,4.7335445880889892578125000e-01,3.4876593947410583496093750e-01,-7.1675614453852176666259766e-03,3.5485729575157165527343750e-02,-5.9981297701597213745117188e-02,-1.0840657353401184082031250e-01},
	{-2.6850609779357910156250000e+00,1.4002893865108489990234375e-01,2.2008247673511505126953125e-01,-1.1235692501068115234375000e+00,2.6435073465108871459960938e-02,-4.9370980262756347656250000e-01,-2.0291194319725036621093750e-01,-1.0446124076843261718750000e+00,6.1195436865091323852539062e-03,-1.9960157573223114013671875e-02,-4.3480071425437927246093750e-01,9.1275328397750854492187500e-01,9.0298426151275634765625000e-01,1.0236172378063201904296875e-01,-4.1696459054946899414062500e-01,-1.5323776006698608398437500e+00,1.9993720948696136474609375e-01,-2.0593466758728027343750000e+00,7.4755012989044189453125000e-02,6.3676014542579650878906250e-02,-2.5536539033055305480957031e-03,-4.4489869475364685058593750e-01,-1.3127299956977367401123047e-02,4.8753336071968078613281250e-01,3.1370933055877685546875000e+00,4.7990757972002029418945312e-02,8.8302165269851684570312500e-01,4.6009093523025512695312500e-01,-2.8062939643859863281250000e-01,-1.8532093763351440429687500e+00,8.7548607587814331054687500e-01,-5.7755035161972045898437500e-01,-2.2063013911247253417968750e-01,-3.4622193779796361923217773e-03,6.9491323083639144897460938e-03,2.2958759218454360961914062e-02,3.0620938539505004882812500e-01},
	{3.7015652656555175781250000e-01,8.2143545150756835937500000e-02,-1.5307167768478393554687500e+00,6.4648997783660888671875000e-01,-7.1543529629707336425781250e-02,-4.0716159343719482421875000e-01,-1.4814539253711700439453125e-01,-1.6898849010467529296875000e+00,3.0462382361292839050292969e-02,-4.9055263400077819824218750e-02,8.5594505071640014648437500e-01,6.4700031280517578125000000e-01,2.0418221950531005859375000e+00,-1.0710476338863372802734375e-01,-7.0523190498352050781250000e-01,1.2578819692134857177734375e-01,-1.3154275417327880859375000e+00,2.3744814097881317138671875e-01,-2.8429061174392700195312500e-01,-1.7346907407045364379882812e-02,6.7493859678506851196289062e-03,1.8265125155448913574218750e-01,-9.8064678907394409179687500e-01,1.3022034429013729095458984e-02,-3.5895192623138427734375000e-01,-9.2811264097690582275390625e-02,2.5220850482583045959472656e-02,2.4378573894500732421875000e-01,-1.2575228512287139892578125e-01,-7.9808700084686279296875000e-01,1.2657923698425292968750000e+00,-8.9882040023803710937500000e-01,2.2073303163051605224609375e-01,4.6093072742223739624023438e-03,1.7584675922989845275878906e-02,-2.6160717010498046875000000e-01,1.1448028087615966796875000e+00},
	{-4.4001850485801696777343750e-01,-1.0419165343046188354492188e-01,-6.3543343544006347656250000e-01,4.7961750030517578125000000e+00,2.4947476387023925781250000e-01,-3.8397398591041564941406250e-01,-8.3917744457721710205078125e-02,1.0344520807266235351562500e+00,1.4300857670605182647705078e-02,-1.5613676048815250396728516e-02,4.8468211293220520019531250e-01,-4.9271953105926513671875000e-01,4.6015268564224243164062500e-01,-3.5368829965591430664062500e-02,-3.5106843709945678710937500e-01,3.6098802089691162109375000e-01,2.3437006399035453796386719e-02,-5.0271469354629516601562500e-01,-8.1117138266563415527343750e-02,-9.6426839008927345275878906e-03,8.3811990916728973388671875e-03,6.8144166469573974609375000e-01,3.4379884600639343261718750e-01,-1.7420712113380432128906250e-01,6.7027515172958374023437500e-01,-5.2484427578747272491455078e-03,-5.2356827259063720703125000e-01,-8.5421365499496459960937500e-01,-4.0007880330085754394531250e-01,-1.3934375047683715820312500e+00,1.5759176015853881835937500e+00,1.1977014541625976562500000e+00,1.2035793066024780273437500e-01,6.6562215797603130340576172e-03,2.1194466389715671539306641e-03,1.9373357295989990234375000e-02,-1.9373610615730285644531250e-01},
	{-2.5184488296508789062500000e+00,8.6317382752895355224609375e-02,-2.8464582562446594238281250e-01,-3.5108063369989395141601562e-02,3.5240128636360168457031250e-02,8.3018225431442260742187500e-01,-1.2340731918811798095703125e-01,-2.1678493022918701171875000e+00,-6.3835732638835906982421875e-02,1.2815121561288833618164062e-02,1.0557924509048461914062500e+00,-4.0600082278251647949218750e-01,3.9778336882591247558593750e-01,-1.9388680811971426010131836e-03,1.1179245710372924804687500e+00,-4.3697619438171386718750000e-01,1.5167458057403564453125000e+00,-7.3297345638275146484375000e-01,-5.7006452232599258422851562e-02,-1.8858702853322029113769531e-02,1.3544755056500434875488281e-03,-1.2734274864196777343750000e+00,-9.4185799360275268554687500e-01,-2.0019379444420337677001953e-03,2.0837289094924926757812500e-01,-1.9176249206066131591796875e-01,4.4502779841423034667968750e-01,8.5788863897323608398437500e-01,2.2458334267139434814453125e-01,1.6062604188919067382812500e+00,-5.0152826309204101562500000e-01,4.4621936976909637451171875e-02,-8.4521049261093139648437500e-01,-3.4985912498086690902709961e-04,-1.9142398377880454063415527e-03,4.0271561592817306518554688e-02,8.0943387746810913085937500e-01},
	{6.0457915067672729492187500e-02,7.6091825030744075775146484e-04,2.1642168983817100524902344e-02,2.0218972861766815185546875e-01,1.1308095417916774749755859e-03,8.5093364119529724121093750e-02,-3.4490439891815185546875000e+00,-2.1564731374382972717285156e-02,-1.4428602298721671104431152e-03,9.0119838714599609375000000e-03,-1.1593779176473617553710938e-01,2.4600592255592346191406250e-01,-3.3421370387077331542968750e-01,1.6194675862789154052734375e-01,-1.0340840369462966918945312e-01,3.8503962568938732147216797e-03,1.8520806729793548583984375e-01,-2.1764583885669708251953125e-02,-3.8053356111049652099609375e-02,-1.0967656970024108886718750e-02,3.7581066135317087173461914e-03,-1.5487251803278923034667969e-02,2.0030717849731445312500000e+00,-3.9957635104656219482421875e-02,-7.6811857521533966064453125e-02,4.9804635345935821533203125e-02,-2.9639174938201904296875000e+00,-2.3234325647354125976562500e-01,-2.5811443328857421875000000e+00,-1.4678821025881916284561157e-04,9.6904590725898742675781250e-02,-7.6667748391628265380859375e-02,-3.2544169425964355468750000e+00,5.6546712294220924377441406e-03,-1.4821216464042663574218750e-03,1.6017075628042221069335938e-02,7.6494388282299041748046875e-02},
	{4.4909414649009704589843750e-01,5.4147269576787948608398438e-02,2.1201936900615692138671875e-01,3.4973868727684020996093750e-01,-2.0488695800304412841796875e-01,-5.6920379400253295898437500e-02,5.7070833444595336914062500e-01,1.7389293015003204345703125e-01,1.0846929624676704406738281e-02,-5.2953767590224742889404297e-04,5.4656445980072021484375000e-01,-4.9081686139106750488281250e-01,-8.6814445257186889648437500e-01,-2.8053528070449829101562500e-01,-9.7727441787719726562500000e-01,-3.8668635487556457519531250e-01,-3.7044838070869445800781250e-01,5.5524002760648727416992188e-02,-3.6159169673919677734375000e-01,1.9351657829247415065765381e-04,3.7863592151552438735961914e-03,5.0142221152782440185546875e-02,3.8022082298994064331054688e-03,6.5018117427825927734375000e-01,4.3152391910552978515625000e-02,1.1461046338081359863281250e-01,-2.3251733779907226562500000e+00,1.0279449224472045898437500e+00,7.4171191453933715820312500e-01,3.7737861275672912597656250e-02,-1.7797021567821502685546875e-01,3.4850910305976867675781250e-01,3.0188357830047607421875000e+00,-1.1919930111616849899291992e-03,-1.3917529024183750152587891e-02,-7.7094845473766326904296875e-02,-2.1524155139923095703125000e-01},
	{-1.3910137116909027099609375e-01,-6.4440175890922546386718750e-02,2.4119760990142822265625000e+00,4.6393257379531860351562500e-01,-1.3805097341537475585937500e-01,-8.5926997661590576171875000e-01,-7.3017753660678863525390625e-02,1.6996839642524719238281250e-01,2.8420139104127883911132812e-02,-2.1585809066891670227050781e-02,1.8911235332489013671875000e+00,4.1845232248306274414062500e-01,-2.5935857295989990234375000e+00,-1.4275531470775604248046875e-01,-7.1611183881759643554687500e-01,-1.4510928392410278320312500e+00,4.0963506698608398437500000e-01,6.3853681087493896484375000e-01,-5.9732202440500259399414062e-02,9.3447364866733551025390625e-02,7.2982092387974262237548828e-03,-9.9861484766006469726562500e-01,-3.8803318142890930175781250e-01,-1.0316718369722366333007812e-01,1.1967688798904418945312500e+00,-2.1629948914051055908203125e-01,-7.3202180862426757812500000e-01,-6.7094475030899047851562500e-01,-4.6390998363494873046875000e-01,5.5093657970428466796875000e-01,-1.4712815284729003906250000e+00,9.6650826930999755859375000e-01,-1.3160167634487152099609375e-01,1.8086016178131103515625000e-02,-1.3198402710258960723876953e-02,1.4767361804842948913574219e-02,4.3174785375595092773437500e-01},
	{-1.1413130760192871093750000e+00,1.4521348290145397186279297e-02,7.6013571023941040039062500e-01,-7.8338664770126342773437500e-01,1.8259175121784210205078125e-01,-1.5371850728988647460937500e+00,-4.2566448450088500976562500e-02,-8.7830543518066406250000000e-02,-2.8733512386679649353027344e-02,5.7316641323268413543701172e-03,-1.5559132099151611328125000e+00,-9.4987213611602783203125000e-02,-1.5591225624084472656250000e+00,-2.0289336144924163818359375e-01,-4.6368035674095153808593750e-01,-5.6548416614532470703125000e-01,1.5976759195327758789062500e+00,-2.2133825719356536865234375e-01,-1.9606751203536987304687500e-01,8.1451721489429473876953125e-02,-2.1410692483186721801757812e-02,1.3330845534801483154296875e-01,1.7671665549278259277343750e-01,-5.6137311458587646484375000e-01,1.1645676195621490478515625e-01,4.3031596578657627105712891e-03,-4.4608812779188156127929688e-02,-3.3401995897293090820312500e-01,-2.7666684985160827636718750e-01,2.1448848247528076171875000e+00,-2.7919013500213623046875000e+00,-5.1333981752395629882812500e-01,-4.8044389113783836364746094e-03,2.0562764257192611694335938e-02,-2.8668595477938652038574219e-02,2.1160356700420379638671875e-02,1.5717769861221313476562500e+00},
	{-2.0448181033134460449218750e-01,-1.3538165949285030364990234e-02,1.5258663892745971679687500e+00,-9.5227235555648803710937500e-01,-2.5360801815986633300781250e-01,-7.9593002796173095703125000e-01,4.3791323900222778320312500e-02,-1.3958131074905395507812500e+00,-8.4935156628489494323730469e-03,6.9058137014508247375488281e-03,9.3897271156311035156250000e-01,-3.9487102627754211425781250e-01,1.3318217992782592773437500e+00,-1.9239336252212524414062500e-01,-1.1920603364706039428710938e-01,1.5584034919738769531250000e+00,1.6035277843475341796875000e+00,1.4521334171295166015625000e+00,9.3666851520538330078125000e-02,9.1809123754501342773437500e-02,-1.5001276507973670959472656e-02,2.2584981918334960937500000e+00,9.1198432445526123046875000e-01,6.2268155813217163085937500e-01,-7.8773774206638336181640625e-02,1.5073335170745849609375000e-01,-6.7813420295715332031250000e-01,-1.3903616666793823242187500e+00,-9.5209740102291107177734375e-02,-1.1275303363800048828125000e+00,-2.5036799907684326171875000e-01,5.0356042385101318359375000e-01,-1.2758384644985198974609375e-01,4.5180818997323513031005859e-03,3.0296624172478914260864258e-03,1.0185061395168304443359375e-01,6.0584302991628646850585938e-02},
	{5.4369218647480010986328125e-02,-8.9095784351229667663574219e-03,3.1809378415346145629882812e-02,-4.5394670218229293823242188e-02,1.3686308637261390686035156e-02,-1.2576475739479064941406250e-01,-5.4877429008483886718750000e+00,-1.5706709027290344238281250e-01,4.3692160397768020629882812e-04,-9.3973899492993950843811035e-04,1.6285027563571929931640625e-01,-1.4762823283672332763671875e-01,-4.8195002600550651550292969e-03,2.2257355973124504089355469e-02,-9.7752390429377555847167969e-03,1.1124125123023986816406250e-01,2.8763093054294586181640625e-02,1.8431399017572402954101562e-02,9.6638977527618408203125000e-02,8.9713726192712783813476562e-03,7.9462584108114242553710938e-03,2.3310804739594459533691406e-02,-2.1354308128356933593750000e+00,-5.7327922433614730834960938e-02,5.6721493601799011230468750e-02,-3.3529747277498245239257812e-02,1.1753182411193847656250000e+00,2.1796952188014984130859375e-01,1.8162121772766113281250000e+00,-5.9968009591102600097656250e-02,-1.1953914165496826171875000e-01,-8.5275545716285705566406250e-03,2.3956854343414306640625000e+00,-4.2938175611197948455810547e-03,-2.4675176246091723442077637e-04,-8.5669510066509246826171875e-02,-2.2453255951404571533203125e-02},
	{3.6007881164550781250000000e-01,-6.3420996069908142089843750e-02,-1.0528550148010253906250000e+00,-1.2841424942016601562500000e+00,1.4085744321346282958984375e-01,-1.3049633502960205078125000e+00,1.5453270077705383300781250e-01,2.9693646430969238281250000e+00,-6.7512780427932739257812500e-02,-1.2233432382345199584960938e-02,1.8433435261249542236328125e-01,6.7559695243835449218750000e-01,-3.7994825839996337890625000e-01,-1.9940504431724548339843750e-01,-1.8466230630874633789062500e+00,3.4182712435722351074218750e-01,1.7563524246215820312500000e+00,-1.4017461538314819335937500e+00,1.4276669919490814208984375e-01,8.1504456698894500732421875e-02,-3.6125590559095144271850586e-03,-8.9624744653701782226562500e-01,2.0249709486961364746093750e-01,-7.6809711754322052001953125e-02,1.6168546676635742187500000e-01,-1.4060831069946289062500000e-01,-4.7701072692871093750000000e-01,2.4388933181762695312500000e+00,1.1446081101894378662109375e-01,-4.6753588318824768066406250e-01,-3.8982793688774108886718750e-01,-5.3158456087112426757812500e-01,2.1306061744689941406250000e-01,1.1501219123601913452148438e-03,-1.6012746840715408325195312e-02,1.8430970609188079833984375e-01,-5.3059828281402587890625000e-01},
	{7.8794491291046142578125000e-01,1.4101496338844299316406250e-01,-2.8266212344169616699218750e-01,7.5026547908782958984375000e-01,-1.3037824630737304687500000e-01,-5.3519415855407714843750000e-01,-5.3209166973829269409179688e-02,-5.4318273067474365234375000e-01,4.7358628362417221069335938e-03,3.9615528658032417297363281e-03,-1.1817814111709594726562500e+00,-7.3889084160327911376953125e-02,2.0311447978019714355468750e-01,-1.2597957253456115722656250e-01,2.8530840873718261718750000e+00,1.4838927984237670898437500e+00,9.4603306055068969726562500e-01,1.8395185470581054687500000e+00,1.4332788996398448944091797e-02,-2.2477919235825538635253906e-02,-1.1437903158366680145263672e-02,-1.3204216957092285156250000e+00,9.9643725156784057617187500e-01,1.4864935874938964843750000e+00,1.5254812240600585937500000e+00,8.3935782313346862792968750e-02,2.3488259315490722656250000e-01,-2.4085266888141632080078125e-01,-3.6322563886642456054687500e-01,2.9987579584121704101562500e-01,1.4693210124969482421875000e+00,-1.3580390214920043945312500e+00,5.8475726842880249023437500e-01,9.3154907226562500000000000e-03,3.2757855951786041259765625e-03,4.8806190490722656250000000e-02,2.8625595569610595703125000e-01},
	{-1.6360622644424438476562500e+00,5.4376810789108276367187500e-02,-1.2323114871978759765625000e+00,-3.7614841014146804809570312e-02,2.0840449631214141845703125e-01,-1.7413905262947082519531250e-01,-1.4139416813850402832031250e-01,2.9072124958038330078125000e+00,-7.5646981596946716308593750e-02,-1.0740066878497600555419922e-02,1.5288664400577545166015625e-01,8.9268559217453002929687500e-01,1.4866025447845458984375000e+00,2.1216084063053131103515625e-01,-1.9053608179092407226562500e+00,-1.6495031118392944335937500e+00,8.5764068365097045898437500e-01,1.8314197063446044921875000e+00,9.6655189990997314453125000e-02,-2.6937393471598625183105469e-02,8.8637052103877067565917969e-03,3.6776065826416015625000000e-01,-1.5406699478626251220703125e-01,1.4395980834960937500000000e+00,-1.9738163948059082031250000e+00,-8.8613465428352355957031250e-02,3.8528057932853698730468750e-01,-1.1022586822509765625000000e+00,-4.2614447884261608123779297e-03,-8.8966444134712219238281250e-02,1.0091122388839721679687500e+00,-4.1300719976425170898437500e-01,-2.1099385619163513183593750e-01,-4.4979639351367950439453125e-03,-1.8165111541748046875000000e-02,-1.4236865937709808349609375e-01,1.7140051126480102539062500e+00},
	{1.4295279979705810546875000e+00,-1.8183918297290802001953125e-01,-3.5839283466339111328125000e-01,7.3067432641983032226562500e-01,-1.0761299729347229003906250e-01,1.8708150386810302734375000e+00,-2.7497637271881103515625000e-01,-2.8076162934303283691406250e-01,1.3760591857135295867919922e-02,1.4043306931853294372558594e-02,2.1913440227508544921875000e+00,1.3438816070556640625000000e+00,-1.0893422365188598632812500e+00,1.8817948875948786735534668e-03,-5.3620225191116333007812500e-01,-5.3970303386449813842773438e-02,-4.2645153403282165527343750e-01,-5.5573946237564086914062500e-01,-3.1372112035751342773437500e-01,-3.7655480206012725830078125e-02,1.2895147316157817840576172e-02,1.6421033143997192382812500e+00,-2.3381946086883544921875000e+00,1.7259678840637207031250000e+00,2.7013829350471496582031250e-01,1.5300861001014709472656250e-01,-6.8245589733123779296875000e-01,3.2137078046798706054687500e-01,-7.0734083652496337890625000e-01,-1.7640478610992431640625000e+00,-5.5484786629676818847656250e-02,5.7311564683914184570312500e-01,1.6191020607948303222656250e-01,1.2609686702489852905273438e-02,-1.7816305160522460937500000e-02,-1.7500380054116249084472656e-02,1.0145343542098999023437500e+00},
	{1.8425004482269287109375000e+00,-6.2335539609193801879882812e-02,1.7089450359344482421875000e+00,2.1364858746528625488281250e-01,-4.5666649937629699707031250e-02,1.3717832565307617187500000e+00,1.3615363836288452148437500e-01,-1.5559719800949096679687500e+00,1.2548122555017471313476562e-02,3.5815706360153853893280029e-04,-7.3800271749496459960937500e-01,-1.2383261919021606445312500e+00,1.3844527006149291992187500e+00,7.6599985361099243164062500e-02,1.3467177152633666992187500e+00,-8.4869408607482910156250000e-01,-2.1141412258148193359375000e+00,-7.3307025432586669921875000e-01,-1.3626700639724731445312500e-01,4.1536614298820495605468750e-02,-1.4084778376854956150054932e-04,3.9533439278602600097656250e-01,-7.7193871140480041503906250e-02,-2.1482632160186767578125000e+00,5.4697787761688232421875000e-01,-5.4446309804916381835937500e-03,7.1309780469164252281188965e-04,1.3818769156932830810546875e-01,1.1885457485914230346679688e-01,6.2406390905380249023437500e-01,5.1993321627378463745117188e-02,4.6209952235221862792968750e-01,2.9643556475639343261718750e-01,1.1790270917117595672607422e-02,-1.6687249764800071716308594e-02,-3.8394659757614135742187500e-02,9.4540178775787353515625000e-01},
	{-1.1542958021163940429687500e+00,-5.6507483124732971191406250e-02,-5.8474266529083251953125000e-01,-8.7348705530166625976562500e-01,1.2571519613265991210937500e-01,-1.4269592761993408203125000e+00,4.0967082977294921875000000e-01,-2.3070325851440429687500000e+00,-2.1750869229435920715332031e-02,1.5344786457717418670654297e-02,-3.9171561598777770996093750e-01,5.7375818490982055664062500e-01,-7.4226111173629760742187500e-01,4.4086698442697525024414062e-02,-5.1336336135864257812500000e-01,5.1605248451232910156250000e-01,4.3075617402791976928710938e-02,8.0253618955612182617187500e-01,-5.7244449853897094726562500e-02,-2.8165819123387336730957031e-02,1.5961317345499992370605469e-02,-7.5485743582248687744140625e-02,1.3410741090774536132812500e-01,-5.4988765716552734375000000e-01,-2.6299542188644409179687500e-01,-1.7638792097568511962890625e-01,-3.6068880558013916015625000e-01,1.0972112417221069335937500e+00,8.4233433008193969726562500e-01,-8.8378167152404785156250000e-01,-2.7354338169097900390625000e+00,1.2658624649047851562500000e+00,4.3721628189086914062500000e-01,8.4949070587754249572753906e-03,-2.2372350096702575683593750e-02,4.8845529556274414062500000e-02,-1.6761796474456787109375000e+00},
	{1.9793609380722045898437500e+00,-1.1470012366771697998046875e-01,2.6552747935056686401367188e-02,-4.2344981431961059570312500e-01,-1.5556591097265481948852539e-03,-1.9112168252468109130859375e-01,-2.0934462547302246093750000e-01,1.3719715178012847900390625e-01,1.2547104060649871826171875e-01,-5.0159613601863384246826172e-04,7.1993708610534667968750000e-01,2.2923488616943359375000000e+00,-1.3740566968917846679687500e+00,-6.2388908118009567260742188e-02,1.9002455472946166992187500e+00,-1.3506717681884765625000000e+00,8.7301224470138549804687500e-02,1.2196992635726928710937500e+00,2.9791668057441711425781250e-02,-5.1235915161669254302978516e-03,-2.2471246775239706039428711e-03,-1.0427267551422119140625000e+00,7.2137832641601562500000000e-01,-1.0555834323167800903320312e-01,-5.9497272968292236328125000e-01,4.7610722482204437255859375e-02,7.2641837596893310546875000e-01,9.9230068922042846679687500e-01,-3.3770319819450378417968750e-01,8.6850541830062866210937500e-01,3.4192230552434921264648438e-02,4.8122489452362060546875000e-01,-9.0947914868593215942382812e-03,7.2309104725718498229980469e-03,-8.9467996731400489807128906e-03,7.3917619884014129638671875e-02,4.1447553038597106933593750e-01},
	{-3.0255821347236633300781250e-01,2.5957632809877395629882812e-02,-3.3923618495464324951171875e-02,-1.6173875331878662109375000e-01,6.3450038433074951171875000e-02,-8.7535409256815910339355469e-03,5.1322025060653686523437500e-01,-9.7019918262958526611328125e-02,-3.1448964029550552368164062e-02,-6.6061522811651229858398438e-03,2.3410767316818237304687500e-01,3.1381636857986450195312500e-01,8.3884471654891967773437500e-01,4.1992451995611190795898438e-02,3.1722710132598876953125000e+00,2.1029384434223175048828125e-01,-5.4028844833374023437500000e-01,2.7172727510333061218261719e-02,-8.5847541689872741699218750e-02,-3.1789768487215042114257812e-02,4.6423813328146934509277344e-03,-5.5695258080959320068359375e-02,6.6401541233062744140625000e-01,-2.9755857586860656738281250e-01,-1.6619613766670227050781250e-01,-2.8537338599562644958496094e-02,-3.8601357936859130859375000e+00,-5.9874909929931163787841797e-03,9.1419863700866699218750000e-01,-1.9354028999805450439453125e-01,-2.8095075488090515136718750e-01,2.0613868255168199539184570e-03,2.8037035465240478515625000e+00,-7.4167745187878608703613281e-03,-6.8211387842893600463867188e-03,1.5036952495574951171875000e-01,-1.4397251605987548828125000e-01},
	{-2.3840665817260742187500000e-01,2.0141398534178733825683594e-02,-1.7410781383514404296875000e+00,1.2862022034823894500732422e-02,-2.0938772708177566528320312e-02,-4.3649142980575561523437500e-01,1.3498604297637939453125000e-01,-2.8435033559799194335937500e-01,-2.3601965978741645812988281e-02,2.2148629650473594665527344e-03,-1.5598187446594238281250000e+00,-1.3920056819915771484375000e+00,7.2674804925918579101562500e-01,1.0296706855297088623046875e-01,1.0421268939971923828125000e+00,-1.0288367271423339843750000e+00,1.3954541683197021484375000e+00,1.9610680639743804931640625e-01,-1.3637176156044006347656250e-01,2.4793060123920440673828125e-01,-4.6390830539166927337646484e-03,-2.8741157054901123046875000e-01,-2.6464436054229736328125000e+00,-6.2779092788696289062500000e-01,-7.6559501886367797851562500e-01,2.9104726854711771011352539e-03,5.3672111034393310546875000e-01,1.3503184914588928222656250e-01,3.8712907582521438598632812e-02,-3.8847228884696960449218750e-01,2.1799950599670410156250000e+00,5.0952170044183731079101562e-02,5.8378851413726806640625000e-01,-5.2374922670423984527587891e-03,-3.2873097807168960571289062e-02,-5.7594206184148788452148438e-02,-1.6451191902160644531250000e-01},
	{9.4373576343059539794921875e-02,2.8340473771095275878906250e-01,-2.3818783760070800781250000e+00,-6.7226350307464599609375000e-01,-1.2238866090774536132812500e-01,4.8470309376716613769531250e-01,-5.7381972670555114746093750e-02,-4.9030137062072753906250000e-01,4.7572750598192214965820312e-02,-5.7689966633915901184082031e-03,4.3843007087707519531250000e-01,5.7221269607543945312500000e-01,2.2051358222961425781250000e-01,7.3726497590541839599609375e-02,-1.9980886951088905334472656e-02,1.5749018192291259765625000e+00,1.0786335468292236328125000e+00,-2.8441329002380371093750000e+00,2.4667811393737792968750000e-01,-1.4854314737021923065185547e-02,1.4825291000306606292724609e-03,6.0358166694641113281250000e-01,2.2366417944431304931640625e-01,-1.0943772643804550170898438e-01,-5.6445025838911533355712891e-03,-2.5712290778756141662597656e-02,1.1645886898040771484375000e+00,-1.3217645883560180664062500e+00,3.7273880839347839355468750e-01,1.1435526609420776367187500e-01,-9.9613624811172485351562500e-01,1.0541642904281616210937500e+00,-2.3147040978074073791503906e-02,8.8801244273781776428222656e-03,2.7091220021247863769531250e-02,1.4463222585618495941162109e-02,6.9134730100631713867187500e-01},
	{-4.1054138541221618652343750e-01,-1.8069045245647430419921875e-01,2.6258265972137451171875000e+00,5.5280894041061401367187500e-01,2.3955337703227996826171875e-01,1.0931358337402343750000000e+00,5.7251136749982833862304688e-02,-6.6697049140930175781250000e-01,-8.5648052394390106201171875e-02,2.3967517539858818054199219e-02,1.7987560033798217773437500e+00,4.9530428647994995117187500e-01,4.5795130729675292968750000e-01,-2.2260756790637969970703125e-01,-1.2745617628097534179687500e+00,-2.8988394141197204589843750e-01,3.3651474118232727050781250e-01,1.2182024717330932617187500e+00,-3.2438002526760101318359375e-02,7.2399638593196868896484375e-02,-9.4974460080265998840332031e-03,-2.7931576967239379882812500e-01,-1.6291131973266601562500000e+00,-1.5385838747024536132812500e+00,6.1064463853836059570312500e-01,6.9099821150302886962890625e-02,7.6576060056686401367187500e-01,1.6363617777824401855468750e-01,-6.5874505043029785156250000e-01,-8.4058088064193725585937500e-01,2.1614354848861694335937500e-01,4.7062253952026367187500000e-01,-4.2716924101114273071289062e-02,-1.3744533993303775787353516e-02,-4.2645465582609176635742188e-03,-1.8001499772071838378906250e-01,5.3760010004043579101562500e-01},
	{-5.5079579353332519531250000e-01,9.4706252217292785644531250e-02,1.8072177171707153320312500e+00,-1.8288670480251312255859375e-01,-1.5425381064414978027343750e-01,3.3662655949592590332031250e-01,-5.5804241448640823364257812e-02,-2.2238682210445404052734375e-01,-2.2659013047814369201660156e-03,-2.6561753824353218078613281e-02,-3.2397374510765075683593750e-01,2.4843369424343109130859375e-01,9.9454067647457122802734375e-02,-3.4853849560022354125976562e-02,-8.2088895142078399658203125e-02,-5.3530663251876831054687500e-01,4.2945873737335205078125000e-01,2.4740736484527587890625000e+00,-2.3990267887711524963378906e-02,-5.0390757620334625244140625e-02,5.4168384522199630737304688e-03,-1.6544120311737060546875000e+00,-8.9219290018081665039062500e-01,1.6121828556060791015625000e+00,-5.0735598802566528320312500e-01,7.1253083646297454833984375e-02,-4.1064393520355224609375000e-01,-1.9743137359619140625000000e+00,6.5609109401702880859375000e-01,9.1633415222167968750000000e-01,-1.8839069604873657226562500e+00,-1.1083811521530151367187500e+00,3.8815015554428100585937500e-01,6.0971046332269906997680664e-04,2.0757826045155525207519531e-02,1.4606438577175140380859375e-01,-6.3031524419784545898437500e-01},
	{7.7907651662826538085937500e-02,-9.2606447637081146240234375e-02,-1.6132287979125976562500000e+00,9.2835688591003417968750000e-01,-6.6843457520008087158203125e-02,6.3407760858535766601562500e-01,-7.4676650762557983398437500e-01,-4.4988220930099487304687500e-01,-6.1795571818947792053222656e-03,3.9183169603347778320312500e-02,-8.8838988542556762695312500e-01,-7.3862874507904052734375000e-01,-3.5971668362617492675781250e-01,1.9302947819232940673828125e-01,9.8016488552093505859375000e-01,-5.1758629083633422851562500e-01,1.2093932181596755981445312e-01,-1.7749737203121185302734375e-01,-1.1408408731222152709960938e-01,2.2446066141128540039062500e-02,-6.9295130670070648193359375e-03,-1.5470330715179443359375000e+00,-1.1852889060974121093750000e+00,9.6776926517486572265625000e-01,-3.3255746960639953613281250e-01,-1.3193020224571228027343750e-01,-1.0851813107728958129882812e-01,5.8890283107757568359375000e-01,-7.7259677648544311523437500e-01,-7.6924353837966918945312500e-02,1.7466930150985717773437500e+00,-1.1115490198135375976562500e+00,-4.5667782425880432128906250e-01,1.7355909571051597595214844e-02,-1.1211856268346309661865234e-02,5.2435804158449172973632812e-02,1.4036123454570770263671875e-01},
	{1.5427162647247314453125000e+00,5.4246086627244949340820312e-02,9.7715812921524047851562500e-01,-3.0273428559303283691406250e-01,3.1520429253578186035156250e-01,1.0918308049440383911132812e-01,-3.3335971832275390625000000e-01,-2.7695696800947189331054688e-02,-5.7297527790069580078125000e-02,-1.6999337822198867797851562e-02,1.6332345008850097656250000e+00,-4.9608524888753890991210938e-02,-6.6747295856475830078125000e-01,1.0362268984317779541015625e-01,9.0917319059371948242187500e-01,4.2198610305786132812500000e-01,-1.5274330377578735351562500e+00,2.4650871753692626953125000e+00,1.5714630484580993652343750e-02,-3.5644862800836563110351562e-02,4.5631178654730319976806641e-03,1.2563230991363525390625000e+00,-8.6291337013244628906250000e-01,1.1348766088485717773437500e+00,1.1250939369201660156250000e+00,-1.1335778981447219848632812e-01,-1.5713487565517425537109375e-01,7.9131357371807098388671875e-02,-2.4142632260918617248535156e-02,1.3552607297897338867187500e+00,7.4732971191406250000000000e-01,1.8777096271514892578125000e-01,-1.3540533185005187988281250e-01,1.0559737682342529296875000e-02,1.6102222725749015808105469e-02,-3.1549654901027679443359375e-02,1.0719625949859619140625000e+00},
	{-1.4223804473876953125000000e+00,8.3479851484298706054687500e-02,-9.9632942676544189453125000e-01,5.6420892477035522460937500e-01,2.1541285514831542968750000e-01,8.9529204368591308593750000e-01,2.7022447902709245681762695e-03,-1.9559583663940429687500000e+00,-9.4563215970993041992187500e-03,-3.8249883800745010375976562e-02,-1.3837517797946929931640625e-01,-8.5271340608596801757812500e-01,-1.4586920738220214843750000e+00,1.1625184863805770874023438e-01,1.0783956050872802734375000e+00,2.2081942856311798095703125e-01,-1.0031503438949584960937500e-01,-8.1095731258392333984375000e-01,-6.9466285407543182373046875e-02,-8.0858767032623291015625000e-02,9.7034499049186706542968750e-03,-1.0520856380462646484375000e+00,1.1303781270980834960937500e+00,-4.7419840097427368164062500e-01,9.0552438050508499145507812e-03,-1.7317276448011398315429688e-02,-1.6181923151016235351562500e+00,-2.6841503381729125976562500e-01,-4.2228508740663528442382812e-02,2.5467914342880249023437500e-01,-7.4441736936569213867187500e-01,1.3852518796920776367187500e+00,1.0079748928546905517578125e-01,-1.8269777297973632812500000e-02,3.0150342732667922973632812e-02,-6.7157242447137832641601562e-03,-7.7154630422592163085937500e-01},
	{1.3931417465209960937500000e+00,5.6134432554244995117187500e-02,-7.8162169456481933593750000e-01,-2.9880112409591674804687500e-01,3.4244529902935028076171875e-02,9.8584495484828948974609375e-02,-2.8594756126403808593750000e-01,-8.5787147283554077148437500e-01,-6.1436444520950317382812500e-02,-1.8705526599660515785217285e-03,-7.6566296815872192382812500e-01,1.6852769851684570312500000e+00,7.1242696046829223632812500e-01,-1.2713265419006347656250000e-01,-1.2697409838438034057617188e-02,-7.7118414640426635742187500e-01,1.0881361961364746093750000e+00,5.5897757411003112792968750e-02,3.5822115838527679443359375e-02,2.6487234234809875488281250e-01,-2.1755151450634002685546875e-02,2.5058054924011230468750000e+00,2.5019752979278564453125000e+00,1.2559808492660522460937500e+00,3.0194122344255447387695312e-02,-1.9432522356510162353515625e-01,6.4428351819515228271484375e-02,-5.4926037788391113281250000e-01,-4.0359354019165039062500000e-01,1.9215965270996093750000000e-01,-6.0083627700805664062500000e-01,1.0107337236404418945312500e+00,-3.6344498395919799804687500e-01,3.4854360856115818023681641e-03,-2.6137057691812515258789062e-02,8.1883974373340606689453125e-02,-1.2470875978469848632812500e+00},
	{-1.5464890003204345703125000e+00,1.7500843852758407592773438e-02,4.7870799899101257324218750e-02,6.3563090562820434570312500e-01,-5.1327228546142578125000000e-02,-1.5875766277313232421875000e+00,1.8889620900154113769531250e-02,3.6283478140830993652343750e-01,3.7377893924713134765625000e-02,3.6969648208469152450561523e-03,-1.1586712598800659179687500e+00,9.9915540218353271484375000e-01,-1.2789064645767211914062500e+00,2.2830407321453094482421875e-01,1.3530975580215454101562500e+00,-1.1134245395660400390625000e+00,-2.1390037238597869873046875e-01,-1.1547201871871948242187500e+00,2.7915395796298980712890625e-02,2.1851640194654464721679688e-02,-1.0920184664428234100341797e-02,8.3323992788791656494140625e-02,9.2853164672851562500000000e-01,2.3659281432628631591796875e-01,3.9855948090553283691406250e-01,-1.0418426245450973510742188e-01,-5.1162290573120117187500000e-01,-2.4386038780212402343750000e+00,-3.9600414037704467773437500e-01,-1.5683853626251220703125000e+00,-7.2476997971534729003906250e-02,-5.5868047475814819335937500e-01,-3.6714404821395874023437500e-01,2.0417656749486923217773438e-02,-8.7863421067595481872558594e-03,6.6823668777942657470703125e-02,-9.8170793056488037109375000e-01}};
float weights_tr2_1_2[37]={-1.3357313871383666992187500e+00,-8.5895039141178131103515625e-02,-1.3048764467239379882812500e+00,-8.5607790946960449218750000e-01,8.9584305882453918457031250e-02,8.3517813682556152343750000e-01,-5.8054774999618530273437500e-01,2.0785219669342041015625000e+00,-7.5501069426536560058593750e-02,8.7214820086956024169921875e-03,-1.0157805681228637695312500e+00,3.7302307784557342529296875e-02,1.5520417690277099609375000e+00,1.8497347831726074218750000e-01,-2.6503863334655761718750000e+00,-3.1935896873474121093750000e+00,1.7017959356307983398437500e+00,2.4385523796081542968750000e+00,-1.0562338680028915405273438e-01,-4.4133879244327545166015625e-02,-2.0708069205284118652343750e-02,-4.8385283350944519042968750e-01,9.2477571964263916015625000e-01,1.7711781263351440429687500e+00,-1.6155730485916137695312500e+00,2.9330709949135780334472656e-02,1.9190208911895751953125000e+00,1.9449567794799804687500000e-01,-4.6876671910285949707031250e-01,-2.5478506088256835937500000e-01,3.2126080989837646484375000e-01,-5.3340876102447509765625000e-01,-7.8550118207931518554687500e-01,1.0195209644734859466552734e-02,1.0052599944174289703369141e-02,-1.0316450893878936767578125e-01,-4.6432879567146301269531250e-01};
