float weights_bn_0_1[9]={6.5896755456924438476562500e-01,8.7195080518722534179687500e-01,1.8741909265518188476562500e+00,1.0593162477016448974609375e-01,1.6056995391845703125000000e+00,-2.7989399433135986328125000e-01,1.4107636213302612304687500e+00,1.1177406311035156250000000e+00,1.7814998626708984375000000e+00};
float weights_bn_1_1[9]={9.6297279000282287597656250e-02,1.5288862586021423339843750e-01,4.4404509663581848144531250e-01,-2.4949753656983375549316406e-02,-7.1096573956310749053955078e-03,-8.7477838993072509765625000e-01,2.1661718189716339111328125e-01,4.0105974674224853515625000e-01,-2.1523730456829071044921875e-01};
float weights_bn_2_1[9]={-2.6071422100067138671875000e+00,1.0003759765625000000000000e+02,2.6819085693359375000000000e+02,1.2580344676971435546875000e+00,2.1088980138301849365234375e-01,9.0736627578735351562500000e-02,2.1505786478519439697265625e-01,3.0997201800346374511718750e-01,1.4203236997127532958984375e-01};
float weights_bn_3_1[9]={1.3747535937500000000000000e+05,8.4878250000000000000000000e+04,7.0114101562500000000000000e+04,7.4901100158691406250000000e+01,9.8799422383308410644531250e-02,1.2104494869709014892578125e-01,6.7447125911712646484375000e-02,2.1841004490852355957031250e-02,1.6995336115360260009765625e-01};
float weights_tr1_0_1[9][56]={
	{-6.7793883383274078369140625e-02,1.5018709003925323486328125e-01,-8.5888735949993133544921875e-02,-3.9226919412612915039062500e-02,8.8590222597122192382812500e-01,-2.9393944889307022094726562e-02,-2.5423413142561912536621094e-02,1.1149854958057403564453125e-01,-3.7693027406930923461914062e-02,2.3386818170547485351562500e-01,-2.8711283812299370765686035e-04,2.5540770962834358215332031e-02,-4.5590944588184356689453125e-02,-1.2816749513149261474609375e-01,-2.6172962784767150878906250e-01,8.0799274146556854248046875e-02,-8.3602565526962280273437500e-01,1.6803404688835144042968750e-01,-1.6610486432909965515136719e-02,2.1125188097357749938964844e-02,-1.0279079526662826538085938e-01,-1.2233897298574447631835938e-01,1.3739119470119476318359375e-01,-6.7754499614238739013671875e-02,2.7397403120994567871093750e-01,7.6564759016036987304687500e-02,-1.3824744224548339843750000e+00,-8.2299020141363143920898438e-03,1.0151210241019725799560547e-02,-6.0390889644622802734375000e-02,-5.9040643274784088134765625e-02,-1.9842943549156188964843750e-01,8.5510097444057464599609375e-02,-3.2991969585418701171875000e+00,-2.7228492498397827148437500e-01,5.4758395999670028686523438e-02,-5.9001401066780090332031250e-02,1.5844911336898803710937500e-02,-4.1772842407226562500000000e+00,3.0459906905889511108398438e-02,5.3435247391462326049804688e-02,-1.3956654071807861328125000e-01,-5.7814341038465499877929688e-02,-2.0669169723987579345703125e-01,-3.7661757320165634155273438e-02,-2.5329343974590301513671875e-02,6.3592034578323364257812500e-01,-2.5211897492408752441406250e-01,-1.1547440290451049804687500e-01,-4.2224403470754623413085938e-02,-2.4885280057787895202636719e-02,1.1187093704938888549804688e-01,1.1353291571140289306640625e-01,1.0243441909551620483398438e-01,2.8167384862899780273437500e-01,2.9643384739756584167480469e-02},
	{-4.1749544441699981689453125e-02,1.2968593835830688476562500e-01,-1.1735945940017700195312500e-01,-5.8385655283927917480468750e-02,1.3150734901428222656250000e+00,2.0941288676112890243530273e-04,3.1723476946353912353515625e-02,4.5141801238059997558593750e-02,-8.9851826429367065429687500e-02,7.7593892812728881835937500e-02,2.1046286448836326599121094e-02,-2.2324328124523162841796875e-01,8.3597868680953979492187500e-02,1.8908253312110900878906250e-01,-4.0051452815532684326171875e-02,2.3209650814533233642578125e-01,3.2533786296844482421875000e+00,1.7258811742067337036132812e-02,4.4928375631570816040039062e-02,1.2187860906124114990234375e-01,-3.6204245686531066894531250e-01,3.2111514359712600708007812e-02,4.6764548867940902709960938e-02,-9.6577964723110198974609375e-02,-3.4514337778091430664062500e-02,-1.2266324460506439208984375e-01,8.2798558473587036132812500e-01,-1.5722179412841796875000000e-01,8.5425548255443572998046875e-02,1.0141371190547943115234375e-01,2.2498904168605804443359375e-01,-1.5972439944744110107421875e-01,7.9155914485454559326171875e-02,-3.1219880580902099609375000e+00,-2.2553873062133789062500000e+00,1.2222720682621002197265625e-01,-1.8284460529685020446777344e-02,1.6023316979408264160156250e-01,1.4214071631431579589843750e-01,-9.6544526517391204833984375e-02,-5.0663489103317260742187500e-01,-5.0096414983272552490234375e-02,7.3492750525474548339843750e-02,-3.3583745360374450683593750e-02,2.7587093412876129150390625e-02,3.5844600200653076171875000e-01,-1.9426137208938598632812500e+00,8.1227622926235198974609375e-02,-1.6259768605232238769531250e-01,-2.7016352862119674682617188e-02,-1.4652335084974765777587891e-02,-3.2887056469917297363281250e-02,-3.1975544989109039306640625e-02,2.5998691562563180923461914e-03,-1.8834406137466430664062500e-01,9.7504779696464538574218750e-02},
	{6.8139839172363281250000000e-01,9.0274351835250854492187500e-01,-3.1380219459533691406250000e+00,-6.4430475234985351562500000e-01,-8.1730425357818603515625000e-01,-4.9200985580682754516601562e-02,1.0564889907836914062500000e+00,-4.7764617204666137695312500e-01,9.9363422393798828125000000e-01,-8.6965942382812500000000000e-01,4.5103180408477783203125000e-01,5.2450114488601684570312500e-01,2.4066367745399475097656250e-01,8.9547976851463317871093750e-02,-2.0929068326950073242187500e-01,1.5279306173324584960937500e+00,3.1441292166709899902343750e-01,-1.3454791307449340820312500e+00,-9.2012425884604454040527344e-03,1.6472855806350708007812500e+00,-1.1310250759124755859375000e+00,1.7340396344661712646484375e-01,1.6818436980247497558593750e-01,-1.6589733362197875976562500e+00,-6.6233146190643310546875000e-01,4.0255180001258850097656250e-01,-1.0195792466402053833007812e-01,3.5873326659202575683593750e-01,2.8973737359046936035156250e-01,1.5209375619888305664062500e+00,3.4874320030212402343750000e-01,-1.6244050264358520507812500e+00,-1.2381619215011596679687500e+00,-1.9556686282157897949218750e-01,-2.2415743768215179443359375e-01,7.5261020660400390625000000e-01,8.1269711256027221679687500e-01,-1.1037657260894775390625000e+00,1.9230674952268600463867188e-02,1.8219746351242065429687500e+00,-1.4372048377990722656250000e+00,-8.9185282588005065917968750e-02,-5.6880179792642593383789062e-02,-2.1437068283557891845703125e-01,2.7323856949806213378906250e-01,-3.8326290249824523925781250e-01,-6.3074445724487304687500000e-01,4.2769742012023925781250000e-01,1.4048789739608764648437500e+00,6.5902918577194213867187500e-01,-4.5238324999809265136718750e-01,2.4568164348602294921875000e-01,-4.2154335975646972656250000e-01,4.8258590698242187500000000e-01,4.2528495192527770996093750e-01,-2.4222326278686523437500000e-01},
	{-1.1060407012701034545898438e-01,-3.4515106678009033203125000e-01,1.8615525960922241210937500e-01,-2.3469497263431549072265625e-01,-6.6933321952819824218750000e-01,1.5735620260238647460937500e-01,2.3551735281944274902343750e-01,-6.3269269466400146484375000e-01,-6.7687444388866424560546875e-02,-1.3958564400672912597656250e-01,8.4351092576980590820312500e-02,-1.3140288591384887695312500e+00,1.1136348247528076171875000e+00,1.0799739509820938110351562e-01,-4.5537599921226501464843750e-01,-6.3175350427627563476562500e-01,2.1191187202930450439453125e-01,-5.3990387916564941406250000e-01,1.9392950832843780517578125e-01,9.1230291128158569335937500e-01,-2.7915793657302856445312500e-01,-5.6157076358795166015625000e-01,-4.9867555499076843261718750e-01,7.3105680942535400390625000e-01,-1.8934259414672851562500000e+00,-3.3927047252655029296875000e-01,-2.9536357149481773376464844e-02,4.7876724600791931152343750e-01,2.5321605205535888671875000e+00,-2.8315016627311706542968750e-01,6.6252154111862182617187500e-01,1.1996522545814514160156250e-01,-1.2685377895832061767578125e-01,-2.2127452492713928222656250e-01,4.4467896223068237304687500e-01,-3.1286653876304626464843750e-01,-2.1190515160560607910156250e-01,-7.1966564655303955078125000e-01,-9.3802763149142265319824219e-03,-2.1752564609050750732421875e-01,9.3682464212179183959960938e-03,6.1617780476808547973632812e-02,3.1329393386840820312500000e-01,1.9423884153366088867187500e-01,-1.5936160087585449218750000e-01,1.1862695217132568359375000e-02,-4.7453135251998901367187500e-01,1.0065792500972747802734375e-01,-6.1758923530578613281250000e-01,4.1870591044425964355468750e-01,2.9999125003814697265625000e-01,-7.9281556606292724609375000e-01,-1.6466204822063446044921875e-01,2.0155233144760131835937500e-01,7.5303626060485839843750000e-01,-3.1139793992042541503906250e-01},
	{-2.0660676956176757812500000e+00,-9.3747490644454956054687500e-01,-3.9157055318355560302734375e-02,-5.2632223814725875854492188e-02,3.4394669532775878906250000e-01,-1.2398256063461303710937500e+00,-1.5541186332702636718750000e+00,8.8058227300643920898437500e-01,4.0970701724290847778320312e-02,3.3657678961753845214843750e-01,-2.1557872295379638671875000e+00,-8.9110976457595825195312500e-01,6.1973571777343750000000000e-01,-7.5276815891265869140625000e-01,-1.4339070022106170654296875e-01,-4.2414617538452148437500000e-01,2.0433203876018524169921875e-01,1.1513067483901977539062500e+00,1.4804637432098388671875000e+00,-3.7810069322586059570312500e-01,-3.2371637225151062011718750e-01,-1.1622004508972167968750000e+00,-2.1385257244110107421875000e+00,-2.6837357878684997558593750e-01,1.1596462726593017578125000e+00,-8.3185458183288574218750000e-01,-3.4548331052064895629882812e-02,1.2180546522140502929687500e+00,-5.8775770664215087890625000e-01,7.8817164897918701171875000e-01,-3.8217094540596008300781250e-01,-1.0832725763320922851562500e+00,-7.2991079092025756835937500e-01,-5.4825957864522933959960938e-02,4.5252501964569091796875000e-01,-1.4546097517013549804687500e+00,-1.3949054479598999023437500e+00,6.6740192472934722900390625e-02,-6.4584128558635711669921875e-03,-2.6931166648864746093750000e-01,1.4038798213005065917968750e-01,-8.1597733497619628906250000e-01,6.7380112409591674804687500e-01,-3.2743640244007110595703125e-02,1.1133880615234375000000000e+00,5.6126725673675537109375000e-01,-8.3448000252246856689453125e-02,9.0962761640548706054687500e-01,7.1465075016021728515625000e-01,4.5539161562919616699218750e-01,5.8381956815719604492187500e-01,2.2886466979980468750000000e-01,-9.0816937386989593505859375e-02,1.2006795406341552734375000e+00,-4.1479441523551940917968750e-01,-3.4648582339286804199218750e-01},
	{6.9211441278457641601562500e-01,3.8466446101665496826171875e-02,-5.0506466627120971679687500e-01,-5.6208848953247070312500000e-01,-1.9705797433853149414062500e+00,-8.8666565716266632080078125e-03,1.8776794672012329101562500e+00,-1.3348586559295654296875000e+00,1.0495897531509399414062500e+00,3.2768693566322326660156250e-01,1.0214735269546508789062500e+00,5.6293416768312454223632812e-02,6.8399548530578613281250000e-01,3.9922589063644409179687500e-01,-9.4661712646484375000000000e-01,-1.0502964258193969726562500e+00,-5.2451539039611816406250000e-01,-1.1834324598312377929687500e+00,6.9431704282760620117187500e-01,4.4744497537612915039062500e-01,-7.6603847742080688476562500e-01,3.3006730675697326660156250e-01,-5.0145912170410156250000000e-01,5.5446439981460571289062500e-01,-4.8536819219589233398437500e-01,4.0540403127670288085937500e-01,-3.2793903350830078125000000e-01,1.2407892942428588867187500e+00,1.6067752614617347717285156e-02,1.5131523609161376953125000e+00,3.2993349432945251464843750e-01,3.6882388591766357421875000e-01,-4.5588839054107666015625000e-01,6.7883741855621337890625000e-01,-1.5960047245025634765625000e+00,-8.0198891460895538330078125e-02,9.9785715341567993164062500e-01,-5.1077818870544433593750000e-01,-6.2752008438110351562500000e-02,-2.2371110320091247558593750e-01,-5.7007048279047012329101562e-02,-1.3982948064804077148437500e+00,-7.4549794197082519531250000e-02,-3.6382156610488891601562500e-01,-4.3687176704406738281250000e-01,-9.3106025457382202148437500e-01,-2.1949210166931152343750000e+00,-3.1660285592079162597656250e-01,2.5971466302871704101562500e-01,4.9032038450241088867187500e-01,-7.9113847017288208007812500e-01,-1.3065205514430999755859375e-01,-8.9779853820800781250000000e-02,1.9049859046936035156250000e-01,-2.4337759613990783691406250e-01,-5.2135151624679565429687500e-01},
	{1.5060560703277587890625000e+00,-7.3778313398361206054687500e-01,-1.4865007996559143066406250e-01,-1.1025623083114624023437500e+00,-2.8784610331058502197265625e-02,7.8419303894042968750000000e-01,1.3344219326972961425781250e-01,1.3996605873107910156250000e+00,-5.7704365253448486328125000e-01,-1.1658347845077514648437500e+00,-6.8193036317825317382812500e-01,-1.0425519943237304687500000e+00,2.8697194531559944152832031e-02,1.9153562188148498535156250e-01,-3.2575535774230957031250000e-01,1.9150738418102264404296875e-01,-1.4884579181671142578125000e-01,-5.2711051702499389648437500e-01,-7.5075906515121459960937500e-01,-8.4778577089309692382812500e-01,-5.5875558406114578247070312e-02,3.1952217221260070800781250e-01,-8.1868046522140502929687500e-01,-1.2865246534347534179687500e+00,1.0057109594345092773437500e+00,8.8379991054534912109375000e-01,2.7310886979103088378906250e-01,-8.9297479391098022460937500e-01,7.9584431648254394531250000e-01,1.9023197889328002929687500e-01,8.2798469066619873046875000e-01,2.0317029953002929687500000e-01,7.3590606451034545898437500e-01,-1.1211010813713073730468750e-01,3.0627456307411193847656250e-01,4.0857550501823425292968750e-01,-1.4478096961975097656250000e+00,6.6549491882324218750000000e-01,-3.1901728361845016479492188e-02,-1.8991127014160156250000000e+00,-4.1376274824142456054687500e-01,1.1928323507308959960937500e+00,-7.0152908563613891601562500e-01,-1.1304196119308471679687500e+00,-1.7568523883819580078125000e+00,4.3915411829948425292968750e-01,7.6172798871994018554687500e-02,-1.1529381275177001953125000e+00,-5.2336227893829345703125000e-01,-1.6017174720764160156250000e+00,-1.2561408281326293945312500e+00,-9.7626388072967529296875000e-01,-1.2338160276412963867187500e+00,-5.7946020364761352539062500e-01,-5.5004841089248657226562500e-01,-1.5121822357177734375000000e+00},
	{6.9307684898376464843750000e-01,7.1850371360778808593750000e-01,3.6738917231559753417968750e-01,-8.9515686035156250000000000e-01,1.0775763988494873046875000e+00,-7.9753428697586059570312500e-01,-1.2494111061096191406250000e-01,-1.2554559111595153808593750e-01,-4.3830743432044982910156250e-01,-2.1191404759883880615234375e-01,1.9339049234986305236816406e-02,-3.7449237704277038574218750e-01,-1.6845762729644775390625000e+00,-5.0055805593729019165039062e-02,-4.6456372365355491638183594e-03,8.2997947931289672851562500e-01,-4.2450016736984252929687500e-01,-8.8717782497406005859375000e-01,-1.8071935176849365234375000e+00,-9.2230808734893798828125000e-01,-2.2606471180915832519531250e-01,-2.5880879163742065429687500e-01,1.0960559844970703125000000e+00,-4.8208713531494140625000000e-01,1.3751256465911865234375000e-01,-2.4572856426239013671875000e+00,-2.7788951992988586425781250e-02,1.3304107189178466796875000e+00,8.9794850349426269531250000e-01,-5.4360973834991455078125000e-01,-3.0011928081512451171875000e-01,-7.4636533856391906738281250e-02,7.9157096147537231445312500e-01,-2.2909127175807952880859375e-02,-6.8488049507141113281250000e-01,-6.0282778739929199218750000e-01,-5.3173595666885375976562500e-01,1.4550429477822035551071167e-04,4.4704727828502655029296875e-02,1.4528824090957641601562500e+00,1.3402398824691772460937500e+00,3.2901018857955932617187500e-02,9.1850805282592773437500000e-01,7.1456831693649291992187500e-01,9.2511951923370361328125000e-02,-1.6965745687484741210937500e+00,1.5935596227645874023437500e+00,-3.5911241173744201660156250e-01,6.7313778400421142578125000e-01,5.6444609165191650390625000e-01,3.8763925433158874511718750e-01,-6.1236625909805297851562500e-01,1.5978493690490722656250000e+00,-8.5780364274978637695312500e-01,-1.3485888242721557617187500e+00,1.1419950723648071289062500e+00},
	{-1.2983510494232177734375000e+00,-4.0880766510963439941406250e-01,1.4767937660217285156250000e+00,1.8298381567001342773437500e+00,7.1817487478256225585937500e-01,1.8331762552261352539062500e+00,4.6461377292871475219726562e-02,4.2819646000862121582031250e-01,-1.4052698612213134765625000e+00,-4.5327675342559814453125000e-01,-1.5843498986214399337768555e-03,6.6984200477600097656250000e-01,-1.2498742341995239257812500e+00,1.3238644599914550781250000e+00,1.5196994543075561523437500e+00,-3.1715285778045654296875000e-01,3.3084824681282043457031250e-02,-5.0267595052719116210937500e-01,4.5956170558929443359375000e-01,-9.3850404024124145507812500e-01,9.5254141092300415039062500e-01,-3.9705330133438110351562500e-01,8.4937089681625366210937500e-01,4.1257783770561218261718750e-01,1.4204612374305725097656250e-01,3.5234820097684860229492188e-02,-5.5502068996429443359375000e-01,-1.1565612554550170898437500e+00,2.9790717363357543945312500e-01,2.7240595221519470214843750e-01,-1.0685210227966308593750000e+00,1.0505248308181762695312500e+00,-3.1237900257110595703125000e-01,2.6746231317520141601562500e-01,1.6541890799999237060546875e-01,1.6533675193786621093750000e+00,1.0880986452102661132812500e+00,1.6799588203430175781250000e+00,-4.7431751154363155364990234e-03,-2.8755211830139160156250000e-01,6.2147643417119979858398438e-02,-9.6152919530868530273437500e-01,1.7369189262390136718750000e+00,-1.9421917200088500976562500e+00,5.0766639411449432373046875e-02,6.1493322253227233886718750e-02,2.3197595775127410888671875e-01,-3.7893107533454895019531250e-01,-8.7190753221511840820312500e-01,-3.9186324924230575561523438e-02,1.3524614572525024414062500e+00,3.5761889815330505371093750e-01,-3.9876052737236022949218750e-01,1.4578390121459960937500000e-01,-1.8934868276119232177734375e-01,1.4843665361404418945312500e+00}};
float weights_tr1_1_1[56]={1.7129243910312652587890625e-01,8.6340713500976562500000000e-01,-1.2747598886489868164062500e+00,1.4445296525955200195312500e+00,1.7164807319641113281250000e+00,-5.9691286087036132812500000e-01,-1.2056512832641601562500000e+00,1.6772272586822509765625000e+00,-6.7736536264419555664062500e-01,7.9325228929519653320312500e-02,-3.9337381720542907714843750e-01,-1.7490828409790992736816406e-02,3.1656828522682189941406250e-01,-1.3055239915847778320312500e+00,1.0992352962493896484375000e+00,1.5343091487884521484375000e+00,1.1389839649200439453125000e+00,1.3712044954299926757812500e+00,3.8325905799865722656250000e-02,-3.8110205531120300292968750e-01,5.7440318167209625244140625e-02,-5.5859655141830444335937500e-02,1.2369214296340942382812500e+00,-9.6467083692550659179687500e-01,-1.0539534091949462890625000e+00,-3.4942159056663513183593750e-01,7.2934794425964355468750000e-01,-1.5690073966979980468750000e+00,-9.0813338756561279296875000e-01,-1.9501057863235473632812500e+00,-1.2301872968673706054687500e+00,-2.0373904705047607421875000e+00,-2.8507524728775024414062500e-01,-7.6352483034133911132812500e-01,7.8425121307373046875000000e-01,1.4359949529170989990234375e-01,-4.5794117450714111328125000e-01,7.6510906219482421875000000e-01,3.8187104463577270507812500e-01,4.0975710749626159667968750e-01,-1.5702476501464843750000000e+00,2.8083822727203369140625000e+00,-4.8824153840541839599609375e-02,1.2829096615314483642578125e-01,3.0127840116620063781738281e-02,1.4132872819900512695312500e+00,1.8158732652664184570312500e+00,1.5558865070343017578125000e+00,6.5087068080902099609375000e-01,-8.5532653331756591796875000e-01,-7.0036309957504272460937500e-01,1.2837901115417480468750000e+00,-1.1418613195419311523437500e+00,-1.1635752022266387939453125e-01,8.8050800561904907226562500e-01,3.7599738687276840209960938e-02};
float weights_tr2_0_1[56][37]={
	{4.5227894783020019531250000e+00,2.8963139653205871582031250e-01,-7.3244279623031616210937500e-01,-1.0519554615020751953125000e+00,-3.6959478259086608886718750e-01,5.3148049116134643554687500e-01,-1.2933701276779174804687500e-01,-5.2316643297672271728515625e-02,8.6167311668395996093750000e-01,2.2427405416965484619140625e-01,1.1317762136459350585937500e+00,-7.1470332145690917968750000e-01,-1.4612269401550292968750000e+00,2.2876919247210025787353516e-03,3.2963463664054870605468750e-01,1.1786278486251831054687500e+00,-9.4099271297454833984375000e-01,-1.7876419425010681152343750e-01,-5.0381308794021606445312500e-01,4.1061025857925415039062500e-01,-6.1641428619623184204101562e-02,3.5241890698671340942382812e-02,3.7673506140708923339843750e-01,-2.3307070136070251464843750e-02,2.2907857596874237060546875e-01,-5.4562427103519439697265625e-02,-2.7508422732353210449218750e-01,-1.9170557260513305664062500e+00,-8.3178669214248657226562500e-01,5.9419625997543334960937500e-01,-7.6437145471572875976562500e-01,-2.0241689682006835937500000e+00,1.5718449652194976806640625e-01,4.2760163545608520507812500e-02,1.7089901957660913467407227e-03,7.5536072254180908203125000e-03,-1.2895771265029907226562500e+00},
	{1.5487108230590820312500000e+00,-9.5548433065414428710937500e-01,2.7727895975112915039062500e-01,3.3657181262969970703125000e-01,4.7539833188056945800781250e-01,1.4461350440979003906250000e+00,-1.5335425734519958496093750e-01,1.0883566141128540039062500e+00,-6.5849155187606811523437500e-01,4.3941488862037658691406250e-01,-9.5125716924667358398437500e-01,-2.1856632828712463378906250e-01,1.6035324335098266601562500e+00,-4.3381145223975181579589844e-03,-1.6579416394233703613281250e-01,4.9453315138816833496093750e-01,-1.5349890291690826416015625e-01,3.2973401546478271484375000e+00,7.3923444747924804687500000e-01,5.9751158952713012695312500e-01,8.8074064254760742187500000e-01,-1.2718317508697509765625000e+00,5.4828405380249023437500000e-01,-4.7076463699340820312500000e-01,-4.6585366129875183105468750e-01,-1.4823605120182037353515625e-01,2.2008819878101348876953125e-01,-3.3863985538482666015625000e-01,-3.0242314934730529785156250e-01,5.2059793472290039062500000e-01,2.6971277594566345214843750e-01,-4.5462310314178466796875000e-01,-4.4886276125907897949218750e-01,4.2786803096532821655273438e-02,2.4792547523975372314453125e-01,1.4203400351107120513916016e-03,5.3899538516998291015625000e-01},
	{2.8930976390838623046875000e+00,2.8138309717178344726562500e-02,3.5084683448076248168945312e-02,-5.0634965896606445312500000e+00,-5.9377187490463256835937500e-01,-1.9476804882287979125976562e-02,7.3969021439552307128906250e-02,1.1948362588882446289062500e+00,-3.4560310840606689453125000e-01,5.3515400737524032592773438e-02,-3.4245133399963378906250000e-02,2.5948494672775268554687500e-01,-6.4682406187057495117187500e-01,-4.0991776622831821441650391e-03,1.1680667400360107421875000e+00,-1.8705241382122039794921875e-01,1.9400448799133300781250000e+00,5.7535564899444580078125000e-01,2.4250240623950958251953125e-01,-1.2547080218791961669921875e-01,3.1513372063636779785156250e-01,-1.2203478813171386718750000e+00,2.5599214434623718261718750e-01,-7.3777335882186889648437500e-01,4.3560382723808288574218750e-01,2.8961974382400512695312500e-01,1.3122180104255676269531250e-01,-1.6468136310577392578125000e+00,4.0409669280052185058593750e-01,-1.5200509130954742431640625e-01,-1.6696761846542358398437500e+00,1.1519716978073120117187500e+00,-8.5099764168262481689453125e-02,2.6795910671353340148925781e-02,1.5547449886798858642578125e-01,3.7119504995644092559814453e-03,7.7430433034896850585937500e-01},
	{-5.3043007850646972656250000e-01,1.0772643983364105224609375e-01,1.2094590663909912109375000e+00,3.1343865394592285156250000e-01,-3.6775180697441101074218750e-01,-8.1183284521102905273437500e-01,1.0771054774522781372070312e-02,-1.1818592548370361328125000e+00,-7.3535156250000000000000000e-01,5.7699000462889671325683594e-03,-6.4315617084503173828125000e-01,1.4468209445476531982421875e-01,1.1295850276947021484375000e+00,-5.8010602369904518127441406e-03,3.6730471253395080566406250e-01,1.2321516275405883789062500e+00,-8.9886665344238281250000000e-01,-8.3297699689865112304687500e-01,4.9002537131309509277343750e-01,-2.5067433714866638183593750e-01,2.6902744174003601074218750e-01,-1.5201379358768463134765625e-01,-1.1845390796661376953125000e+00,9.5245641469955444335937500e-01,-7.3659980297088623046875000e-01,-1.3061438500881195068359375e-01,-1.6812655329704284667968750e-01,-1.5736776590347290039062500e+00,7.1852535009384155273437500e-02,3.0673940181732177734375000e+00,2.1764428615570068359375000e+00,5.3087121248245239257812500e-01,8.1750676035881042480468750e-03,7.7476821839809417724609375e-02,3.6522153019905090332031250e-01,-1.3493913225829601287841797e-02,-1.8410243988037109375000000e+00},
	{-6.7169308662414550781250000e-01,-4.6464812755584716796875000e-01,-8.7899088859558105468750000e-01,-1.9256582260131835937500000e+00,-9.7009129822254180908203125e-02,-3.0037289857864379882812500e-01,3.3557042479515075683593750e-02,2.1953003108501434326171875e-01,-2.5455731153488159179687500e-01,3.0582788586616516113281250e-01,-2.2179572284221649169921875e-01,-3.7283605337142944335937500e-01,1.1648863554000854492187500e+00,1.3106275582686066627502441e-03,-8.2999950647354125976562500e-01,-1.9323170185089111328125000e-01,-1.8868154287338256835937500e-01,6.4489513635635375976562500e-02,-8.3039119839668273925781250e-02,-2.1153442561626434326171875e-01,-9.8582126200199127197265625e-02,6.5933674573898315429687500e-02,6.9739961624145507812500000e-01,-3.6484882235527038574218750e-02,-3.4083539247512817382812500e-01,-1.4102939516305923461914062e-02,4.1197042465209960937500000e+00,3.2410621643066406250000000e-01,-4.5127624273300170898437500e-01,1.6026458144187927246093750e-01,-4.5877671800553798675537109e-03,1.7357015609741210937500000e-01,-3.0128097534179687500000000e+00,6.4020700752735137939453125e-02,-3.7739998102188110351562500e-01,-2.0415741018950939178466797e-03,-4.4701674580574035644531250e-01},
	{-3.7770321965217590332031250e-01,1.0218069553375244140625000e+00,-2.4265372753143310546875000e+00,9.2256963253021240234375000e-01,-3.6379333585500717163085938e-02,-4.9931132793426513671875000e-01,1.2111475318670272827148438e-01,-3.7863969802856445312500000e-01,4.9164113402366638183593750e-01,-2.7977120876312255859375000e-01,7.0580279827117919921875000e-01,1.1630110740661621093750000e+00,-1.6524310111999511718750000e+00,2.3191634099930524826049805e-03,9.9402880296111106872558594e-03,-3.6617369651794433593750000e+00,3.8353863358497619628906250e-01,-2.4449370801448822021484375e-02,-3.0309778451919555664062500e-01,2.2488899528980255126953125e-02,-2.3264428973197937011718750e-01,-8.5823971033096313476562500e-01,7.0237004756927490234375000e-01,-1.5234778821468353271484375e-01,-1.0901451110839843750000000e+00,5.4240327328443527221679688e-02,3.1029331684112548828125000e-01,-1.5924647450447082519531250e-01,2.0752830803394317626953125e-01,1.2705529928207397460937500e+00,-1.6023257970809936523437500e+00,7.2816216945648193359375000e-01,-1.5884639322757720947265625e-01,7.5642421841621398925781250e-02,-3.4985673427581787109375000e-01,2.2360780276358127593994141e-03,-6.8390494585037231445312500e-01},
	{9.4112139940261840820312500e-01,-2.9338476061820983886718750e-01,-1.1793837547302246093750000e+00,-3.5771732330322265625000000e+00,-4.4537174701690673828125000e-01,-1.1924470216035842895507812e-01,1.4245197176933288574218750e-01,-4.9155436456203460693359375e-02,3.0210405588150024414062500e-01,3.6351776123046875000000000e-01,2.1779210567474365234375000e+00,-1.2533794641494750976562500e+00,-1.6240682601928710937500000e+00,5.8793718926608562469482422e-04,8.6867302656173706054687500e-02,-1.4413353204727172851562500e+00,1.0167880058288574218750000e+00,1.0836842060089111328125000e+00,-7.7489078044891357421875000e-02,6.0243380069732666015625000e-01,5.9752434492111206054687500e-02,9.2192269861698150634765625e-02,-1.5476483106613159179687500e+00,-2.6539796590805053710937500e-01,-2.7893394231796264648437500e-01,-6.6187120974063873291015625e-02,3.7066254019737243652343750e-01,2.3501326143741607666015625e-01,-8.6171321570873260498046875e-02,4.9373582005500793457031250e-01,1.0672311782836914062500000e+00,-4.5594775676727294921875000e-01,-7.3391723632812500000000000e-01,6.9837540388107299804687500e-02,6.4561271667480468750000000e-01,6.4425407908856868743896484e-03,-6.0268163681030273437500000e-01},
	{2.6887187361717224121093750e-01,-1.0274882661178708076477051e-03,-1.3246867656707763671875000e+00,-3.1328043341636657714843750e-01,-1.1050308495759963989257812e-01,-5.9884071350097656250000000e-01,-1.7292290925979614257812500e-01,5.1217723637819290161132812e-02,1.1781584024429321289062500e+00,-9.9104210734367370605468750e-02,3.0229970812797546386718750e-01,-1.0599601268768310546875000e+00,-3.1322216987609863281250000e+00,-4.6126767992973327636718750e-03,7.3045814037322998046875000e-01,1.8325366973876953125000000e+00,-1.4253971576690673828125000e+00,2.2867783904075622558593750e-01,-2.0671723783016204833984375e-01,4.7182190418243408203125000e-01,3.1449860334396362304687500e-01,6.9086116552352905273437500e-01,1.3787379860877990722656250e-01,1.1031397581100463867187500e+00,1.8000397086143493652343750e-01,4.6471271663904190063476562e-02,3.9969220757484436035156250e-01,6.9029223918914794921875000e-01,5.3410373628139495849609375e-02,1.2176122516393661499023438e-01,1.2124356031417846679687500e+00,1.6308203935623168945312500e+00,-2.2927036881446838378906250e-01,5.0535015761852264404296875e-02,-5.0602155923843383789062500e-01,-3.0795566271990537643432617e-03,8.3448761701583862304687500e-01},
	{-2.0717754364013671875000000e+00,-7.3411995172500610351562500e-01,1.3709248304367065429687500e+00,-1.0139442682266235351562500e+00,-4.7504086047410964965820312e-02,5.5127471685409545898437500e-01,1.9594101607799530029296875e-01,-1.6450310945510864257812500e+00,-4.9130690097808837890625000e-01,1.3856582343578338623046875e-01,1.4087685346603393554687500e+00,-1.3057841062545776367187500e+00,9.2933577299118041992187500e-01,-6.3459211960434913635253906e-03,9.4494169950485229492187500e-01,1.1900948360562324523925781e-02,-7.4565118551254272460937500e-01,-2.5839266180992126464843750e-01,-7.0418375730514526367187500e-01,3.4379646182060241699218750e-01,-3.5795524716377258300781250e-02,1.2169684171676635742187500e+00,-3.3536475896835327148437500e-01,1.0689033269882202148437500e+00,-1.0782319307327270507812500e-01,-2.5903367996215820312500000e-01,-5.0825525075197219848632812e-02,5.8541858196258544921875000e-01,2.2142949700355529785156250e-01,-1.6321828365325927734375000e+00,1.8896378278732299804687500e+00,7.2982144355773925781250000e-01,-9.3934521079063415527343750e-02,6.9524914026260375976562500e-02,4.4270047545433044433593750e-01,-1.7957293894141912460327148e-03,-9.1471076011657714843750000e-01},
	{1.7882575094699859619140625e-01,7.0532077550888061523437500e-01,1.4517076015472412109375000e+00,5.9732735157012939453125000e-01,5.2432829141616821289062500e-01,-6.3806587457656860351562500e-01,5.6393414735794067382812500e-02,-4.6622949838638305664062500e-01,-9.4495016336441040039062500e-01,2.7128738164901733398437500e-01,-2.1136903762817382812500000e+00,-1.1606022715568542480468750e-01,3.9082787930965423583984375e-02,2.4676527827978134155273438e-03,-9.9984109401702880859375000e-01,4.1986025869846343994140625e-02,-5.5337476730346679687500000e-01,3.1128609180450439453125000e+00,4.6485587954521179199218750e-01,-2.3077684640884399414062500e-01,5.9986844658851623535156250e-02,1.3306190073490142822265625e-01,1.7913106083869934082031250e-01,-3.8778385519981384277343750e-01,-4.4207841157913208007812500e-01,-8.4658630192279815673828125e-02,1.0537327826023101806640625e-01,5.8355063199996948242187500e-01,3.7909623980522155761718750e-01,-8.8872224092483520507812500e-01,-1.3700206279754638671875000e+00,4.0296864509582519531250000e-01,2.1135936677455902099609375e-01,3.7652693688869476318359375e-02,5.6799679994583129882812500e-01,-5.7173324748873710632324219e-03,-8.6072582006454467773437500e-01},
	{3.6125969886779785156250000e+00,-3.7142774462699890136718750e-01,-1.0051438808441162109375000e+00,2.2153337299823760986328125e-01,-4.2492461204528808593750000e-01,1.1495542526245117187500000e+00,2.5096499919891357421875000e-01,-1.1955360174179077148437500e+00,-2.1448107063770294189453125e-01,2.0904406905174255371093750e-01,-2.3694927692413330078125000e+00,-2.5354087352752685546875000e-01,-1.6808910369873046875000000e+00,-4.2527583427727222442626953e-03,1.8333971500396728515625000e-01,6.4946562051773071289062500e-01,-1.6440376043319702148437500e+00,-6.8897986412048339843750000e-01,3.6430680751800537109375000e-01,-3.8746189326047897338867188e-02,-6.8519282341003417968750000e-01,5.9456259012222290039062500e-01,1.6266012191772460937500000e-01,-1.5980225801467895507812500e+00,7.1708550676703453063964844e-03,1.1085549741983413696289062e-01,1.2598513066768646240234375e-01,-6.1266982555389404296875000e-01,2.5716131925582885742187500e-01,4.0648031234741210937500000e-01,-3.3293375372886657714843750e-01,-5.4374551773071289062500000e-01,2.7464615181088447570800781e-02,5.6016050279140472412109375e-02,1.0920920222997665405273438e-01,6.4457033295184373855590820e-04,5.5040299892425537109375000e-01},
	{2.7678948640823364257812500e-01,-1.5949140489101409912109375e-01,3.6833891272544860839843750e-01,2.2769002616405487060546875e-01,-4.9217927455902099609375000e-01,1.3212461471557617187500000e+00,-2.9748320579528808593750000e-01,3.7233930826187133789062500e-01,4.0973332524299621582031250e-01,-8.5726016759872436523437500e-01,-8.7773621082305908203125000e-02,-8.8664883375167846679687500e-01,-5.7108038663864135742187500e-01,-5.7284608483314514160156250e-03,-5.4032068699598312377929688e-02,4.0598610043525695800781250e-01,2.0353703498840332031250000e+00,1.1065806150436401367187500e+00,2.3492208123207092285156250e-01,-9.9392151832580566406250000e-01,1.0599323511123657226562500e+00,2.1422488689422607421875000e+00,4.2590710520744323730468750e-01,-4.0238076448440551757812500e-01,-7.5713378190994262695312500e-01,-1.4727309346199035644531250e-01,4.0617538616061210632324219e-03,9.0212309360504150390625000e-01,2.0368903875350952148437500e-01,-3.7274897098541259765625000e-01,1.1410500109195709228515625e-01,-7.2869402170181274414062500e-01,4.7087681293487548828125000e-01,8.3309352397918701171875000e-02,-2.5202202796936035156250000e-01,-1.5074796974658966064453125e-03,6.0740369558334350585937500e-01},
	{-1.1292513608932495117187500e+00,3.2439380884170532226562500e-01,-3.0686867237091064453125000e-01,6.8892377614974975585937500e-01,-5.6936031579971313476562500e-01,-1.2028528451919555664062500e+00,-2.3954550921916961669921875e-01,-6.0983198881149291992187500e-01,-1.3438053429126739501953125e-01,-5.5960965156555175781250000e-01,1.7129291594028472900390625e-01,-5.7545151561498641967773438e-02,-1.4203213453292846679687500e+00,-1.4993657357990741729736328e-02,1.3064489364624023437500000e+00,-1.3880422115325927734375000e+00,-1.8308076858520507812500000e+00,-2.2363007068634033203125000e+00,7.4955594539642333984375000e-01,-1.1457216739654541015625000e+00,2.4728913605213165283203125e-01,-9.4483441114425659179687500e-01,-3.7776163220405578613281250e-01,-3.7410178780555725097656250e-01,-9.5576250553131103515625000e-01,-4.6152094006538391113281250e-01,6.7648971080780029296875000e-01,-1.2341862916946411132812500e+00,-1.4383701980113983154296875e-01,-8.4804147481918334960937500e-01,-8.4972813725471496582031250e-02,8.1312334537506103515625000e-01,-2.4234749376773834228515625e-01,5.3990505635738372802734375e-02,1.7755150794982910156250000e-01,3.0139633454382419586181641e-03,5.5955630540847778320312500e-01},
	{-1.8179190158843994140625000e-01,-4.1736608743667602539062500e-01,-3.5609519481658935546875000e-01,9.8242515325546264648437500e-01,2.6858091354370117187500000e-01,1.7074919939041137695312500e+00,-9.6658408641815185546875000e-02,1.2061617374420166015625000e+00,1.1343327164649963378906250e-01,-1.1471896618604660034179688e-01,-5.8781874179840087890625000e-01,-1.9340270757675170898437500e+00,-6.3833934068679809570312500e-01,5.3407256491482257843017578e-03,1.4152673073112964630126953e-02,5.1822692155838012695312500e-01,-5.5364000797271728515625000e-01,8.1722073256969451904296875e-02,-8.5028462111949920654296875e-02,4.2013221979141235351562500e-01,2.1065282821655273437500000e-01,-1.0328989028930664062500000e+00,1.9172819852828979492187500e+00,-1.9327657222747802734375000e+00,-1.3239586353302001953125000e+00,3.5371845960617065429687500e-01,3.3105161786079406738281250e-01,-8.9292234182357788085937500e-01,-2.8502848744392395019531250e-01,3.3054658770561218261718750e-01,5.8387994766235351562500000e-01,-1.5457884073257446289062500e+00,2.4088557064533233642578125e-01,6.5121695399284362792968750e-02,7.4374645948410034179687500e-01,1.6925286501646041870117188e-02,7.7757191658020019531250000e-01},
	{3.1756412982940673828125000e-01,2.6177433133125305175781250e-01,3.0991560220718383789062500e-01,-1.4064027369022369384765625e-01,7.2567021846771240234375000e-01,1.0478880405426025390625000e+00,3.4980860352516174316406250e-01,-1.1104288101196289062500000e+00,5.3584635257720947265625000e-01,5.2115762233734130859375000e-01,5.2899015136063098907470703e-03,-1.0667135715484619140625000e+00,2.4619029462337493896484375e-01,-8.4363706409931182861328125e-03,-2.2148907184600830078125000e+00,1.3232475519180297851562500e+00,-8.9374971389770507812500000e-01,-4.8651000857353210449218750e-01,-3.6001968383789062500000000e-01,-9.8227936029434204101562500e-01,1.9765712320804595947265625e-01,-9.2482340335845947265625000e-01,-1.2257453054189682006835938e-01,-4.8999559879302978515625000e-01,5.2810907363891601562500000e-01,-3.6240547895431518554687500e-02,2.1165581047534942626953125e-01,2.1842473745346069335937500e-01,3.9698526263236999511718750e-01,-1.1367067098617553710937500e+00,2.2024888992309570312500000e+00,1.6855388879776000976562500e+00,2.5995133444666862487792969e-02,6.3429027795791625976562500e-02,4.3882980942726135253906250e-01,-2.1907566115260124206542969e-03,-1.1866223812103271484375000e-01},
	{-2.6717805862426757812500000e+00,-2.5754287838935852050781250e-01,5.7492196559906005859375000e-01,3.1684143543243408203125000e+00,-2.1250763908028602600097656e-02,1.0392903089523315429687500e+00,3.8951095938682556152343750e-01,8.1680834293365478515625000e-01,-3.4711053967475891113281250e-01,2.8668132424354553222656250e-01,8.5380756855010986328125000e-01,3.5654139518737792968750000e-01,4.5526254177093505859375000e-01,2.2522814106196165084838867e-04,-1.9024574756622314453125000e+00,-3.6047390103340148925781250e-01,6.7558813095092773437500000e-01,5.1358062028884887695312500e-01,4.7512310743331909179687500e-01,-1.3446098566055297851562500e-01,2.7454048395156860351562500e-01,8.2959693670272827148437500e-01,-4.3338003754615783691406250e-01,-3.6266899108886718750000000e-01,8.2655981183052062988281250e-02,-6.0926705598831176757812500e-01,2.8218597173690795898437500e-01,2.4715075269341468811035156e-02,2.1363790333271026611328125e-01,5.5385076999664306640625000e-01,2.3210723400115966796875000e+00,-1.4319417476654052734375000e+00,-3.9178937673568725585937500e-02,3.5980824381113052368164062e-02,3.7474682927131652832031250e-01,7.3023699223995208740234375e-04,-7.6471757888793945312500000e-01},
	{1.2747712433338165283203125e-01,1.0493002086877822875976562e-01,2.5553470849990844726562500e-01,1.5928776562213897705078125e-01,-7.3580729961395263671875000e-01,1.5421432256698608398437500e-01,3.3466651439666748046875000e+00,-1.9909791648387908935546875e-01,1.1945483833551406860351562e-01,-6.1122111976146697998046875e-02,-2.2429266571998596191406250e-01,-2.0558618009090423583984375e-01,3.5752910375595092773437500e-01,-1.5448991325683891773223877e-04,1.4178658723831176757812500e+00,-1.5422853827476501464843750e-01,1.9176267087459564208984375e-01,-3.2744047045707702636718750e-01,-6.2631124258041381835937500e-01,5.4110401868820190429687500e-01,-2.7540615200996398925781250e-01,4.6784192323684692382812500e-01,-2.0071218013763427734375000e+00,-4.1121760010719299316406250e-01,-6.0488495975732803344726562e-02,1.0406749695539474487304688e-01,-3.9314854145050048828125000e-01,-2.2716031968593597412109375e-01,3.5470759868621826171875000e+00,-2.1823765337467193603515625e-01,-4.1649225354194641113281250e-01,-1.1410293728113174438476562e-01,-3.5443589687347412109375000e+00,2.6027275249361991882324219e-02,-2.6633921265602111816406250e-01,-3.3882292918860912322998047e-03,1.8982787430286407470703125e-01},
	{1.0402513742446899414062500e+00,-1.0826022922992706298828125e-01,2.1386780738830566406250000e+00,-5.4755294322967529296875000e-01,-4.8202764987945556640625000e-01,3.5194242000579833984375000e-01,-2.2259356081485748291015625e-01,3.3289098739624023437500000e-01,-5.4891496896743774414062500e-01,-3.2982650399208068847656250e-01,2.6173904538154602050781250e-01,-1.5628155320882797241210938e-02,-1.1772128343582153320312500e+00,1.6656476072967052459716797e-03,-1.3551301956176757812500000e+00,-1.6557666659355163574218750e-01,-1.1090477705001831054687500e+00,-2.0724132061004638671875000e+00,5.5781865119934082031250000e-01,1.9526132941246032714843750e-01,4.2069327831268310546875000e-01,-5.8772349357604980468750000e-01,1.6917955875396728515625000e+00,4.2857638001441955566406250e-01,9.8447829484939575195312500e-01,1.3992848992347717285156250e-01,3.6449149250984191894531250e-01,-3.4991115331649780273437500e-02,-2.2300480306148529052734375e-01,3.4507608413696289062500000e-01,1.0867749452590942382812500e+00,-6.1306148767471313476562500e-01,-3.5385882854461669921875000e-01,5.7403609156608581542968750e-02,-5.4844135046005249023437500e-01,-2.1503050811588764190673828e-03,-2.8961617946624755859375000e+00},
	{-1.7214560508728027343750000e+00,3.9701345562934875488281250e-01,1.6356259584426879882812500e+00,1.9684308767318725585937500e-01,4.6202179789543151855468750e-01,6.8026483058929443359375000e-01,1.6244205832481384277343750e-01,1.3318060636520385742187500e+00,-9.1909557580947875976562500e-01,5.6046795845031738281250000e-01,1.7643769979476928710937500e+00,-1.2989678978919982910156250e-01,-3.1727713346481323242187500e-01,4.5982492156326770782470703e-03,5.0467580556869506835937500e-01,1.1371585130691528320312500e+00,2.0254726409912109375000000e+00,-7.1839347481727600097656250e-02,-5.0929751247167587280273438e-02,3.8679698109626770019531250e-01,1.3013629615306854248046875e-01,1.4867759943008422851562500e+00,-1.6383628547191619873046875e-01,-6.1174321174621582031250000e-01,6.3259828090667724609375000e-01,6.2813317775726318359375000e-01,1.4310582876205444335937500e+00,4.5817494392395019531250000e-01,5.7913684844970703125000000e-01,2.5982851982116699218750000e+00,-5.3935084491968154907226562e-02,5.7318890094757080078125000e-01,-2.4324953556060791015625000e-01,2.0961649715900421142578125e-02,6.8799489736557006835937500e-01,2.3299194872379302978515625e-03,-1.6623783111572265625000000e+00},
	{-1.2959982156753540039062500e+00,4.4603919982910156250000000e-01,6.4229327440261840820312500e-01,1.8759293854236602783203125e-01,6.6980201005935668945312500e-01,-3.4308445453643798828125000e-01,-7.4076995253562927246093750e-02,2.6657984256744384765625000e+00,6.3366454839706420898437500e-01,1.5706527233123779296875000e-01,-2.0369546413421630859375000e+00,5.7924407720565795898437500e-01,-3.8566556572914123535156250e-01,3.8047337438911199569702148e-03,1.0740411281585693359375000e-01,-3.8558807969093322753906250e-01,6.9862985610961914062500000e-01,-2.2659149169921875000000000e+00,-1.0329180210828781127929688e-01,8.0576252937316894531250000e-01,-4.7253359109163284301757812e-02,4.3587541580200195312500000e-01,-1.1495053768157958984375000e-01,1.0911382734775543212890625e-01,7.6442462205886840820312500e-01,3.6094564199447631835937500e-01,-3.2021924853324890136718750e-01,2.5424340367317199707031250e-01,-3.7421619892120361328125000e-01,4.8023462295532226562500000e-02,-6.1262553930282592773437500e-01,-1.6667166948318481445312500e+00,2.2931267321109771728515625e-01,6.4976565539836883544921875e-02,4.1018355637788772583007812e-02,-1.1490313336253166198730469e-03,-1.4564803838729858398437500e+00},
	{-7.1648252010345458984375000e-01,1.7426826059818267822265625e-01,-4.7369369864463806152343750e-01,-6.9719105958938598632812500e-01,1.0937176942825317382812500e+00,1.5343331731855869293212891e-02,-1.0467485524713993072509766e-02,-1.3482732772827148437500000e+00,-1.1565045118331909179687500e+00,3.4123372286558151245117188e-02,5.3941535949707031250000000e-01,-5.9621626138687133789062500e-01,8.5258239507675170898437500e-01,7.6696230098605155944824219e-03,-2.5490203499794006347656250e-01,9.5871555805206298828125000e-01,1.2145893275737762451171875e-01,-1.4655127525329589843750000e+00,5.1611679792404174804687500e-01,2.6989752054214477539062500e-01,3.3337760716676712036132812e-02,-3.4502294659614562988281250e-01,3.1648257374763488769531250e-01,-1.1611268520355224609375000e+00,6.7333477735519409179687500e-01,-3.8150794804096221923828125e-02,-2.1321682929992675781250000e+00,-1.3944641351699829101562500e+00,-3.7723398208618164062500000e-01,4.8047345876693725585937500e-01,1.8553794920444488525390625e-01,5.6022375822067260742187500e-01,1.0420128107070922851562500e+00,5.6704856455326080322265625e-02,-1.8794352188706398010253906e-02,-6.6853086464107036590576172e-03,7.9205995798110961914062500e-01},
	{2.2949495315551757812500000e+00,-2.0303301513195037841796875e-01,5.6305199861526489257812500e-01,2.9901769757270812988281250e-01,2.7518481016159057617187500e-01,1.7675507068634033203125000e+00,-6.7823082208633422851562500e-02,-4.8078969120979309082031250e-01,5.4715603590011596679687500e-01,-6.5613901615142822265625000e-01,-6.7479580640792846679687500e-01,5.0521659851074218750000000e-01,-7.2242432832717895507812500e-01,1.8785230349749326705932617e-03,-3.2946717739105224609375000e-01,2.0252503454685211181640625e-01,-7.8683113679289817810058594e-03,-2.3521573543548583984375000e+00,-5.1182115077972412109375000e-01,7.7842183411121368408203125e-02,-5.0353187322616577148437500e-01,1.0022181272506713867187500e+00,-8.8890917599201202392578125e-02,9.9060815572738647460937500e-01,1.4386793971061706542968750e-01,6.2682420015335083007812500e-01,-3.0582231283187866210937500e-01,9.1046869754791259765625000e-01,-1.4142070710659027099609375e-01,-8.5266381502151489257812500e-01,4.4928079843521118164062500e-01,5.7015669345855712890625000e-01,-1.4203816652297973632812500e-01,3.8772713392972946166992188e-02,-1.0128194093704223632812500e-01,4.5877215452492237091064453e-03,-6.4788931608200073242187500e-01},
	{8.2675218582153320312500000e-02,-1.6789767146110534667968750e-01,-9.1642999649047851562500000e-01,1.1439034342765808105468750e-01,-3.3098232746124267578125000e-01,1.3494292497634887695312500e+00,-1.0124431550502777099609375e-01,1.9895237684249877929687500e+00,4.1780611872673034667968750e-01,2.0525766909122467041015625e-01,-1.5241131782531738281250000e+00,-1.2746860980987548828125000e+00,-2.5586047172546386718750000e+00,5.4987129988148808479309082e-04,5.1247346401214599609375000e-01,1.6535493135452270507812500e+00,-1.7418230772018432617187500e+00,-1.3486461639404296875000000e+00,3.0634617805480957031250000e-01,9.5180839300155639648437500e-01,1.9243326783180236816406250e-01,-1.1728086471557617187500000e+00,-7.2246348857879638671875000e-01,5.9436249732971191406250000e-01,-4.0661893784999847412109375e-02,1.2348125129938125610351562e-01,1.1831779032945632934570312e-01,9.6393752098083496093750000e-01,-4.3231683969497680664062500e-01,-1.4715195894241333007812500e+00,-1.2322672605514526367187500e+00,2.0626957416534423828125000e+00,-1.3267746567726135253906250e-01,4.5889347791671752929687500e-02,2.1802864968776702880859375e-02,5.3098076023161411285400391e-03,3.2413107156753540039062500e-01},
	{-8.2078534364700317382812500e-01,1.0828313976526260375976562e-01,-4.7591182589530944824218750e-01,-6.6003963351249694824218750e-02,2.9061508178710937500000000e-01,-1.1297011375427246093750000e+00,9.4802156090736389160156250e-02,-5.0428473949432373046875000e-01,2.6935273408889770507812500e-01,-7.2270631790161132812500000e-02,2.7449879050254821777343750e-01,1.8085172772407531738281250e-01,5.9677141904830932617187500e-01,5.4029803723096847534179688e-03,-6.6330707073211669921875000e-01,-7.9664659500122070312500000e-01,-2.9880487918853759765625000e+00,2.8626661300659179687500000e+00,-1.2464199215173721313476562e-02,2.6679897308349609375000000e-01,5.9956204146146774291992188e-02,1.4202260971069335937500000e+00,1.1463837325572967529296875e-01,1.1955840587615966796875000e+00,7.5184100866317749023437500e-01,3.9676687121391296386718750e-01,4.8769482970237731933593750e-01,9.8240840435028076171875000e-01,-1.0605644434690475463867188e-01,7.6905685663223266601562500e-01,-1.9888496398925781250000000e+00,-1.9599702358245849609375000e+00,7.3437042534351348876953125e-02,3.6675233393907546997070312e-02,-6.5506219863891601562500000e-01,-1.0856796987354755401611328e-02,-3.7336403131484985351562500e-01},
	{1.3872655630111694335937500e+00,-4.6205636858940124511718750e-01,6.2089926004409790039062500e-01,4.1946496814489364624023438e-02,1.6671068966388702392578125e-01,1.6682751476764678955078125e-01,3.7332171201705932617187500e-01,6.5254259109497070312500000e-01,1.1173852682113647460937500e+00,-1.2262787818908691406250000e+00,-7.0431458950042724609375000e-01,1.7844577133655548095703125e-01,9.4718366861343383789062500e-01,-2.0506278087850660085678101e-04,-5.2407942712306976318359375e-02,-8.5537397861480712890625000e-01,3.7557334899902343750000000e+00,1.0638165473937988281250000e+00,6.4748114347457885742187500e-01,-1.2134550809860229492187500e+00,-2.0087751746177673339843750e-01,9.5088267326354980468750000e-01,-4.3472799658775329589843750e-01,8.7176454067230224609375000e-01,-9.3929356336593627929687500e-01,1.4035773277282714843750000e-01,5.8000987768173217773437500e-01,4.4465634226799011230468750e-01,7.5345617532730102539062500e-01,-8.8547483086585998535156250e-02,-2.5407305359840393066406250e-01,7.4105238914489746093750000e-01,-5.1262594759464263916015625e-02,6.1428908258676528930664062e-02,5.2085053920745849609375000e-01,-8.3309346809983253479003906e-03,-4.0233018808066844940185547e-03},
	{-1.4032784700393676757812500e+00,-5.5342996120452880859375000e-01,-1.0165868997573852539062500e+00,5.9681911021471023559570312e-02,1.2535005807876586914062500e-01,-2.4347610771656036376953125e-01,2.0316193997859954833984375e-01,2.1027884483337402343750000e+00,4.2383468151092529296875000e-01,5.2890676259994506835937500e-01,7.7785603702068328857421875e-02,2.3207752704620361328125000e+00,2.5298020839691162109375000e+00,2.1999399177730083465576172e-03,3.5835394263267517089843750e-01,1.2359881401062011718750000e+00,-6.9660264253616333007812500e-01,-1.0103542804718017578125000e+00,-1.1505858600139617919921875e-01,4.2397275567054748535156250e-01,-3.0341032147407531738281250e-01,3.6900353431701660156250000e-01,-8.4793353080749511718750000e-01,-2.0013434886932373046875000e+00,9.2785172164440155029296875e-02,3.5578531026840209960937500e-01,-5.7102207094430923461914062e-02,3.6072003841400146484375000e-01,2.7288118004798889160156250e-01,1.5816329717636108398437500e+00,-1.0155264139175415039062500e+00,-1.8053719997406005859375000e+00,-2.3828682303428649902343750e-01,5.8976098895072937011718750e-02,-1.7958419024944305419921875e-01,5.4745571687817573547363281e-03,-1.3793972134590148925781250e-01},
	{-5.1770007610321044921875000e-01,1.9875362515449523925781250e-01,-3.3970654010772705078125000e-01,-2.1465963125228881835937500e-01,4.0015050768852233886718750e-01,1.0948259383440017700195312e-01,3.4049606323242187500000000e+00,4.4411435723304748535156250e-01,-1.4754877984523773193359375e-01,-2.2404117882251739501953125e-01,2.1815860271453857421875000e-01,-9.5706552267074584960937500e-02,-2.4194242060184478759765625e-01,2.6301026809960603713989258e-03,-2.5241360068321228027343750e-01,-5.9139415621757507324218750e-02,-2.0022895932197570800781250e-01,1.7119759321212768554687500e-01,6.1736643314361572265625000e-01,-5.0914126634597778320312500e-01,5.0089590251445770263671875e-02,-1.4187170565128326416015625e-01,-9.6566665172576904296875000e-01,5.2951663732528686523437500e-01,3.7538439035415649414062500e-01,-1.8329735100269317626953125e-01,1.3226358890533447265625000e+00,-4.0005766786634922027587891e-03,3.1228744983673095703125000e+00,2.6629167795181274414062500e-01,4.6276572346687316894531250e-01,-2.3265019059181213378906250e-02,1.0428230464458465576171875e-01,2.8368381783366203308105469e-02,-1.1504216492176055908203125e-01,-8.4972456097602844238281250e-03,-2.2894001007080078125000000e-01},
	{-4.4489493966102600097656250e-01,5.6071835756301879882812500e-01,-2.6393471285700798034667969e-02,2.8261590003967285156250000e-01,-1.5637941658496856689453125e-01,4.1430115699768066406250000e-01,-4.2858747765421867370605469e-03,-1.1627564430236816406250000e+00,-2.5876641273498535156250000e-01,2.2268888354301452636718750e-01,-1.9092820882797241210937500e+00,1.3895487785339355468750000e+00,1.2571901082992553710937500e+00,-4.3081832118332386016845703e-03,1.7452391982078552246093750e-01,1.7243230342864990234375000e+00,-2.1556286811828613281250000e+00,1.6608319282531738281250000e+00,7.8023552894592285156250000e-02,-3.9573711156845092773437500e-01,-1.9922599196434020996093750e-01,-9.1640990972518920898437500e-01,6.0374099016189575195312500e-01,-3.1453711986541748046875000e+00,-1.3607938289642333984375000e+00,1.7944693565368652343750000e-01,6.5223920345306396484375000e-01,7.4557322263717651367187500e-01,3.5543094854801893234252930e-03,-2.5603622198104858398437500e-01,1.8428592681884765625000000e+00,-6.3149690628051757812500000e-01,-4.1658863425254821777343750e-01,6.3767664134502410888671875e-02,2.5093039870262145996093750e-01,-7.3364707641303539276123047e-03,5.4775446653366088867187500e-01},
	{-5.9152126312255859375000000e-01,6.1750942468643188476562500e-01,1.2007750272750854492187500e+00,4.5449164509773254394531250e-01,-1.3924480974674224853515625e-01,1.9609291851520538330078125e-01,2.5574946403503417968750000e-01,6.0343968868255615234375000e-01,1.3767750263214111328125000e+00,-9.9459707736968994140625000e-01,-1.1041455268859863281250000e+00,1.4000557363033294677734375e-01,-7.3579585552215576171875000e-01,-5.4521425627171993255615234e-03,5.6326711177825927734375000e-01,-3.9768072962760925292968750e-01,2.3750872611999511718750000e+00,-1.0866949558258056640625000e+00,1.3400825858116149902343750e-01,1.8147715926170349121093750e-01,1.3932137489318847656250000e+00,1.4766846895217895507812500e+00,-1.4563453197479248046875000e-01,3.8566246628761291503906250e-01,1.1338000744581222534179688e-01,2.9543980956077575683593750e-01,-1.0041677951812744140625000e+00,2.1997613832354545593261719e-02,4.4662651419639587402343750e-01,-8.1396907567977905273437500e-01,-4.8275592923164367675781250e-01,5.1218098402023315429687500e-01,4.0158963203430175781250000e-01,5.7165246456861495971679688e-02,-1.6936141252517700195312500e-01,-7.4945064261555671691894531e-03,3.6157507449388504028320312e-02},
	{-2.6587970256805419921875000e+00,-2.0721757411956787109375000e-01,4.1341206431388854980468750e-01,-1.0483344793319702148437500e+00,-4.4020387530326843261718750e-01,-4.2189630866050720214843750e-01,-4.6807419508695602416992188e-02,-1.1741160154342651367187500e+00,5.4913467168807983398437500e-01,-4.2003682255744934082031250e-01,-4.2074948549270629882812500e-01,6.7482334375381469726562500e-01,7.8870689868927001953125000e-01,1.0110132861882448196411133e-03,-5.1525241136550903320312500e-01,-1.6674991846084594726562500e+00,2.5176250934600830078125000e-01,-2.3101327419281005859375000e+00,-1.1814241409301757812500000e+00,2.0529599860310554504394531e-02,-3.3501300215721130371093750e-01,-3.1464120745658874511718750e-01,-2.2971619665622711181640625e-01,4.1659891605377197265625000e-01,3.0331549644470214843750000e+00,-1.6764430701732635498046875e-01,9.0614020824432373046875000e-01,4.3324428796768188476562500e-01,-4.1434001177549362182617188e-02,-2.0651659965515136718750000e+00,1.0625030994415283203125000e+00,-5.6341207027435302734375000e-01,8.5768342250958085060119629e-04,4.8654604703187942504882812e-02,-5.3666193038225173950195312e-02,-2.4857744574546813964843750e-03,3.9813885092735290527343750e-01},
	{4.7592142224311828613281250e-01,-7.4622058868408203125000000e-01,-1.1325287818908691406250000e+00,8.6814498901367187500000000e-01,6.2620264291763305664062500e-01,-2.5539946556091308593750000e-01,-1.1783240735530853271484375e-01,-1.5352205038070678710937500e+00,2.3055338859558105468750000e-01,-4.0172544121742248535156250e-01,8.7081372737884521484375000e-01,9.4324266910552978515625000e-01,2.2869729995727539062500000e+00,4.6283379197120666503906250e-03,-9.5643436908721923828125000e-01,-1.3016518950462341308593750e-01,-8.4558194875717163085937500e-01,5.6923210620880126953125000e-01,-3.6357942223548889160156250e-01,2.5039383769035339355468750e-01,-1.5945848822593688964843750e-01,-2.8950592875480651855468750e-01,-7.2217106819152832031250000e-01,1.3378226757049560546875000e-01,-6.1201208829879760742187500e-01,1.6088688373565673828125000e-01,-1.6599638760089874267578125e-01,4.0523210167884826660156250e-01,-3.7180715799331665039062500e-01,-9.0438342094421386718750000e-01,8.4565395116806030273437500e-01,-8.4579616785049438476562500e-01,6.3654190301895141601562500e-01,7.7286176383495330810546875e-02,1.0371516942977905273437500e+00,-1.6768395435065031051635742e-03,1.4854279756546020507812500e+00},
	{-3.8303980231285095214843750e-01,-4.2127895355224609375000000e-01,-4.6817067265510559082031250e-01,5.0849690437316894531250000e+00,1.9658532738685607910156250e-01,-4.0427404642105102539062500e-01,-1.5080009400844573974609375e-01,1.2792699337005615234375000e+00,2.9539701342582702636718750e-01,-1.1338845640420913696289062e-01,2.7933838963508605957031250e-01,-4.3032801151275634765625000e-01,5.1025146245956420898437500e-01,-1.4352246653288602828979492e-03,-3.5883611440658569335937500e-01,3.1753718852996826171875000e-01,-2.5824388861656188964843750e-01,-5.7380557060241699218750000e-01,-4.0675956010818481445312500e-01,-3.8660138845443725585937500e-01,-4.7815161943435668945312500e-01,8.4296971559524536132812500e-01,3.0210947990417480468750000e-01,-2.6489645242691040039062500e-01,5.1259452104568481445312500e-01,-2.5481302291154861450195312e-02,-4.4426587224006652832031250e-01,-8.2017290592193603515625000e-01,-6.2568360567092895507812500e-01,-1.4742228984832763671875000e+00,1.5186626911163330078125000e+00,1.0626502037048339843750000e+00,2.2506642341613769531250000e-01,4.4903501868247985839843750e-02,3.5991269350051879882812500e-01,2.0316867157816886901855469e-03,-2.2681690752506256103515625e-01},
	{-2.6197438240051269531250000e+00,-3.0031272768974304199218750e-01,-2.4583284556865692138671875e-01,1.1195953935384750366210938e-01,4.1260501742362976074218750e-01,6.8296569585800170898437500e-01,3.5293668508529663085937500e-02,-2.2611002922058105468750000e+00,-1.2388986535370349884033203e-02,3.1255787611007690429687500e-01,1.1277151107788085937500000e+00,-5.0112897157669067382812500e-01,6.4213097095489501953125000e-01,-2.6295526186004281044006348e-04,1.1259694099426269531250000e+00,-6.5321034193038940429687500e-01,1.4945231676101684570312500e+00,-8.7043035030364990234375000e-01,2.5725221633911132812500000e-01,-6.1251598596572875976562500e-01,-1.3821363449096679687500000e-01,-1.1458104848861694335937500e+00,-6.2554395198822021484375000e-01,1.3227945566177368164062500e-01,-3.0458472669124603271484375e-02,-3.3374881744384765625000000e-01,2.3511981964111328125000000e-01,8.8532239198684692382812500e-01,6.5662465989589691162109375e-02,1.5987628698348999023437500e+00,-3.9665889739990234375000000e-01,7.4675284326076507568359375e-02,-9.4636774063110351562500000e-01,1.9240731373429298400878906e-02,3.8366946578025817871093750e-01,3.7682848051190376281738281e-03,8.6830389499664306640625000e-01},
	{-1.9559597596526145935058594e-02,7.0204585790634155273437500e-01,6.6125474870204925537109375e-02,2.8262233734130859375000000e-01,3.6282753944396972656250000e-01,6.1144419014453887939453125e-02,-4.1385545730590820312500000e+00,-1.5765259042382240295410156e-02,5.9045914560556411743164062e-02,-3.4838300943374633789062500e-01,-9.3552440404891967773437500e-02,1.4458833634853363037109375e-01,-3.1865230202674865722656250e-01,2.3097784724086523056030273e-03,-8.2543700933456420898437500e-02,2.1092694252729415893554688e-02,2.1640059351921081542968750e-01,-4.1850809007883071899414062e-02,1.2418032437562942504882812e-01,-2.0253248512744903564453125e-01,2.1019603312015533447265625e-01,-9.3544330447912216186523438e-03,1.8551796674728393554687500e+00,4.6846766024827957153320312e-02,-8.9377582073211669921875000e-02,-5.1873620599508285522460938e-02,-3.1104140281677246093750000e+00,-2.3337961733341217041015625e-01,-3.0333013534545898437500000e+00,3.5827755928039550781250000e-02,6.4657613635063171386718750e-02,-9.6913799643516540527343750e-02,-2.5432310104370117187500000e+00,4.5900069177150726318359375e-02,3.8215816020965576171875000e-01,-2.4990434758365154266357422e-03,1.0716939717531204223632812e-01},
	{5.4578083753585815429687500e-01,-8.8939279317855834960937500e-01,1.9733703136444091796875000e-01,1.8997138738632202148437500e-01,1.1070048809051513671875000e+00,-1.6415637731552124023437500e-01,2.2863046824932098388671875e-01,1.4414422214031219482421875e-01,-3.3606793731451034545898438e-02,4.2898929119110107421875000e-01,5.1121842861175537109375000e-01,-1.2626317143440246582031250e-01,-8.1525468826293945312500000e-01,-4.4613210484385490417480469e-03,-6.4660811424255371093750000e-01,-2.4110493063926696777343750e-01,-5.5877006053924560546875000e-01,-1.6739280521869659423828125e-01,1.1942481994628906250000000e+00,-3.2511755824089050292968750e-01,2.6533007621765136718750000e-01,-1.0839404165744781494140625e-01,8.1900298595428466796875000e-02,4.5998108386993408203125000e-01,2.7252318337559700012207031e-02,2.3795755207538604736328125e-01,-2.6482028961181640625000000e+00,1.1260744333267211914062500e+00,1.0112129449844360351562500e+00,-5.7850722223520278930664062e-02,-1.2316108494997024536132812e-01,4.7262832522392272949218750e-01,3.1391429901123046875000000e+00,5.9403453022241592407226562e-02,8.0595538020133972167968750e-02,8.7135750800371170043945312e-03,-1.2412537634372711181640625e-01},
	{-6.8084490485489368438720703e-03,-8.0007749795913696289062500e-01,2.6500654220581054687500000e+00,7.0721948146820068359375000e-01,-4.9710318446159362792968750e-02,-8.6637330055236816406250000e-01,-8.9484132826328277587890625e-02,2.8973570466041564941406250e-01,-4.2512831278145313262939453e-03,-2.2077865898609161376953125e-01,2.0847959518432617187500000e+00,4.2309778928756713867187500e-01,-2.1858510971069335937500000e+00,1.0675879195332527160644531e-02,-8.6154514551162719726562500e-01,-1.5655932426452636718750000e+00,9.1490477323532104492187500e-01,6.2818962335586547851562500e-01,-3.6769989132881164550781250e-01,-4.2371541261672973632812500e-02,-1.6084378957748413085937500e-01,-1.0587463378906250000000000e+00,-5.3254085779190063476562500e-01,-1.8480483442544937133789062e-02,1.2040956020355224609375000e+00,1.2774856761097908020019531e-02,-8.4781908988952636718750000e-01,-6.6407370567321777343750000e-01,-5.5976384878158569335937500e-01,5.6431061029434204101562500e-01,-1.3431572914123535156250000e+00,9.9121379852294921875000000e-01,9.4602704048156738281250000e-02,5.9103768318891525268554688e-02,3.4569066762924194335937500e-01,-2.2251748014241456985473633e-03,2.3752373456954956054687500e-01},
	{-1.1898754835128784179687500e+00,1.0390752553939819335937500e+00,5.0233298540115356445312500e-01,-9.8717403411865234375000000e-01,7.6006883382797241210937500e-01,-1.9864031076431274414062500e+00,-5.7094741612672805786132812e-02,1.6776438057422637939453125e-01,-7.5474774837493896484375000e-01,1.1406315118074417114257812e-01,-1.5784137248992919921875000e+00,-8.9657895267009735107421875e-02,-1.2901319265365600585937500e+00,2.5797958951443433761596680e-03,-2.1633173525333404541015625e-01,-3.7803360819816589355468750e-01,1.5647908449172973632812500e+00,-1.9973844289779663085937500e-01,-5.6749725341796875000000000e-01,-3.2971709966659545898437500e-01,-2.9655545949935913085937500e-01,2.1064296364784240722656250e-01,8.4995627403259277343750000e-03,-4.3361908197402954101562500e-01,1.0171125829219818115234375e-01,-2.3514974117279052734375000e-01,-9.3699045479297637939453125e-02,-3.0707708001136779785156250e-01,-2.8533706068992614746093750e-01,2.1836016178131103515625000e+00,-2.7634463310241699218750000e+00,-4.8561614751815795898437500e-01,-1.9868808984756469726562500e-01,8.0831453204154968261718750e-02,-3.0255872011184692382812500e-01,7.0150387473404407501220703e-03,1.5805718898773193359375000e+00},
	{-1.8156677484512329101562500e-01,-1.8442082405090332031250000e-01,1.2048697471618652343750000e+00,-7.2602957487106323242187500e-01,-9.1776794195175170898437500e-01,-1.1892340183258056640625000e+00,-1.5081685781478881835937500e-01,-1.4928337335586547851562500e+00,-3.4899860620498657226562500e-01,-1.0608904361724853515625000e+00,8.2675725221633911132812500e-01,-2.2024995088577270507812500e-01,1.2360352277755737304687500e+00,1.2632299214601516723632812e-02,-2.5582090020179748535156250e-01,1.8532435894012451171875000e+00,1.7651954889297485351562500e+00,1.3450834751129150390625000e+00,8.5878837108612060546875000e-01,1.8346273899078369140625000e-01,4.7377053648233413696289062e-02,2.3146340847015380859375000e+00,8.9373916387557983398437500e-01,7.3497945070266723632812500e-01,-1.1475329101085662841796875e-01,2.3111380636692047119140625e-01,-6.6750359535217285156250000e-01,-1.5978068113327026367187500e+00,-1.2786114215850830078125000e-01,-1.0206712484359741210937500e+00,-8.4411168098449707031250000e-01,5.0471210479736328125000000e-01,-1.1247927695512771606445312e-01,6.6425234079360961914062500e-02,-1.2256349623203277587890625e-01,3.3876628149300813674926758e-03,7.2416305541992187500000000e-02},
	{1.4091781340539455413818359e-02,-3.8094824552536010742187500e-01,3.5141054540872573852539062e-02,-7.1028112433850765228271484e-03,-6.7467439174652099609375000e-01,-6.6621020436286926269531250e-02,-5.3385405540466308593750000e+00,-1.8036031723022460937500000e-01,7.0781394839286804199218750e-02,3.1065526604652404785156250e-01,1.1176116764545440673828125e-01,-3.7832073867321014404296875e-02,1.9879532977938652038574219e-02,-3.8887262344360351562500000e-03,5.3544681519269943237304688e-02,4.8313699662685394287109375e-02,4.5106928795576095581054688e-02,4.9758035689592361450195312e-02,-5.5214665830135345458984375e-02,1.1804055422544479370117188e-01,-3.4535646438598632812500000e-01,7.1602620184421539306640625e-02,-2.4403078556060791015625000e+00,-1.0779953002929687500000000e-01,2.4374354630708694458007812e-02,9.1531783342361450195312500e-02,1.2663652896881103515625000e+00,1.8262191116809844970703125e-01,2.2437443733215332031250000e+00,1.4534748625010251998901367e-03,-1.6614669561386108398437500e-01,1.6071928665041923522949219e-02,2.3626866340637207031250000e+00,1.6163263469934463500976562e-02,8.8419802486896514892578125e-02,8.5473135113716125488281250e-03,-3.5022612661123275756835938e-02},
	{2.8060841560363769531250000e-01,9.6744114160537719726562500e-01,-1.0665037631988525390625000e+00,-1.2518610954284667968750000e+00,-6.1552941799163818359375000e-01,-1.4104136228561401367187500e+00,6.9393910467624664306640625e-02,2.9754946231842041015625000e+00,-4.8801696300506591796875000e-01,-1.4823247492313385009765625e-01,4.5143076777458190917968750e-01,4.3907269835472106933593750e-01,-4.5327791571617126464843750e-01,-9.5658510690554976463317871e-04,-1.6796771287918090820312500e+00,1.5211993455886840820312500e-01,1.9584945440292358398437500e+00,-1.7086392641067504882812500e+00,4.9481328576803207397460938e-02,-6.0962545871734619140625000e-01,-3.7713029980659484863281250e-01,-7.6847147941589355468750000e-01,1.5489749610424041748046875e-01,-3.5844374448060989379882812e-02,2.0704312250018119812011719e-02,-2.2286164760589599609375000e-01,-4.4973382353782653808593750e-01,2.7261939048767089843750000e+00,1.1052954196929931640625000e-01,-4.2119181156158447265625000e-01,-3.8250023126602172851562500e-01,-5.6609600782394409179687500e-01,2.6448678970336914062500000e-01,5.2259493619203567504882812e-02,-2.7686288952827453613281250e-01,4.5421156100928783416748047e-03,-5.8136844635009765625000000e-01},
	{6.4985847473144531250000000e-01,6.8581598997116088867187500e-01,-5.4015934467315673828125000e-01,5.3833878040313720703125000e-01,-1.1375217884778976440429688e-01,-4.2433843016624450683593750e-01,-1.7853756248950958251953125e-01,-6.9600397348403930664062500e-01,9.3248747289180755615234375e-02,-2.9102382063865661621093750e-01,-1.3090716600418090820312500e+00,-9.8679937422275543212890625e-02,1.2156871706247329711914062e-01,1.2822698801755905151367188e-02,3.1809175014495849609375000e+00,1.7885186672210693359375000e+00,9.1536211967468261718750000e-01,1.7824430465698242187500000e+00,-4.0723949670791625976562500e-01,-7.5579755008220672607421875e-02,-2.6824014261364936828613281e-02,-1.1963802576065063476562500e+00,1.2181878089904785156250000e+00,1.4959951639175415039062500e+00,1.8344212770462036132812500e+00,4.2816197872161865234375000e-01,4.3370023369789123535156250e-01,-2.5582668185234069824218750e-01,-3.4324645996093750000000000e-01,1.6891631484031677246093750e-01,1.3830497264862060546875000e+00,-1.4621944427490234375000000e+00,5.9319156408309936523437500e-01,3.9257079362869262695312500e-02,-3.0969256162643432617187500e-01,-7.1583320386707782745361328e-03,1.4598700404167175292968750e-01},
	{-1.6439696550369262695312500e+00,2.0737302303314208984375000e-01,-1.0563000440597534179687500e+00,1.0929145850241184234619141e-02,-4.8387743532657623291015625e-02,-3.7422522902488708496093750e-01,-3.5245276987552642822265625e-02,3.0872378349304199218750000e+00,-4.4923186302185058593750000e-01,-3.8991484045982360839843750e-01,5.1864303648471832275390625e-02,7.9157614707946777343750000e-01,1.7119317054748535156250000e+00,-2.2065616212785243988037109e-03,-1.8359049558639526367187500e+00,-1.4307705163955688476562500e+00,1.2790359258651733398437500e+00,2.1232655048370361328125000e+00,3.4411191940307617187500000e-01,-6.4854913949966430664062500e-01,-1.6869166493415832519531250e-01,4.6964085102081298828125000e-01,-4.3719190359115600585937500e-01,1.5815747976303100585937500e+00,-2.1350028514862060546875000e+00,3.8435438275337219238281250e-01,3.5669663548469543457031250e-01,-9.9038410186767578125000000e-01,-1.3998827338218688964843750e-01,1.4311988651752471923828125e-01,1.0368840694427490234375000e+00,-4.7443464398384094238281250e-01,-4.4576403498649597167968750e-01,5.7993013411760330200195312e-02,-2.9801008105278015136718750e-01,7.7684647403657436370849609e-03,1.7515838146209716796875000e+00},
	{1.5170096158981323242187500e+00,5.5999702215194702148437500e-01,-5.2233505249023437500000000e-01,6.2638747692108154296875000e-01,2.7763336896896362304687500e-01,1.7553724050521850585937500e+00,-2.8701016306877136230468750e-01,-9.3718327581882476806640625e-02,-4.5902067422866821289062500e-01,4.5723053812980651855468750e-01,2.0428030490875244140625000e+00,1.3076630830764770507812500e+00,-1.3773623704910278320312500e+00,-5.0710365176200866699218750e-03,-4.8540651798248291015625000e-01,-9.2622317373752593994140625e-02,-5.1389443874359130859375000e-01,-7.7361410856246948242187500e-01,-1.1812089383602142333984375e-01,-3.5863164067268371582031250e-01,-3.5775208473205566406250000e-01,1.7302050590515136718750000e+00,-2.1648049354553222656250000e+00,1.7492036819458007812500000e+00,4.1729685664176940917968750e-01,-4.6410766243934631347656250e-01,-6.1083459854125976562500000e-01,3.1858929991722106933593750e-01,-6.9918638467788696289062500e-01,-1.8612145185470581054687500e+00,-2.3651990294456481933593750e-01,9.5425766706466674804687500e-01,2.2575020790100097656250000e-01,4.9967616796493530273437500e-02,1.1730289459228515625000000e-01,-5.0346623174846172332763672e-03,9.3467760086059570312500000e-01},
	{1.8528091907501220703125000e+00,-4.1051870584487915039062500e-01,1.5561563968658447265625000e+00,7.0425279438495635986328125e-02,6.8906414508819580078125000e-01,1.3192502260208129882812500e+00,5.4326336830854415893554688e-03,-1.3885133266448974609375000e+00,-1.1286865174770355224609375e-01,1.0778855085372924804687500e+00,-7.0088410377502441406250000e-01,-1.1984487771987915039062500e+00,1.5480705499649047851562500e+00,-7.3789048474282026290893555e-04,1.1961144208908081054687500e+00,-7.8139472007751464843750000e-01,-2.4590849876403808593750000e+00,-5.6662344932556152343750000e-01,-6.3292674720287322998046875e-02,2.7367299795150756835937500e-01,4.5092180371284484863281250e-01,3.6894640326499938964843750e-01,-1.6840562224388122558593750e-01,-2.0821275711059570312500000e+00,3.6147806048393249511718750e-01,1.3288584537804126739501953e-02,-6.0194447636604309082031250e-02,3.1895333528518676757812500e-01,4.2727414518594741821289062e-02,7.6202505826950073242187500e-01,2.2258108854293823242187500e-01,3.5936185717582702636718750e-01,8.3757393062114715576171875e-02,5.7340085506439208984375000e-02,-1.7010268568992614746093750e-01,-7.5066857971251010894775391e-03,9.6218365430831909179687500e-01},
	{-1.1526032686233520507812500e+00,8.4011420607566833496093750e-02,-1.0916873216629028320312500e+00,-1.1294010877609252929687500e+00,-1.3868781924247741699218750e-01,-1.4623014926910400390625000e+00,1.1364558339118957519531250e-01,-2.1520988941192626953125000e+00,-6.9822335243225097656250000e-01,8.7528973817825317382812500e-02,-5.3289765119552612304687500e-01,3.1187933683395385742187500e-01,-6.5214681625366210937500000e-01,2.7720225043594837188720703e-03,-3.6860769987106323242187500e-01,4.8620367050170898437500000e-01,-4.6745400875806808471679688e-02,8.9525836706161499023437500e-01,2.0572660490870475769042969e-02,-9.1803863644599914550781250e-02,-3.6422783136367797851562500e-01,1.2794367969036102294921875e-01,3.1291654706001281738281250e-01,-5.2125078439712524414062500e-01,-2.7469605207443237304687500e-01,-1.0900254547595977783203125e-01,-1.9107773900032043457031250e-02,1.2828161716461181640625000e+00,7.5606364011764526367187500e-01,-8.5941570997238159179687500e-01,-2.7956106662750244140625000e+00,1.6983081102371215820312500e+00,3.0525669455528259277343750e-01,4.1081469506025314331054688e-02,-2.5548836588859558105468750e-01,8.7967552244663238525390625e-03,-1.2717099189758300781250000e+00},
	{1.9434082508087158203125000e+00,-8.4811225533485412597656250e-02,2.7891653776168823242187500e-01,-3.4997731447219848632812500e-01,-6.7135053686797618865966797e-03,-2.2432756423950195312500000e-01,-3.2319176197052001953125000e-01,1.2245769053697586059570312e-01,1.8931120634078979492187500e-01,3.5718908905982971191406250e-01,7.0607006549835205078125000e-01,2.5747327804565429687500000e+00,-1.1649552583694458007812500e+00,-3.8333886768668889999389648e-03,1.6172635555267333984375000e+00,-1.4799147844314575195312500e+00,-2.1511943638324737548828125e-01,1.3571149110794067382812500e+00,-8.5843890905380249023437500e-01,-4.3178054690361022949218750e-01,-9.0754228830337524414062500e-01,-9.1392773389816284179687500e-01,5.5982100963592529296875000e-01,-3.1991803646087646484375000e-01,-5.7864773273468017578125000e-01,7.3966807685792446136474609e-03,6.2455976009368896484375000e-01,9.3961828947067260742187500e-01,-5.7368558645248413085937500e-01,8.7225610017776489257812500e-01,-1.7245702445507049560546875e-01,5.5603617429733276367187500e-01,3.4115153551101684570312500e-01,4.7947742044925689697265625e-02,3.7563768029212951660156250e-01,-1.9118849188089370727539062e-02,-2.8743156790733337402343750e-01},
	{-3.9240404963493347167968750e-01,3.3005335927009582519531250e-01,3.7857908755540847778320312e-02,-4.4988024979829788208007812e-02,-5.0608402490615844726562500e-01,8.1174820661544799804687500e-02,9.1641709208488464355468750e-02,3.8343369960784912109375000e-02,8.2134857773780822753906250e-02,-2.9730319976806640625000000e-01,1.8533112108707427978515625e-01,1.0263191163539886474609375e-01,9.0974748134613037109375000e-01,-5.1831232849508523941040039e-04,3.1705694198608398437500000e+00,4.7251775860786437988281250e-02,-5.5730789899826049804687500e-01,-4.4800834730267524719238281e-03,-4.3469229340553283691406250e-01,8.1626223400235176086425781e-03,2.9315399006009101867675781e-02,1.8714616075158119201660156e-02,4.1593244671821594238281250e-01,-2.2480754554271697998046875e-01,-1.2569496035575866699218750e-01,-3.6062747240066528320312500e-01,-4.3058428764343261718750000e+00,-3.2760784029960632324218750e-02,6.4405035972595214843750000e-01,-9.9036619067192077636718750e-02,-3.3904066681861877441406250e-01,-7.9443324357271194458007812e-03,3.1813044548034667968750000e+00,6.0617636889219284057617188e-02,-7.1361380815505981445312500e-01,6.7373006604611873626708984e-03,-9.3457654118537902832031250e-02},
	{-4.0355202555656433105468750e-01,-2.1311659365892410278320312e-02,-1.9201632738113403320312500e+00,-1.2586796283721923828125000e-01,4.3261694908142089843750000e-01,-5.2806013822555541992187500e-01,1.0061458498239517211914062e-01,-4.6762317419052124023437500e-02,-1.0448195040225982666015625e-01,8.0784976482391357421875000e-01,-1.3871408700942993164062500e+00,-1.2702856063842773437500000e+00,8.4012347459793090820312500e-01,-2.7990839444100856781005859e-03,1.1457004547119140625000000e+00,-9.4120824337005615234375000e-01,1.3266547918319702148437500e+00,9.9846810102462768554687500e-02,2.3494388163089752197265625e-01,5.0360355526208877563476562e-02,-4.7472470998764038085937500e-01,-1.4024314284324645996093750e-01,-2.8687281608581542968750000e+00,-6.1884099245071411132812500e-01,-4.1383007168769836425781250e-01,2.8282776474952697753906250e-02,5.9858220815658569335937500e-01,1.7514158785343170166015625e-01,1.7079579830169677734375000e-01,-3.5729789733886718750000000e-01,2.1342852115631103515625000e+00,1.8251452594995498657226562e-02,4.9709475040435791015625000e-01,5.6506346911191940307617188e-02,-3.9251869916915893554687500e-01,5.2444136235862970352172852e-04,1.2878698110580444335937500e-01},
	{1.1156297475099563598632812e-01,-1.8506045639514923095703125e-01,-2.0244641304016113281250000e+00,-7.0458930730819702148437500e-01,-5.0602418184280395507812500e-01,6.7523914575576782226562500e-01,-7.7374160289764404296875000e-02,-7.5489437580108642578125000e-01,1.0579494237899780273437500e+00,-6.1872988939285278320312500e-01,4.6291944384574890136718750e-01,4.7126007080078125000000000e-01,1.4442296326160430908203125e-01,1.8143549095839262008666992e-03,-4.6526297926902770996093750e-02,1.5687868595123291015625000e+00,1.1124335527420043945312500e+00,-2.8132116794586181640625000e+00,-2.8401035070419311523437500e-01,7.1499389410018920898437500e-01,5.9664085507392883300781250e-02,3.9917939901351928710937500e-01,1.7109966278076171875000000e-01,-1.8565101921558380126953125e-01,2.1821077167987823486328125e-01,-3.7585344165563583374023438e-02,1.0244086980819702148437500e+00,-1.2249090671539306640625000e+00,2.1882690489292144775390625e-01,-5.7954978197813034057617188e-02,-8.8549053668975830078125000e-01,1.4539955854415893554687500e+00,-3.9396401494741439819335938e-02,3.7746891379356384277343750e-02,2.0233944058418273925781250e-01,-1.1832354357466101646423340e-03,8.5761755704879760742187500e-01},
	{-3.3514419198036193847656250e-01,5.6958335638046264648437500e-01,2.7292237281799316406250000e+00,5.9887325763702392578125000e-01,7.0886296033859252929687500e-01,1.5576677322387695312500000e+00,-2.4387244135141372680664062e-02,-8.1804168224334716796875000e-01,-3.7975966930389404296875000e-01,6.4041197299957275390625000e-01,1.9540762901306152343750000e+00,4.1187030076980590820312500e-01,3.5091534256935119628906250e-01,1.7227994976565241813659668e-04,-1.3572161197662353515625000e+00,-2.3225586116313934326171875e-01,1.2527197599411010742187500e-01,1.1620992422103881835937500e+00,5.1637709140777587890625000e-01,1.0901868343353271484375000e+00,1.5086414292454719543457031e-02,-4.8519477248191833496093750e-01,-1.2196604013442993164062500e+00,-1.6600515842437744140625000e+00,8.0530744791030883789062500e-01,-2.8534233570098876953125000e-01,5.0226622819900512695312500e-01,6.2002077698707580566406250e-02,-4.2190867662429809570312500e-01,-4.2121705412864685058593750e-01,2.9227179288864135742187500e-01,5.2451932430267333984375000e-01,-1.2180821597576141357421875e-01,6.3000433146953582763671875e-02,-3.0691172927618026733398438e-02,9.7418054938316345214843750e-03,6.9547563791275024414062500e-01},
	{-5.5156815052032470703125000e-01,-2.3796330392360687255859375e-01,1.6291276216506958007812500e+00,-1.3925711810588836669921875e-01,6.1790082603693008422851562e-02,3.9365154504776000976562500e-01,-2.5707520544528961181640625e-02,-6.7626279592514038085937500e-01,3.8627836108207702636718750e-01,-5.8369672298431396484375000e-01,-4.1389808058738708496093750e-01,3.3572950959205627441406250e-01,2.9529049992561340332031250e-01,1.2082809116691350936889648e-03,1.0560441762208938598632812e-01,-7.9652261734008789062500000e-01,4.7674030065536499023437500e-01,2.4897799491882324218750000e+00,-8.6158297955989837646484375e-02,8.3797281980514526367187500e-01,2.6671600341796875000000000e-01,-1.6843947172164916992187500e+00,-9.5437479019165039062500000e-01,1.8830033540725708007812500e+00,-5.9980309009552001953125000e-01,-6.6779845952987670898437500e-01,-3.6545762419700622558593750e-01,-1.8270906209945678710937500e+00,6.4341360330581665039062500e-01,8.7384927272796630859375000e-01,-1.6804194450378417968750000e+00,-1.1324222087860107421875000e+00,3.4484341740608215332031250e-01,5.6454565376043319702148438e-02,-3.3651274442672729492187500e-01,4.5975269749760627746582031e-03,-9.6419912576675415039062500e-01},
	{-1.5158495306968688964843750e-01,-3.7052056193351745605468750e-01,-1.6626346111297607421875000e+00,1.2598134279251098632812500e+00,-2.3551025986671447753906250e-01,4.5773312449455261230468750e-01,-8.3137762546539306640625000e-01,-5.3530591726303100585937500e-01,6.6337071359157562255859375e-02,7.2923386096954345703125000e-01,-1.1282908916473388671875000e+00,-7.8040081262588500976562500e-01,-4.8186352849006652832031250e-01,-2.5519379414618015289306641e-03,5.1167017221450805664062500e-01,-4.4153407216072082519531250e-01,-4.6576671302318572998046875e-02,-1.2215886265039443969726562e-01,-1.7806279659271240234375000e-01,5.2284854650497436523437500e-01,2.5767189264297485351562500e-01,-1.3303931951522827148437500e+00,-1.1667613983154296875000000e+00,1.1038541793823242187500000e+00,-3.7728971242904663085937500e-01,-5.5509001016616821289062500e-01,9.3188017606735229492187500e-02,3.9203268289566040039062500e-01,-8.6864727735519409179687500e-01,6.1556838452816009521484375e-02,2.0608263015747070312500000e+00,-1.1522393226623535156250000e+00,-3.9089792966842651367187500e-01,5.8218866586685180664062500e-02,-7.9119825363159179687500000e-01,-4.1196546517312526702880859e-03,1.8965356051921844482421875e-01},
	{1.4147063493728637695312500e+00,-7.6629149913787841796875000e-01,9.4440609216690063476562500e-01,-2.5813606381416320800781250e-01,7.1394734084606170654296875e-02,-1.1587002128362655639648438e-01,-2.0130974054336547851562500e-01,-2.2939306497573852539062500e-01,1.4001242816448211669921875e-01,-6.8805527687072753906250000e-01,1.5063443183898925781250000e+00,1.1167703568935394287109375e-01,-7.2544121742248535156250000e-01,-4.2762970551848411560058594e-03,8.7961918115615844726562500e-01,4.2147803306579589843750000e-01,-1.6665061712265014648437500e+00,2.6095411777496337890625000e+00,7.2964745759963989257812500e-01,1.2636628746986389160156250e-01,5.2020502090454101562500000e-01,1.0659664869308471679687500e+00,-7.6951646804809570312500000e-01,9.7047430276870727539062500e-01,1.0944057703018188476562500e+00,-4.0463918447494506835937500e-01,-4.2594872415065765380859375e-02,1.5354968607425689697265625e-01,-1.2978594005107879638671875e-01,1.3574861288070678710937500e+00,7.2484296560287475585937500e-01,2.6239046454429626464843750e-01,-2.2346073389053344726562500e-01,5.2277605980634689331054688e-02,-2.9564359784126281738281250e-01,6.0470383614301681518554688e-03,1.2193610668182373046875000e+00},
	{-1.7376853227615356445312500e+00,1.7642356455326080322265625e-01,-9.2807072401046752929687500e-01,9.4506615400314331054687500e-01,1.5027558803558349609375000e-01,4.8638331890106201171875000e-01,-1.1111830174922943115234375e-01,-1.8853611946105957031250000e+00,8.5862636566162109375000000e-01,-7.3835480213165283203125000e-01,-1.5258993208408355712890625e-01,-5.8569347858428955078125000e-01,-9.8862588405609130859375000e-01,-9.1688445536419749259948730e-04,8.9696007966995239257812500e-01,3.7193086743354797363281250e-01,2.2669439017772674560546875e-01,-6.9013941287994384765625000e-01,-5.1965200901031494140625000e-01,-6.0241198539733886718750000e-01,1.4385113120079040527343750e-01,-1.0948749780654907226562500e+00,1.0387705564498901367187500e+00,-2.0830792188644409179687500e-01,-1.5443317592144012451171875e-01,3.2538533210754394531250000e-01,-1.3240553140640258789062500e+00,1.4676192402839660644531250e-01,1.2389467656612396240234375e-01,2.6583087444305419921875000e-01,-4.7292956709861755371093750e-01,1.5242750644683837890625000e+00,2.6042342185974121093750000e-01,1.1596070602536201477050781e-02,-6.1568021774291992187500000e-01,4.4998112134635448455810547e-03,-9.0408968925476074218750000e-01},
	{1.4185668230056762695312500e+00,1.4877735078334808349609375e-01,-6.3364320993423461914062500e-01,-2.6364767551422119140625000e-01,-4.0587502717971801757812500e-01,6.6827163100242614746093750e-03,-4.3325778096914291381835938e-02,-9.2303794622421264648437500e-01,-6.7567300796508789062500000e-01,4.5245590806007385253906250e-01,-4.5453292131423950195312500e-01,1.0564192533493041992187500e+00,9.8023593425750732421875000e-01,4.1060787625610828399658203e-03,-2.3790328204631805419921875e-01,-7.5982826948165893554687500e-01,1.2039177417755126953125000e+00,-2.0817583799362182617187500e-01,-6.8855702877044677734375000e-01,6.7591792345046997070312500e-01,2.2375643253326416015625000e-01,2.3877112865447998046875000e+00,2.7573304176330566406250000e+00,1.0334817171096801757812500e+00,3.7241667509078979492187500e-02,-3.3433172106742858886718750e-01,2.8393092751502990722656250e-01,-6.1851024627685546875000000e-01,-2.7348622679710388183593750e-01,5.1742219924926757812500000e-01,-4.7565928101539611816406250e-01,9.4022184610366821289062500e-01,-2.7037864923477172851562500e-01,5.6683428585529327392578125e-02,-2.1583788096904754638671875e-01,-1.3159378431737422943115234e-02,-1.0628658533096313476562500e+00},
	{-1.6648520231246948242187500e+00,-5.7901942729949951171875000e-01,3.2419607043266296386718750e-01,4.6137630939483642578125000e-01,4.3316560983657836914062500e-01,-1.4586588144302368164062500e+00,1.5247379243373870849609375e-01,5.5273675918579101562500000e-01,4.4500735402107238769531250e-01,6.4770573377609252929687500e-01,-1.2118258476257324218750000e+00,9.0066158771514892578125000e-01,-1.0616614818572998046875000e+00,-9.8842130682896822690963745e-05,1.3573716878890991210937500e+00,-9.6847748756408691406250000e-01,-1.2632678449153900146484375e-01,-1.0890626907348632812500000e+00,-2.4677021801471710205078125e-01,-1.5640479326248168945312500e-01,-2.5624629855155944824218750e-01,4.2827269434928894042968750e-01,1.2756594419479370117187500e+00,2.0818640291690826416015625e-01,2.9158699512481689453125000e-01,9.7305051982402801513671875e-02,-3.9395010471343994140625000e-01,-2.8401494026184082031250000e+00,-1.7296691238880157470703125e-01,-1.6286400556564331054687500e+00,1.7236284911632537841796875e-01,-8.0487173795700073242187500e-01,-2.6245638728141784667968750e-01,6.3869357109069824218750000e-02,1.1174804717302322387695312e-01,6.5730526112020015716552734e-03,-1.0751531124114990234375000e+00}};
float weights_tr2_1_1[37]={-1.0226519107818603515625000e+00,1.5748262405395507812500000e-02,-1.4904044866561889648437500e+00,-8.3096390962600708007812500e-01,1.8477922677993774414062500e-01,1.1588970422744750976562500e+00,-4.2156136035919189453125000e-01,2.4334502220153808593750000e+00,-3.2620987296104431152343750e-01,-3.3746886253356933593750000e-01,-1.3121447563171386718750000e+00,2.1755547821521759033203125e-01,1.8357168436050415039062500e+00,-3.5738991573452949523925781e-03,-2.6878659725189208984375000e+00,-3.9622087478637695312500000e+00,2.4077038764953613281250000e+00,2.8408875465393066406250000e+00,2.3912733793258666992187500e-01,-4.2787373065948486328125000e-01,-4.0063339471817016601562500e-01,-5.8000546693801879882812500e-01,9.3534457683563232421875000e-01,1.8253945112228393554687500e+00,-1.8951057195663452148437500e+00,-5.9170752763748168945312500e-01,2.5201168060302734375000000e+00,-5.4618973284959793090820312e-02,-5.1841962337493896484375000e-01,-2.3661786317825317382812500e-01,-2.0560036599636077880859375e-01,-4.6325448155403137207031250e-01,-1.2771900892257690429687500e+00,3.8062524050474166870117188e-02,8.2003450393676757812500000e-01,-4.1575441136956214904785156e-03,-7.7630198001861572265625000e-01};
